       Lambda  D_rot      bias         w0         w1         w2        w3        w4         w5         w6        w7        w8        w9       w10       w11       w12       w13       w14       w15       w16       w17       w18       w19       w20       w21       w22       w23       w24       w25       w26       w27       w28       w29       w30       w31       w32       w33       w34       w35       w36       w37       w38       w39       w40       w41       w42       w43       w44       w45       w46       w47       w48       w49       w50       w51       w52       w53       w54       w55       w56       w57       w58       w59       w60       w61       w62       w63       w64       w65       w66       w67       w68       w69       w70       w71       w72       w73       w74       w75       w76       w77       w78       w79       w80       w81       w82       w83       w84       w85       w86       w87       w88       w89       w90       w91       w92       w93       w94       w95       w96       w97       w98       w99      w100      w101      w102      w103      w104      w105      w106      w107      w108      w109      w110      w111      w112      w113      w114      w115      w116      w117      w118      w119      w120      w121      w122      w123      w124      w125      w126      w127      w128      w129      w130      w131      w132      w133      w134      w135      w136      w137      w138      w139      w140      w141      w142      w143      w144      w145      w146      w147      w148      w149      w150      w151      w152      w153      w154      w155      w156      w157      w158      w159      w160      w161      w162      w163      w164      w165      w166      w167      w168      w169      w170      w171      w172      w173      w174      w175      w176      w177      w178      w179      w180      w181      w182      w183      w184      w185      w186      w187      w188      w189      w190      w191      w192      w193      w194      w195      w196      w197      w198      w199
0  10000000.0  0.000 -0.039336   1.889381   1.862231   1.843602  1.813298  1.796322   1.779657   1.760528  1.743557  1.720983  1.717191  1.689271  1.668054  1.637599  1.626064  1.595861  1.596401  1.555906  1.549926  1.527404  1.499853  1.485639  1.451504  1.444570  1.433730  1.402161  1.392017  1.370655  1.338898  1.331303  1.302178  1.279013  1.266245  1.246415  1.230220  1.213021  1.188509  1.169306  1.152785  1.117954  1.107384  1.078650  1.073732  1.034166  1.021942  1.013946  0.989898  0.958211  0.933609  0.921768  0.901465  0.883997  0.865669  0.845717  0.824960  0.809191  0.798441  0.749265  0.756329  0.742167  0.717177  0.696764  0.665360  0.629180  0.622573  0.604387  0.579547  0.552685  0.544682  0.537297  0.500560  0.505476  0.468102  0.450725  0.423972  0.406498  0.390833  0.362414  0.369148  0.318342  0.313597  0.290282  0.273388  0.248651  0.227247  0.210599  0.202560  0.181466  0.149165  0.135676  0.110314  0.091903  0.078159  0.063852  0.029057  0.013432  0.005574 -0.017601 -0.024402 -0.060492 -0.083018 -0.096984 -0.119557 -0.135138 -0.149573 -0.171971 -0.197574 -0.218609 -0.229065 -0.240039 -0.270049 -0.293132 -0.306972 -0.333629 -0.334482 -0.358560 -0.383256 -0.396565 -0.414241 -0.442878 -0.455235 -0.466269 -0.481566 -0.508879 -0.517975 -0.539526 -0.551705 -0.563741 -0.590012 -0.617161 -0.638407 -0.649178 -0.670319 -0.691751 -0.705472 -0.720410 -0.740726 -0.760900 -0.766710 -0.795188 -0.807572 -0.826139 -0.849131 -0.864001 -0.878887 -0.898041 -0.916676 -0.931516 -0.952939 -0.984476 -1.000379 -1.005910 -1.031202 -1.031733 -1.052705 -1.067927 -1.084561 -1.109176 -1.133693 -1.145790 -1.161895 -1.165234 -1.183436 -1.206839 -1.220341 -1.236854 -1.254697 -1.275791 -1.289315 -1.309527 -1.328085 -1.340719 -1.356131 -1.373760 -1.377742 -1.415642 -1.412680 -1.434986 -1.447821 -1.451163 -1.483952 -1.487379 -1.502057 -1.524650 -1.532326 -1.565346 -1.581320 -1.587401 -1.602448 -1.629823 -1.647557 -1.645426 -1.659609 -1.676600 -1.689032 -1.715018 -1.722198 -1.742489 -1.762761 -1.767961 -1.788164
1  10000000.0  0.001 -0.004689   5.424481   5.156252   4.896760  4.564244  4.389795   4.089108   3.848126  3.641166  3.435060  3.196049  2.944465  2.773503  2.557191  2.313964  2.179329  2.009262  1.798226  1.624730  1.470189  1.308144  1.173220  0.991874  0.856911  0.717571  0.620840  0.481139  0.383145  0.300043  0.168718  0.105044  0.000739 -0.058044 -0.184422 -0.273226 -0.332824 -0.463689 -0.473813 -0.534953 -0.644146 -0.684632 -0.697348 -0.800352 -0.787639 -0.883817 -0.907281 -0.950937 -0.983215 -1.020701 -1.018055 -1.121168 -1.119629 -1.181952 -1.121331 -1.175821 -1.201806 -1.202797 -1.179011 -1.222430 -1.193992 -1.215768 -1.209857 -1.224418 -1.206382 -1.223704 -1.195555 -1.155457 -1.170203 -1.189619 -1.156097 -1.111782 -1.157487 -1.118302 -1.104246 -1.090844 -1.092122 -1.080774 -1.073666 -1.021331 -0.996526 -0.999696 -0.935183 -0.973530 -0.961500 -0.905757 -0.905056 -0.888886 -0.868045 -0.851902 -0.872140 -0.858663 -0.809279 -0.792758 -0.777602 -0.729877 -0.747419 -0.710751 -0.685392 -0.736474 -0.641186 -0.612252 -0.605929 -0.589693 -0.560388 -0.530806 -0.475108 -0.519291 -0.461067 -0.469979 -0.445463 -0.405207 -0.458875 -0.397688 -0.368540 -0.377441 -0.301281 -0.316473 -0.308587 -0.281865 -0.318756 -0.295895 -0.251385 -0.218411 -0.176021 -0.186945 -0.251497 -0.167313 -0.188454 -0.159122 -0.176899 -0.138602 -0.147827 -0.166074 -0.155541 -0.168288 -0.082652 -0.060500 -0.077514 -0.092687 -0.095636 -0.081607 -0.061164 -0.030772 -0.057149 -0.059265 -0.044465 -0.046653 -0.023801 -0.023298  0.004511  0.006409  0.023298 -0.021749  0.024402  0.080097  0.071852  0.045418  0.033773  0.066681  0.030815  0.076222  0.094090  0.084924  0.094692  0.076007  0.082873  0.127614  0.118935  0.112672  0.098369  0.157824  0.101631  0.116750  0.105226  0.126958  0.113516  0.096038  0.145115  0.115108  0.148856  0.171126  0.131046  0.134492  0.098173  0.104109  0.111575  0.132427  0.108574  0.137984  0.110888  0.092191  0.120726  0.116140  0.130689  0.131612  0.129765  0.109519  0.093076  0.085814  0.094941  0.093458
2  10000000.0  0.010 -0.001234  11.906981  10.538056   9.219618  8.033006  6.865404   5.848101   4.841387  3.996798  3.106392  2.355886  1.692351  1.116362  0.540977  0.086261 -0.452283 -0.746191 -1.120804 -1.442607 -1.711588 -1.834790 -2.117139 -2.290208 -2.427503 -2.498450 -2.639485 -2.578050 -2.575535 -2.646991 -2.582828 -2.534552 -2.534956 -2.426450 -2.318954 -2.310787 -2.237472 -2.154220 -1.942175 -1.965749 -1.832535 -1.759814 -1.730223 -1.556045 -1.537189 -1.414342 -1.303026 -1.157021 -1.100090 -1.042498 -0.876499 -0.823745 -0.819678 -0.705171 -0.636201 -0.596100 -0.496865 -0.404734 -0.417845 -0.397892 -0.258832 -0.248396 -0.306775 -0.183699 -0.151551 -0.130385 -0.186438 -0.095804 -0.133937 -0.064721 -0.079355 -0.024173  0.074445 -0.016030  0.051677  0.117085  0.105100  0.111583  0.169941  0.155847  0.178219  0.053158  0.109291  0.122681  0.042352  0.099908  0.088421  0.119478  0.105198  0.067755  0.038399  0.064323  0.049698  0.104542  0.122527  0.074627  0.026451  0.069413  0.033625 -0.033484 -0.031395 -0.061461 -0.085002  0.110245  0.003536  0.066439  0.004652  0.043951 -0.026917 -0.020784  0.006223  0.015628 -0.129348 -0.040652  0.024528 -0.040206 -0.023802  0.025721 -0.023779  0.071061  0.061709 -0.009345 -0.081506 -0.012048 -0.017151 -0.063589  0.003435 -0.049249 -0.011378  0.054089 -0.068342 -0.009300  0.075664 -0.047435 -0.090114 -0.070077 -0.115540 -0.112758 -0.098210 -0.082414 -0.069377 -0.067923 -0.080111 -0.049959 -0.157045 -0.110073 -0.066727 -0.002322 -0.028333 -0.033129  0.117520  0.012358  0.103900  0.042061  0.163273  0.126209  0.097182  0.072047  0.056734  0.098772  0.012094  0.066453  0.028233  0.033730  0.093496 -0.029077  0.007413  0.009014  0.006059  0.044957  0.035200  0.104290  0.051165  0.169898  0.069185  0.152169  0.130329  0.094177  0.133261  0.105251  0.081287  0.089549  0.038593  0.059357  0.046429 -0.054623 -0.027908 -0.055860 -0.009769  0.002302 -0.049064  0.014165 -0.053567 -0.127463 -0.054824 -0.055137 -0.087426 -0.099113 -0.120941 -0.147589 -0.084244 -0.130784
3  10000000.0  0.100 -0.000405  22.480436  17.324087  12.768025  8.887898  5.648598   2.741934   0.470710 -1.394315 -2.801454 -3.899619 -4.717482 -5.143701 -5.411888 -5.420950 -5.477765 -5.225905 -4.974494 -4.562240 -4.100474 -3.705645 -3.342543 -2.892656 -2.441676 -2.139854 -1.814579 -1.437196 -1.044441 -0.876868 -0.561825 -0.299087 -0.155307 -0.106576  0.065907  0.190428  0.243161  0.180280  0.276659  0.265892  0.331180  0.217348  0.355480  0.267259  0.315053  0.309126  0.142183  0.141259  0.058912  0.012182  0.047517 -0.080883  0.010407 -0.038136 -0.108830  0.022176 -0.011901 -0.070295 -0.067981  0.068059  0.126481 -0.018118  0.130453 -0.048239  0.073682  0.064050  0.148922  0.056523  0.193159  0.102481  0.051518 -0.006352  0.032902  0.080306  0.099958  0.047178 -0.028850 -0.066680  0.059066  0.013379  0.052588  0.070303  0.022260 -0.004177 -0.027930  0.000414  0.038165  0.048375  0.046542  0.007304  0.004500 -0.054517 -0.136251 -0.104761 -0.068118 -0.003827 -0.028881 -0.013440 -0.056336 -0.072508 -0.081253 -0.176298 -0.159031 -0.168469 -0.230828 -0.308703 -0.197383 -0.256056 -0.206174 -0.164552 -0.066003  0.102542  0.009541  0.137814  0.104352  0.287909  0.217236  0.200711  0.186251  0.154470  0.139099  0.112114  0.049945  0.131355  0.117988  0.078663  0.044348  0.076267  0.055176  0.039170  0.009270  0.056081  0.059032  0.065393  0.125094  0.046886  0.020709 -0.022195 -0.082867 -0.097247 -0.132562 -0.193626 -0.063247 -0.254596 -0.166675 -0.089730 -0.090851 -0.093276 -0.049203 -0.073143  0.041834  0.050806  0.047723  0.067396  0.058994  0.063831  0.138572  0.051115 -0.002841  0.150964  0.039474  0.029373  0.079636  0.049565  0.028040 -0.014234 -0.150767 -0.105087 -0.016181 -0.007858 -0.104855 -0.113779 -0.126147 -0.048910 -0.064102 -0.044517  0.035067  0.145216  0.075380  0.072676  0.159945  0.113666  0.085856  0.055620  0.093781  0.014378 -0.068809 -0.017209 -0.131802 -0.178374 -0.068169 -0.101167 -0.011088 -0.114909 -0.084908 -0.033338 -0.143582 -0.010611  0.010748  0.111614  0.161931  0.098554
4  10000000.0  0.200 -0.000330  26.370384  18.954543  12.757289  7.584349  3.418206   0.021318  -2.238436 -4.128998 -5.309135 -5.967476 -6.435062 -6.524075 -6.256864 -5.872990 -5.406455 -4.996037 -4.149149 -3.731687 -2.970953 -2.484541 -1.841312 -1.492061 -1.078426 -0.883804 -0.482659 -0.355377 -0.160329 -0.013993  0.108972  0.172095  0.198995  0.282144  0.261925  0.343534  0.408753  0.467316  0.360522  0.236685  0.259454  0.247450  0.211055  0.238173  0.276224  0.145808  0.200379  0.075976  0.114241  0.026445 -0.046932 -0.108142 -0.059024 -0.148165 -0.201824 -0.076672 -0.222478 -0.144545 -0.250568 -0.105918 -0.087112  0.013238 -0.086207  0.031041 -0.038461  0.004416  0.019592  0.046127  0.072829  0.135874  0.131882  0.102543  0.117772  0.161128  0.023997  0.144166  0.128160  0.120475  0.071988  0.077119 -0.056826 -0.123111 -0.066862  0.085341  0.048722  0.065773 -0.057702  0.004567 -0.125063 -0.129286 -0.048510 -0.013434 -0.040752 -0.090506 -0.050578 -0.016663 -0.007268  0.019176  0.056707 -0.053514 -0.045586 -0.002698  0.083463 -0.063616 -0.088559 -0.039126  0.058276  0.038937 -0.089925 -0.046439  0.062836 -0.066801 -0.075044 -0.085538 -0.131967 -0.175415 -0.031310 -0.158294 -0.054995 -0.063372 -0.066188 -0.143965  0.062489  0.090774  0.022437 -0.008049  0.055600  0.144612  0.034037  0.148182  0.074400  0.174450  0.186101  0.108856  0.040744 -0.004356 -0.050080 -0.058006 -0.089291 -0.114788 -0.123062 -0.067404  0.070121  0.026879  0.043040  0.108362  0.081063  0.104668 -0.045666  0.050722  0.049911  0.015586  0.049938 -0.039044 -0.027795 -0.088634  0.033649  0.005737 -0.026358 -0.015053 -0.120283 -0.047866 -0.025053 -0.108609 -0.015863 -0.083348 -0.019141 -0.081565  0.012162  0.056779 -0.039600  0.009294  0.048544  0.081425  0.002017  0.095381  0.088172  0.146601  0.020007  0.023876  0.036749 -0.013561  0.139567  0.117062  0.020836  0.008028  0.022107  0.127434  0.009173  0.023905  0.075122  0.121213  0.071065 -0.003646 -0.060872 -0.105931 -0.100796 -0.026195 -0.105063 -0.164690 -0.186340 -0.142440
5  10000000.0  1.000 -0.000307  36.432256  20.561378   8.812486  0.431392 -4.835044  -7.880610  -9.203337 -9.256241 -8.549770 -7.495115 -6.332349 -4.925988 -3.822548 -2.836408 -1.924028 -1.221836 -0.727593 -0.284534  0.239393  0.394956  0.392845  0.418150  0.348183  0.251921  0.173188  0.288273  0.194435  0.281864  0.074546  0.094595 -0.055924 -0.036642 -0.165933 -0.035261 -0.011002  0.227114  0.070996 -0.035006  0.082215 -0.030459 -0.118537 -0.178844 -0.174052 -0.180846 -0.073555  0.027891  0.028993  0.204086  0.168181  0.119765  0.099378  0.205560  0.048965  0.047833  0.004124  0.105328  0.095803  0.041924 -0.019315 -0.018552 -0.083884 -0.056885 -0.160081 -0.146132 -0.068053 -0.013849  0.099553  0.096370  0.069279 -0.064786 -0.041542 -0.086873 -0.046324 -0.238871 -0.178790 -0.073203 -0.243783 -0.216729 -0.007680 -0.008072  0.071561  0.297149  0.281596  0.211475  0.204174  0.164716  0.148483 -0.019453 -0.007441 -0.024152  0.057435 -0.007751  0.051798  0.058914  0.010221 -0.088664 -0.095294 -0.096996 -0.070522 -0.146174 -0.041482 -0.008353 -0.110370 -0.081677  0.017244  0.047641 -0.018325  0.068001  0.087363  0.006280  0.046152  0.116827 -0.102080  0.068133 -0.029412  0.043381  0.027175  0.040082 -0.008180 -0.112720 -0.085537  0.002336 -0.063281 -0.042624 -0.015341 -0.105851 -0.074880 -0.065484  0.052943  0.111171  0.001093  0.123489  0.195232  0.076144 -0.004349  0.073900 -0.043115 -0.165980  0.007721 -0.081541 -0.163689 -0.028574 -0.040618 -0.135748 -0.024340 -0.025498 -0.046739  0.006442  0.001503 -0.055111 -0.017777  0.030108 -0.017238  0.103223  0.163249  0.081894  0.205339  0.148218  0.075520  0.120182  0.068621  0.070964  0.055999 -0.034971 -0.151413 -0.125376 -0.016456 -0.147573 -0.117185  0.001545 -0.132511 -0.094641 -0.067145  0.079189 -0.039388  0.153358  0.185972  0.181609  0.082682 -0.033067 -0.090909 -0.130858 -0.043935 -0.069697 -0.131498 -0.148980 -0.041638  0.012457  0.062731 -0.027194 -0.062558  0.057313 -0.086353 -0.012864  0.135046  0.128728  0.148735  0.096073 -0.018066 -0.159612
6  10000000.0  2.000 -0.000231  41.203953  19.868941   5.369373 -3.724279 -8.728956 -10.811057 -10.810999 -9.741183 -8.016616 -6.151381 -4.463298 -3.012357 -1.889167 -1.072218 -0.583644 -0.171413 -0.034158  0.131031  0.384030  0.469287  0.520169  0.496007  0.292135  0.233461  0.155460  0.140047  0.078279  0.027138  0.064087  0.023235 -0.069060 -0.107855 -0.014911 -0.041351 -0.060988 -0.127428  0.089540  0.028277  0.014021 -0.002169  0.048297  0.009268  0.044924  0.012017 -0.014302 -0.225518 -0.127629  0.047687  0.039090  0.142106  0.076264  0.045020  0.058613  0.168261  0.079167  0.108249  0.036267 -0.026198  0.018234 -0.098716  0.002721 -0.185392 -0.114713 -0.033690 -0.082461 -0.118468  0.054784  0.002156 -0.083737 -0.084126 -0.100829  0.017546 -0.025717 -0.040076 -0.002560  0.193949  0.054008  0.163319  0.124816  0.018937 -0.017676  0.025513 -0.013063 -0.061726  0.004120  0.003820  0.048212 -0.071217  0.060580  0.124702 -0.033687  0.000328  0.050706  0.000965 -0.063719 -0.148282 -0.066851 -0.103682 -0.020675  0.063350  0.110205  0.071575 -0.015694  0.007627  0.026684 -0.014480 -0.002738 -0.007774  0.112567 -0.011176 -0.103273 -0.038741  0.036405  0.015653 -0.075127 -0.037984 -0.045364 -0.106762 -0.110095 -0.085840 -0.028789 -0.036974 -0.094001  0.050415  0.182416  0.121825  0.110570  0.200377 -0.006300  0.128140  0.133176  0.112953 -0.040504  0.032592 -0.051158  0.016787 -0.123600 -0.219691 -0.206933 -0.099897 -0.116062 -0.057703  0.084016  0.120707  0.089363  0.052195  0.041628 -0.099829  0.015212 -0.103901 -0.218050 -0.190925 -0.144373  0.016930  0.148336  0.131568  0.163259  0.255902  0.236316  0.094356  0.100608 -0.114587 -0.130297 -0.067794 -0.042460  0.148902  0.017722  0.097219 -0.045674 -0.019412  0.009625 -0.021645 -0.041872 -0.008795  0.012641 -0.087113 -0.109758 -0.046704 -0.041512 -0.078419 -0.049375 -0.045088  0.041258 -0.055317 -0.142807 -0.093954  0.030254  0.170401  0.102197  0.021236 -0.003854  0.047954 -0.128795 -0.126638  0.046012  0.228761  0.030254  0.023819 -0.005491 -0.030977