      Lambda  D_rot      bias         w0        w1        w2        w3        w4        w5        w6        w7        w8        w9       w10       w11       w12       w13       w14       w15       w16       w17       w18       w19       w20       w21       w22       w23       w24       w25       w26       w27       w28       w29       w30       w31       w32       w33       w34       w35       w36       w37       w38       w39       w40       w41       w42       w43       w44       w45       w46       w47       w48       w49       w50       w51       w52       w53       w54       w55       w56       w57       w58       w59       w60       w61       w62       w63       w64       w65       w66       w67       w68       w69       w70       w71       w72       w73       w74       w75       w76       w77       w78       w79       w80       w81       w82       w83       w84       w85       w86       w87       w88       w89       w90       w91       w92       w93       w94       w95       w96       w97       w98       w99      w100      w101      w102      w103      w104      w105      w106      w107      w108      w109      w110      w111      w112      w113      w114      w115      w116      w117      w118      w119      w120      w121      w122      w123      w124      w125      w126      w127      w128      w129      w130      w131      w132      w133      w134      w135      w136      w137      w138      w139      w140      w141      w142      w143      w144      w145      w146      w147      w148      w149      w150      w151      w152      w153      w154      w155      w156      w157      w158      w159      w160      w161      w162      w163      w164      w165      w166      w167      w168      w169      w170      w171      w172      w173      w174      w175      w176      w177      w178      w179      w180      w181      w182      w183      w184      w185      w186      w187      w188      w189      w190      w191      w192      w193      w194      w195      w196      w197      w198      w199
0  1000000.0  0.000 -0.038086   1.766821  1.797308  1.785964  1.718528  1.728960  1.723951  1.690374  1.666702  1.708015  1.672550  1.621145  1.597064  1.601563  1.570631  1.523068  1.523944  1.519935  1.501651  1.470209  1.472484  1.459859  1.411283  1.379840  1.369769  1.393301  1.314369  1.326553  1.294359  1.281803  1.227934  1.250083  1.222756  1.184718  1.193390  1.193947  1.126176  1.150933  1.122105  1.072398  1.076252  1.066861  1.027347  1.037839  0.974553  0.944451  0.954542  0.942603  0.916819  0.895092  0.864994  0.846583  0.832216  0.828772  0.796216  0.803508  0.767718  0.723362  0.744670  0.711788  0.701433  0.652275  0.641048  0.623488  0.568941  0.617922  0.593322  0.562424  0.538763  0.489389  0.496738  0.447941  0.426501  0.438934  0.385107  0.384978  0.348228  0.382214  0.350415  0.321190  0.333365  0.308627  0.268802  0.257647  0.212553  0.229055  0.198222  0.171190  0.145533  0.158585  0.141378  0.086701  0.062642  0.074854  0.030387  0.014129  0.018056 -0.023118 -0.035817 -0.065267 -0.046246 -0.064748 -0.098752 -0.148341 -0.121696 -0.192578 -0.176752 -0.200425 -0.236786 -0.243933 -0.231982 -0.245943 -0.291417 -0.339593 -0.325091 -0.330070 -0.325662 -0.368595 -0.359258 -0.401881 -0.471312 -0.482777 -0.476172 -0.497581 -0.526259 -0.511423 -0.549074 -0.585149 -0.583858 -0.592128 -0.617777 -0.655323 -0.660872 -0.658780 -0.690998 -0.659092 -0.717587 -0.759306 -0.763783 -0.784335 -0.780607 -0.805817 -0.833565 -0.821798 -0.811529 -0.868636 -0.862432 -0.898080 -0.931998 -0.944338 -1.000459 -0.977672 -0.975024 -1.001072 -1.009247 -0.982041 -1.054769 -1.110349 -1.096699 -1.081272 -1.095931 -1.118428 -1.188198 -1.172716 -1.162627 -1.213623 -1.215032 -1.240137 -1.270154 -1.265514 -1.314762 -1.241901 -1.306151 -1.336037 -1.366895 -1.383980 -1.383601 -1.384801 -1.393897 -1.444961 -1.420296 -1.403167 -1.454023 -1.475483 -1.488998 -1.514895 -1.514136 -1.492096 -1.583312 -1.556408 -1.577174 -1.614896 -1.646209 -1.615831 -1.642023 -1.688877 -1.681692 -1.673991 -1.707985 -1.738883 -1.738180
1  1000000.0  0.001 -0.006416   3.962638  3.781691  3.639517  3.414247  3.353580  3.214597  3.031914  2.800802  2.717477  2.539091  2.464929  2.285991  2.122656  2.032927  1.877202  1.794909  1.693869  1.488697  1.374824  1.244864  1.286356  1.051028  0.948586  0.971167  0.838674  0.697717  0.620990  0.488534  0.523368  0.420327  0.305749  0.325049  0.277536  0.089335  0.057903  0.002732 -0.056880 -0.074945 -0.218325 -0.129522 -0.312111 -0.337210 -0.306952 -0.340839 -0.364286 -0.473334 -0.536983 -0.579867 -0.535738 -0.529995 -0.568788 -0.689252 -0.654592 -0.743066 -0.765535 -0.794362 -0.753551 -0.791878 -0.750895 -0.829343 -0.789584 -0.867375 -0.766038 -0.854469 -0.864865 -0.892427 -0.900770 -0.796452 -0.905995 -0.807641 -0.844128 -0.850689 -0.893999 -0.833911 -0.851951 -0.856472 -0.874021 -0.771418 -0.842568 -0.890103 -0.854369 -0.823359 -0.806771 -0.822364 -0.928887 -0.835595 -0.733372 -0.775529 -0.784522 -0.840467 -0.712031 -0.833960 -0.723908 -0.781134 -0.784404 -0.742883 -0.713146 -0.778592 -0.723727 -0.632768 -0.705174 -0.629295 -0.660880 -0.728042 -0.711939 -0.631261 -0.580430 -0.560618 -0.564063 -0.459515 -0.578590 -0.518758 -0.503637 -0.502110 -0.498162 -0.535492 -0.421836 -0.392299 -0.391791 -0.380379 -0.349597 -0.414242 -0.355247 -0.359832 -0.361148 -0.363240 -0.329221 -0.360311 -0.320632 -0.347105 -0.269609 -0.272106 -0.295806 -0.280113 -0.347285 -0.152450 -0.215330 -0.211411 -0.283181 -0.239570 -0.258263 -0.227421 -0.157484 -0.257641 -0.211367 -0.115447 -0.127214 -0.130998 -0.150619 -0.031077 -0.082367 -0.120606 -0.036153 -0.074414 -0.203492 -0.038007 -0.093287 -0.063177 -0.051002 -0.000385 -0.145609 -0.034364  0.038544 -0.089755 -0.016809 -0.080303 -0.016619 -0.051633  0.025623 -0.013886 -0.001795 -0.018010  0.068854  0.064411  0.067219  0.151119  0.109483  0.004219  0.048851  0.157521  0.111178  0.048572  0.090737  0.192781  0.109601  0.141548  0.151370  0.136950  0.138076  0.178595  0.175175  0.165121  0.108798  0.165755  0.154347  0.140888  0.211916  0.229197  0.104467  0.190309
2  1000000.0  0.010 -0.001701   6.903391  6.276169  5.676513  5.206524  4.657004  4.137789  3.630893  3.267644  2.775162  2.347302  2.029870  1.761634  1.426497  1.167615  0.838867  0.629783  0.370335  0.180297 -0.079660 -0.223042 -0.259450 -0.578472 -0.686059 -0.747110 -0.960340 -1.079825 -1.098948 -1.095563 -1.286855 -1.320438 -1.305350 -1.303596 -1.391844 -1.385659 -1.399637 -1.425884 -1.429600 -1.394632 -1.404560 -1.480481 -1.336433 -1.458198 -1.391244 -1.322046 -1.324224 -1.246243 -1.296423 -1.224282 -1.192571 -1.204327 -1.204389 -1.191350 -1.031096 -0.990172 -0.971463 -0.918461 -0.870727 -0.919168 -0.792799 -0.811024 -0.776895 -0.698905 -0.734630 -0.722941 -0.636622 -0.520441 -0.556186 -0.461262 -0.548034 -0.353048 -0.356335 -0.336562 -0.321462 -0.302048 -0.230984 -0.288445 -0.231569 -0.077909 -0.155422 -0.099219 -0.150251 -0.075097 -0.043377 -0.109061 -0.046161 -0.050150 -0.030266  0.030425  0.031151 -0.057916  0.033703  0.091161 -0.027292  0.025269 -0.000970 -0.009650  0.053971 -0.020340  0.046251  0.044249 -0.046996  0.005474  0.036591  0.039785  0.050737 -0.015315 -0.033475 -0.072904  0.020393  0.020266  0.066916  0.066844  0.049742 -0.014967  0.029697  0.053002 -0.075407 -0.003120  0.031096 -0.009439  0.017049  0.090238  0.021463 -0.018242 -0.045813 -0.027450 -0.018339 -0.042311 -0.025829  0.006068  0.066570  0.036825 -0.018599 -0.069286  0.006507  0.023146 -0.034774 -0.068543 -0.049256 -0.015235  0.099163 -0.008305 -0.078334  0.037076 -0.049067  0.099756 -0.010650  0.013606  0.046339 -0.055547  0.091150  0.083309  0.044597  0.030587  0.015965  0.017482  0.057427  0.024335  0.095708  0.130756  0.012954  0.073278  0.070556  0.100681  0.011954  0.079263  0.065934  0.131950  0.063713  0.000643  0.112172  0.006165  0.020003  0.094788  0.012277  0.021643  0.098860  0.142336  0.150336  0.022727  0.079573  0.073863  0.076310  0.045381 -0.147702 -0.036054 -0.028107 -0.067064 -0.012766 -0.003107 -0.077497 -0.063299 -0.057207 -0.099052 -0.094976 -0.060106 -0.183669 -0.020451 -0.105492 -0.145928
3  1000000.0  0.100 -0.000577   9.891403  8.338664  6.918294  5.529750  4.394219  3.332392  2.383666  1.478305  0.808896  0.174771 -0.388266 -0.909695 -1.263790 -1.554531 -1.796109 -1.940606 -2.102585 -2.182086 -2.185034 -2.253269 -2.208575 -2.163269 -2.192717 -2.076833 -1.955822 -1.933042 -1.840127 -1.713499 -1.568709 -1.409731 -1.319122 -1.160771 -1.021701 -0.922286 -0.825026 -0.705780 -0.690273 -0.566843 -0.517558 -0.419274 -0.390102 -0.247988 -0.245795 -0.158781 -0.137217 -0.134972  0.009437 -0.060276 -0.058941 -0.027242  0.094206 -0.013221  0.037856  0.089548  0.041541  0.074467  0.107768  0.138485  0.029950  0.116829  0.123682  0.046229  0.157937  0.095043  0.154089  0.199625  0.057688  0.090377  0.135416  0.074191  0.120836  0.006511  0.070561  0.064933  0.078971  0.030616  0.095153 -0.002643  0.051687  0.045534  0.095591  0.054361  0.007131  0.022136  0.053875 -0.083755  0.044686 -0.004735  0.036332 -0.043289 -0.121645 -0.005003  0.029286 -0.049439 -0.042879  0.009507 -0.001248 -0.069875 -0.123540 -0.086392 -0.072997 -0.142592 -0.106953 -0.048206 -0.081908 -0.105129 -0.068966 -0.093337  0.026834  0.006652  0.008654  0.014906 -0.009782  0.059981  0.006621  0.019757  0.092649  0.104483  0.026982  0.024567  0.043360  0.061584  0.107555  0.121195 -0.028287  0.042753  0.057888  0.053042  0.056423 -0.016445  0.072450  0.011834 -0.000601 -0.021786  0.015296  0.008372  0.011294 -0.062546 -0.022137 -0.016836 -0.038571 -0.101713 -0.030812 -0.063556 -0.037476 -0.047996  0.013964  0.010218  0.016120  0.017089 -0.107344 -0.055982 -0.013737  0.071297  0.015315 -0.013923  0.044000  0.008934  0.011145  0.024341 -0.001778 -0.074953  0.046406 -0.014046 -0.026750  0.010883 -0.044150  0.012599  0.004233 -0.008054  0.036995 -0.015121  0.012904  0.026172  0.069439  0.031945  0.083813 -0.002106  0.019102  0.007284  0.034773  0.033620 -0.013996 -0.053998 -0.014564 -0.041190 -0.033004 -0.038470 -0.036278 -0.008005 -0.026086 -0.010104 -0.018486  0.023340 -0.042803 -0.061651 -0.012026  0.018814 -0.034636  0.020064
4  1000000.0  0.200 -0.000493  10.826146  8.763718  6.946700  5.258831  3.848201  2.612403  1.550738  0.652757 -0.147279 -0.796562 -1.237164 -1.757025 -2.052571 -2.228624 -2.334124 -2.496491 -2.512994 -2.527968 -2.448715 -2.367445 -2.253177 -2.102213 -1.931871 -1.767606 -1.726261 -1.492245 -1.370670 -1.171191 -1.065312 -0.899389 -0.773316 -0.648032 -0.505691 -0.474794 -0.337799 -0.293563 -0.153787 -0.207492 -0.080546  0.019722  0.019200  0.016432  0.102735  0.066652  0.063408  0.102908  0.105960  0.102405  0.074430  0.076737  0.097934  0.105149  0.021259  0.035852  0.047717  0.043173  0.023677  0.023260  0.023446  0.019343  0.002372  0.065111  0.040457  0.061509  0.079991  0.026896  0.065713  0.049378  0.062029  0.044209  0.081862  0.000020  0.075175  0.079592  0.094780 -0.007762  0.039191  0.089104  0.016428  0.053993 -0.007081  0.031278  0.006662 -0.045791  0.025091 -0.019852  0.022522 -0.011961 -0.115020  0.014993  0.026568 -0.018436 -0.049190 -0.064772 -0.039767 -0.021870 -0.001875  0.036556 -0.055331 -0.045921 -0.005781  0.065367  0.008104 -0.029664 -0.049899 -0.019789 -0.042004 -0.035696 -0.040341 -0.070926 -0.048314 -0.060086 -0.041475 -0.102055 -0.066367 -0.068480 -0.000296 -0.012734 -0.019790 -0.003893  0.033521 -0.015983  0.015852 -0.017499 -0.033706  0.026359 -0.025307  0.020456  0.093237  0.038596  0.026040 -0.038620  0.040896  0.012862 -0.017378  0.001606  0.011168  0.000193  0.033497  0.012719  0.004240  0.035564  0.019231 -0.000822 -0.025617  0.074782 -0.000779  0.016768 -0.037368  0.060901 -0.058122 -0.027492  0.006941  0.026633  0.038591 -0.038488  0.073748 -0.022917 -0.009187 -0.032685  0.016652 -0.011633  0.003958 -0.032825 -0.014201  0.021207  0.016429  0.040486 -0.010135  0.063173  0.075006  0.013856  0.081787  0.021021  0.037843  0.030885  0.092978  0.047283  0.037757 -0.001515 -0.013551  0.036659  0.037793  0.033578  0.015574 -0.020586 -0.006314 -0.015327 -0.018657 -0.004499  0.029125 -0.054585 -0.032390  0.003143 -0.024886 -0.085695 -0.092761 -0.063592 -0.100839 -0.104938
5  1000000.0  1.000 -0.000434  12.563254  9.172900  6.246987  3.876993  1.894724  0.371844 -0.788089 -1.678428 -2.231708 -2.659540 -2.868546 -2.877076 -2.903176 -2.788344 -2.553162 -2.386162 -2.132407 -1.880890 -1.614648 -1.378210 -1.166968 -0.978368 -0.779123 -0.669048 -0.465167 -0.385279 -0.275851 -0.150466 -0.111318 -0.047038 -0.003867  0.022291  0.086914  0.101463  0.149787  0.151925  0.145243  0.142925  0.154529  0.087569  0.111358  0.035238  0.079552  0.015322  0.030580  0.068241  0.004611  0.094895  0.069818  0.055640  0.060666  0.064966  0.069200  0.012100  0.045466  0.006182  0.058014  0.008190 -0.018982  0.008228 -0.040333 -0.030785 -0.057840 -0.063664 -0.000308 -0.033372 -0.011918  0.005627 -0.016194 -0.023160 -0.039993 -0.024728 -0.047914 -0.001069 -0.034998 -0.020489 -0.038574 -0.032014 -0.028876  0.016383  0.035661  0.073719  0.044417  0.075584  0.025661  0.060419  0.054411  0.036376  0.032019  0.010956  0.003788 -0.009918  0.017168 -0.004967 -0.003182 -0.004662 -0.009649  0.005771 -0.031174  0.001932 -0.015617 -0.016516 -0.048850 -0.030198 -0.018669 -0.006208 -0.014087  0.016282  0.027931  0.007291 -0.000433  0.018271 -0.034090  0.045823 -0.009078 -0.014699  0.005707 -0.002036  0.021405  0.007005 -0.042643 -0.016936  0.002916 -0.053426 -0.042342 -0.030760 -0.027010 -0.013455  0.003327  0.034327  0.002917  0.014226  0.005022 -0.020656  0.002710  0.026621  0.004317 -0.020688 -0.097049  0.012521 -0.027531 -0.039134 -0.010524  0.000232 -0.029818  0.039385  0.013565 -0.003986  0.025545  0.005994  0.014355 -0.034239  0.006355  0.058167  0.050794  0.036760  0.044374  0.068488  0.072633  0.049744  0.023770  0.013328  0.003636  0.022188 -0.043402  0.016784 -0.023811 -0.005135 -0.022874 -0.006959 -0.069945 -0.013601 -0.055633 -0.019619  0.019776 -0.040760  0.029979 -0.015268 -0.003744 -0.005851 -0.017379 -0.052535 -0.005333 -0.019462 -0.026886 -0.021217 -0.005179 -0.036087  0.015063 -0.034782 -0.022037 -0.020670 -0.002392 -0.003548  0.055837  0.047172  0.047960  0.021251  0.024942 -0.024665
6  1000000.0  2.000 -0.000329  13.658654  9.388561  5.872181  3.022324  0.892430 -0.744611 -1.882625 -2.608703 -3.050632 -3.207079 -3.254966 -3.118557 -2.875242 -2.604166 -2.335295 -1.975120 -1.692759 -1.409778 -1.113217 -0.857178 -0.629919 -0.455831 -0.319616 -0.188991 -0.087725  0.016441  0.068720  0.081267  0.138297  0.141569  0.157634  0.087514  0.111218  0.145557  0.122927  0.092782  0.093655  0.115870  0.088067  0.036130  0.031863  0.044632  0.041402 -0.016613  0.000019  0.007983 -0.010044  0.056357 -0.013695  0.052917  0.036175  0.012013  0.029600  0.027024  0.033270  0.025676  0.030251 -0.027225 -0.019685 -0.013494 -0.025294 -0.034636 -0.077992 -0.089036 -0.033059 -0.039454 -0.034149 -0.025894 -0.022066 -0.050912  0.007730 -0.015379  0.006030 -0.000681  0.028097  0.097422  0.024115 -0.009305  0.003521  0.021639  0.048900  0.015238 -0.001702 -0.025288  0.027163  0.014463  0.011247  0.003483  0.030065  0.031073 -0.013722  0.028028  0.013044  0.014472 -0.020591 -0.002154 -0.016303  0.003772 -0.038195 -0.031828  0.047793 -0.017391  0.007415 -0.025111 -0.007152 -0.004445 -0.004169 -0.026737 -0.047824 -0.001242 -0.029315 -0.008447 -0.042096 -0.024471 -0.003100  0.020146 -0.016714 -0.014006 -0.026543  0.023711  0.001641 -0.028107 -0.032555  0.031514  0.029916  0.022706  0.061021  0.077902  0.024841  0.067454  0.047567  0.045727 -0.005302 -0.000489 -0.032045  0.006552 -0.028718 -0.088194 -0.039250 -0.045089 -0.039733 -0.047590 -0.059509 -0.035109  0.008779  0.033843 -0.020759  0.012117 -0.011667  0.004868  0.010339 -0.004347 -0.009921 -0.009009  0.030945  0.065952  0.033467  0.052463  0.041050  0.060444  0.027305  0.040139  0.006729  0.018499  0.012416 -0.009426 -0.015772  0.024602 -0.001880 -0.022216  0.013128 -0.009273 -0.020491 -0.037767 -0.002776 -0.032337 -0.043113 -0.024642 -0.062928 -0.030228 -0.076208 -0.058440 -0.019303 -0.038679  0.020953 -0.028187 -0.027464  0.041881  0.022935 -0.019572  0.017102  0.015468  0.018693  0.033350  0.001983  0.041612  0.056292  0.014667 -0.010498 -0.006502