Lambda,D_rot,bias,w0,w1,w2,w3,w4,w5,w6,w7,w8,w9,w10,w11,w12,w13,w14,w15,w16,w17,w18,w19,w20,w21,w22,w23,w24,w25,w26,w27,w28,w29,w30,w31,w32,w33,w34,w35,w36,w37,w38,w39,w40,w41,w42,w43,w44,w45,w46,w47,w48,w49,w50,w51,w52,w53,w54,w55,w56,w57,w58,w59,w60,w61,w62,w63,w64,w65,w66,w67,w68,w69,w70,w71,w72,w73,w74,w75,w76,w77,w78,w79,w80,w81,w82,w83,w84,w85,w86,w87,w88,w89,w90,w91,w92,w93,w94,w95,w96,w97,w98,w99,w100,w101,w102,w103,w104,w105,w106,w107,w108,w109,w110,w111,w112,w113,w114,w115,w116,w117,w118,w119,w120,w121,w122,w123,w124,w125,w126,w127,w128,w129,w130,w131,w132,w133,w134,w135,w136,w137,w138,w139,w140,w141,w142,w143,w144,w145,w146,w147,w148,w149,w150,w151,w152,w153,w154,w155,w156,w157,w158,w159,w160,w161,w162,w163,w164,w165,w166,w167,w168,w169,w170,w171,w172,w173,w174,w175,w176,w177,w178,w179,w180,w181,w182,w183,w184,w185,w186,w187,w188,w189,w190,w191,w192,w193,w194,w195,w196,w197,w198,w199
1000000.0,0.0,-0.03808620727600433,1.766820606235937,1.7973077454877338,1.7859635486549341,1.7185281873815526,1.7289604832407384,1.7239513776060584,1.690373828862873,1.666702056899073,1.7080151165572355,1.6725502534404435,1.6211445528090944,1.5970635296216507,1.6015629555461925,1.5706310167272541,1.5230684951560198,1.523943814882244,1.5199348820723857,1.5016511028785928,1.4702089193237593,1.4724836074242267,1.4598587068525495,1.4112834903590337,1.379839678220774,1.3697690429918399,1.3933006733949116,1.3143690235827,1.3265533436726318,1.2943590276629542,1.2818030371036067,1.2279340591970547,1.2500828814521279,1.2227564615985678,1.1847180261170245,1.1933901833529754,1.1939471702043407,1.1261756032892318,1.150932503699393,1.1221051720786968,1.0723977100251372,1.0762520618450346,1.0668605084952745,1.0273470341307582,1.0378392275954047,0.9745531269639944,0.9444506831318185,0.954542345148623,0.9426029974827465,0.9168190055592336,0.8950919459907324,0.8649939076078029,0.8465833297505301,0.8322163628621483,0.8287717862619862,0.7962164502777592,0.8035081804726724,0.7677178343281857,0.7233619601090462,0.7446700135189427,0.7117883229970661,0.7014331124129606,0.652275435058921,0.6410484382005982,0.6234877487070302,0.5689413562515991,0.6179215611942841,0.5933223665178652,0.5624236808538002,0.5387626047321513,0.48938880933331286,0.4967377181013609,0.4479405861479196,0.4265005271408009,0.4389341885623881,0.3851072063271998,0.3849779002476622,0.3482275596017566,0.38221391677107575,0.3504154686647304,0.3211896725645681,0.33336477808700665,0.3086269098313495,0.26880164148758545,0.2576467745685019,0.2125533536052277,0.22905501631044237,0.1982223744634362,0.1711898705097276,0.1455325382777434,0.15858483325455386,0.14137812468629843,0.08670109648516282,0.06264224601422455,0.0748544649753076,0.030386859634749287,0.014128861140177872,0.018056255475220055,-0.023117852074545423,-0.03581682506495428,-0.0652667562650938,-0.04624563996255072,-0.06474754316849686,-0.09875234001962618,-0.1483410061609502,-0.12169594018414003,-0.19257848777863193,-0.17675192687093122,-0.20042487981962584,-0.2367861024894899,-0.2439334553541112,-0.23198161964166897,-0.24594348334220825,-0.29141691993380275,-0.3395932958997943,-0.3250909056450101,-0.3300697646395325,-0.3256620311791619,-0.3685951314555031,-0.35925760337769,-0.4018810526350502,-0.47131219096233223,-0.4827766348670658,-0.47617189059113874,-0.49758132187451287,-0.526259400621788,-0.5114231769538885,-0.5490738426607548,-0.5851488070251285,-0.5838584832906752,-0.5921283294902336,-0.6177774836011443,-0.65532324571977,-0.6608717236478611,-0.6587801261210211,-0.6909977573645069,-0.65909155389734,-0.7175871510171166,-0.7593061700423293,-0.7637833708277475,-0.7843352653449256,-0.7806068765048884,-0.8058173140407469,-0.8335653883871872,-0.8217982171047694,-0.8115290761479946,-0.8686361397182849,-0.8624320236993898,-0.8980795386089216,-0.9319984805536983,-0.9443384018384698,-1.0004588359076407,-0.9776718587354875,-0.9750240513763206,-1.0010718435282104,-1.0092473465945448,-0.9820413768788373,-1.0547690142852804,-1.1103491965088683,-1.096698822656291,-1.0812724635360726,-1.095930834940809,-1.1184280822838921,-1.1881975421988726,-1.172716125486615,-1.1626271633261744,-1.2136225859788616,-1.2150317083276392,-1.2401366672502085,-1.2701543409917,-1.2655137738996012,-1.3147620121280754,-1.241901137403798,-1.3061507859140662,-1.3360374923564085,-1.3668952782072141,-1.3839797834651388,-1.383600791366854,-1.3848013270546582,-1.393897188530001,-1.4449606239710793,-1.4202964315657935,-1.4031667492372597,-1.454022760062507,-1.4754832032610137,-1.4889981584520189,-1.5148946345860106,-1.5141363584209255,-1.4920959371999694,-1.5833118838391222,-1.5564083039076593,-1.5771744423354384,-1.6148957163956783,-1.6462085280130307,-1.615831231368684,-1.6420234612781437,-1.6888770296568623,-1.6816920882751194,-1.6739914788461336,-1.7079854098293707,-1.7388827847755601,-1.7381796797094855
1000000.0,0.001,-0.006415613440535522,3.962637547275791,3.7816912371344693,3.6395174266347294,3.414247340014017,3.353579878248871,3.214597439768023,3.0319135562646764,2.800802373315133,2.7174771701014935,2.5390910115894267,2.4649290928357823,2.2859910361531504,2.122655819126885,2.0329274738722045,1.8772016986242956,1.7949092007746528,1.6938694963954546,1.4886974981185928,1.3748239390802433,1.2448641276004893,1.2863560244293866,1.0510284426491976,0.9485863990454223,0.9711674272223282,0.838673826519571,0.6977166263896845,0.6209897907471302,0.4885343495898473,0.523367594065178,0.42032716186165486,0.30574925458407265,0.32504901105808903,0.2775363910900101,0.08933475238387761,0.05790281466024672,0.002732293697589232,-0.05688037881709076,-0.0749448367926792,-0.21832477944888895,-0.1295220720974909,-0.31211074827275637,-0.3372099101147241,-0.30695238722247864,-0.3408387988161665,-0.3642859934055467,-0.4733338187506639,-0.5369834497951903,-0.5798674612766921,-0.5357380756541297,-0.5299953849459125,-0.5687882958914222,-0.6892516984381611,-0.6545923694782728,-0.7430660261041254,-0.7655352949558374,-0.7943621300092915,-0.7535510761488586,-0.7918776714805151,-0.7508946802342323,-0.8293428623047066,-0.7895837299630191,-0.867375071054582,-0.7660375116237333,-0.8544691703430728,-0.864864840233447,-0.8924266312010799,-0.9007695352065216,-0.796452309719299,-0.9059950150304249,-0.8076407403698053,-0.8441282562838477,-0.8506890173321198,-0.8939990429759289,-0.8339106148006074,-0.8519513096594978,-0.8564720437588937,-0.8740213198005973,-0.7714182333305908,-0.8425678453956428,-0.8901025573284798,-0.8543694771961245,-0.8233587410955852,-0.8067707802981744,-0.8223636657933292,-0.9288868786607076,-0.8355945972115545,-0.7333716047743729,-0.7755289430274076,-0.7845218513900192,-0.8404670506742633,-0.7120311033937128,-0.8339596876118587,-0.7239083181615339,-0.7811338162322512,-0.7844041623522436,-0.7428828624456416,-0.7131462657465034,-0.7785920602460824,-0.7237266510624827,-0.6327684495066362,-0.7051742318800256,-0.6292951420181088,-0.6608798935360894,-0.7280424335667469,-0.7119388243886631,-0.6312613206442426,-0.5804295804582638,-0.5606184792188978,-0.5640634368147339,-0.45951490990085836,-0.5785899039386382,-0.5187576709134921,-0.5036374098617185,-0.5021098700744295,-0.4981624324763743,-0.5354919973812479,-0.4218362727211468,-0.3922994045130432,-0.391790505342211,-0.3803790567556624,-0.3495970434923572,-0.4142419987027045,-0.3552474675764225,-0.3598319789938794,-0.36114786625992573,-0.363240487043549,-0.3292206991223642,-0.3603113038191752,-0.3206324033419073,-0.3471049759280542,-0.26960894797966567,-0.2721059623804102,-0.29580599585155765,-0.280113457963938,-0.34728533603329237,-0.15245046504271076,-0.2153296816979796,-0.2114105265487021,-0.28318129296272204,-0.2395696439533593,-0.2582632241291409,-0.2274205669124089,-0.15748372035158426,-0.25764068919376165,-0.21136747593339153,-0.11544735675902833,-0.12721397815757887,-0.13099807632753271,-0.15061889950293636,-0.031076527013820396,-0.08236671103793608,-0.12060572944414179,-0.03615268583218037,-0.07441429471330809,-0.20349221107233667,-0.03800672777182649,-0.09328724210027917,-0.06317721486570287,-0.051001507503188326,-0.0003846431463418283,-0.14560910416040299,-0.0343642025300826,0.038543985654274034,-0.08975528392810549,-0.016809283591432883,-0.08030281555333656,-0.016619288328229866,-0.05163326450044588,0.025623175793361763,-0.01388625818806964,-0.0017948667199139106,-0.018009504121866995,0.06885438431941375,0.06441073573155986,0.06721880363529406,0.1511192406303795,0.10948320498428742,0.00421859377304813,0.048850892881313536,0.15752089738110803,0.11117794113571845,0.048572279194119966,0.09073691433752515,0.1927814103832575,0.1096011595386012,0.14154847735111545,0.15137007793756266,0.13694963978142202,0.13807580599016614,0.1785954194394058,0.17517509050442123,0.16512072766725602,0.10879797148340702,0.16575522331681483,0.15434682635825792,0.14088830235854102,0.21191610327689855,0.2291972029861393,0.10446654079430205,0.1903093875921839
1000000.0,0.01,-0.0017014074946744555,6.903390723811867,6.276168801974942,5.676513021518256,5.2065239413161795,4.657004189436642,4.137788625630597,3.630892848711354,3.2676435401752717,2.775162027531159,2.347301915563685,2.029869763736355,1.761634310717289,1.426497431233182,1.1676153354442738,0.8388674323754659,0.6297833677394168,0.3703345117839592,0.18029744598502395,-0.07965964802344548,-0.22304240728608787,-0.25945013586744614,-0.5784719844329202,-0.6860585568994342,-0.7471100669534284,-0.9603399004052753,-1.0798252073724637,-1.0989479246348386,-1.0955628584204862,-1.2868552667889914,-1.3204381496256659,-1.3053500906786932,-1.303596024484949,-1.3918435015324884,-1.3856590383129754,-1.3996369185612094,-1.4258835848762763,-1.4295995934481949,-1.3946323681505317,-1.4045602265001205,-1.4804809401722219,-1.3364334439743992,-1.4581979599213573,-1.3912441287672062,-1.3220459557075617,-1.3242238136411326,-1.24624287212701,-1.2964234895549114,-1.2242822874835828,-1.1925713121419512,-1.20432650989613,-1.2043894690400854,-1.1913501183304815,-1.0310956043584039,-0.9901719110377734,-0.9714629561268653,-0.9184614851106763,-0.8707271017731744,-0.9191684283536892,-0.7927993293994444,-0.8110241479088239,-0.7768952011010914,-0.6989052723215748,-0.7346296980230526,-0.7229413685423237,-0.6366221572096211,-0.52044129871046,-0.5561864314006478,-0.4612618121704675,-0.5480337309755505,-0.3530479152373871,-0.3563353553293022,-0.33656196823001966,-0.3214622818147203,-0.30204806146699237,-0.23098407611425523,-0.2884446278545904,-0.23156905358068075,-0.0779093678951843,-0.1554217875792523,-0.09921930427542949,-0.1502505233318715,-0.07509698838219071,-0.04337718189723924,-0.10906078809467648,-0.04616068912346769,-0.05014993180911752,-0.030266276225325177,0.030424505303059603,0.03115090682451399,-0.05791621073757151,0.03370321890342843,0.09116115800343434,-0.027291977684581276,0.0252686290695095,-0.0009697969162224443,-0.009649552968985436,0.05397100210158736,-0.02034009139465934,0.046251381308815634,0.04424883656620987,-0.0469964062626025,0.005474049620974375,0.036590569202445716,0.039784738683554526,0.05073664219540238,-0.015314648739221564,-0.033475172325333154,-0.07290359513991092,0.020392832048233098,0.020265796691463937,0.06691592217849532,0.06684371409359019,0.0497424487961051,-0.014966953611000406,0.029696572331170172,0.05300245335559939,-0.07540669359632354,-0.0031196010780461096,0.031096203367236556,-0.00943880874197506,0.01704924475853337,0.09023764350420928,0.021462518984525728,-0.018241521238210132,-0.04581256293418797,-0.027450013348607413,-0.018339239725416418,-0.04231144674895689,-0.025829296577971676,0.006068330027172094,0.06657012393719357,0.03682518491005003,-0.018599497855693998,-0.06928562390465487,0.006506521053951435,0.02314638519662685,-0.03477415179024478,-0.06854316511916533,-0.04925555430012434,-0.015235440266098263,0.09916281569363751,-0.008305405505977363,-0.0783339277103479,0.03707600911993016,-0.049067000649465044,0.09975594601831798,-0.010650009571900116,0.013606487058464673,0.04633907103558351,-0.055547034538504285,0.09115003504509955,0.08330940213530669,0.044596566712614846,0.030586707113153196,0.015965494167245468,0.017481609621309967,0.05742719011553812,0.024334733284072093,0.09570779303370514,0.13075594516692382,0.012954329691022696,0.07327790423489208,0.07055601843098407,0.10068141602498533,0.01195372517387504,0.07926261370684186,0.06593438268617607,0.13195029030149324,0.06371262278825252,0.0006433834171738297,0.11217242658257752,0.006164913845167575,0.020003196187255837,0.09478760276439234,0.012277114052341475,0.021643127630649732,0.09885965515331836,0.1423362796490968,0.15033594576786727,0.022727356234192173,0.07957268215346137,0.07386330189771506,0.07631040382812777,0.045381386056535515,-0.14770244784667294,-0.036054049157379316,-0.028107234683331928,-0.06706355206763855,-0.012765946393378204,-0.0031067406144192236,-0.07749686482921675,-0.06329851690836957,-0.05720700469422277,-0.09905198239263178,-0.09497567616164564,-0.06010607856113209,-0.1836690385804271,-0.020450618294047818,-0.10549184159045198,-0.14592828967229635
1000000.0,0.1,-0.0005770352165468006,9.891402533751533,8.338663999610757,6.918293840167324,5.529749948186627,4.394218769849933,3.3323921127149663,2.3836656281284268,1.4783052916142096,0.8088957449548355,0.17477067738285543,-0.3882657815613829,-0.9096951621833145,-1.2637900032629277,-1.5545305448295346,-1.796109493927357,-1.940605794466755,-2.102584858562896,-2.182085848106202,-2.1850340868100746,-2.253269304332231,-2.2085746353512072,-2.1632691642656265,-2.1927172685026104,-2.076833084646635,-1.9558220753897875,-1.933041808508738,-1.84012713651967,-1.7134985780112846,-1.568709060421456,-1.4097310712560862,-1.3191222710800568,-1.1607714212594464,-1.0217010110142237,-0.9222861872781104,-0.8250260926003088,-0.7057803430672271,-0.6902734102541928,-0.566843067789547,-0.5175581321722137,-0.4192737439054703,-0.39010241354838193,-0.2479881919973879,-0.24579482642919234,-0.15878109070444046,-0.13721724201109708,-0.13497174652239957,0.009436909328988746,-0.06027596716389924,-0.058941421408480715,-0.027241893548020108,0.09420616503090294,-0.013220538239024754,0.03785579617305541,0.08954799535300424,0.041541334360225585,0.07446735781342692,0.10776753166696258,0.13848523081904282,0.02995015251778626,0.11682884902791826,0.12368244414979122,0.04622902444724002,0.15793739060107465,0.09504264055515046,0.1540887655910778,0.19962508223486397,0.05768761522292155,0.09037743178618245,0.13541571880510625,0.07419089945551936,0.12083585851149989,0.006511434197447219,0.07056091750092958,0.06493330225424507,0.07897127083302256,0.030616432483005246,0.09515276203026361,-0.0026432541299278582,0.051686925543681615,0.04553364706378515,0.09559104790610096,0.05436124624149419,0.00713141338376258,0.022135736665885745,0.05387496666590532,-0.08375511401643891,0.044686303870151024,-0.004734684875577374,0.03633225388603948,-0.04328907635908005,-0.12164467384400358,-0.005002737966918486,0.02928569269635202,-0.04943884250881034,-0.04287947418702997,0.009507145077673418,-0.001247748805425731,-0.06987451212351128,-0.12353958861687586,-0.08639248035845228,-0.07299702743597687,-0.14259159549282033,-0.10695324506124249,-0.04820606764916236,-0.08190762932158657,-0.10512918767270658,-0.0689656989429407,-0.09333671045075609,0.02683366832603409,0.006651994482586459,0.008654134733642228,0.01490610263869363,-0.009782352097636109,0.05998070911833365,0.006621450921221329,0.01975708330300999,0.09264901243842721,0.1044827823418837,0.026982395779116774,0.024566881085988736,0.043359630933949865,0.06158403537589549,0.10755497742096821,0.12119480903897348,-0.02828651990708888,0.042753472537996176,0.057887592852816756,0.05304196262497051,0.0564232357592956,-0.01644495063236518,0.07244989383969928,0.011834194045900031,-0.0006012903174458612,-0.021785847444700045,0.015296031929998687,0.008372455797635956,0.01129373424839862,-0.0625461142895579,-0.022137014592752035,-0.016835573601693382,-0.038570574974748764,-0.10171251937725476,-0.030811650307788128,-0.06355606706737776,-0.037475618809877424,-0.047996449058701186,0.013963791505548797,0.010218112026499812,0.01611956543145347,0.017089462225978375,-0.10734412600706458,-0.05598216461004379,-0.013737422199585321,0.07129695315228578,0.01531510067853982,-0.013922872112353728,0.04400046467765333,0.00893441100661844,0.011145258274794954,0.024341011930477018,-0.001778482655454454,-0.07495251531892673,0.046405585323235354,-0.014046128554476591,-0.026750189767246673,0.010882843645658355,-0.04415014141264782,0.012598960744401234,0.004233306140410057,-0.008054368147689533,0.036994736218540825,-0.015120776187270535,0.012903568447077398,0.026172436456944826,0.06943888438237972,0.03194518189220306,0.08381277047876608,-0.002105911258881668,0.019101825749191184,0.00728371271781947,0.03477293616308876,0.03362048934951174,-0.013995927112195564,-0.053997984645786846,-0.014563999986123302,-0.04118968041765557,-0.03300407087253392,-0.038470056203712355,-0.036278080054001856,-0.00800466617838266,-0.026085637927841646,-0.010103661673960901,-0.018485732346686365,0.023339618809466625,-0.042803499205236996,-0.06165077253216493,-0.01202641433687542,0.018813750424525308,-0.034635932725687366,0.020063618842671438
1000000.0,0.2,-0.0004930274725053098,10.826145973551494,8.763717727406998,6.946700113578285,5.25883100323662,3.848200554095288,2.6124028085762134,1.550737691675437,0.6527569525863388,-0.14727946154104604,-0.7965615840858973,-1.2371642736838901,-1.7570254988864826,-2.0525714948388374,-2.228624159000825,-2.3341239202298296,-2.4964911173810416,-2.5129942352316106,-2.527968206589383,-2.4487147062185537,-2.3674453053976907,-2.2531773072307058,-2.1022131446085686,-1.931871262519023,-1.767605953496408,-1.726260693511518,-1.4922452325637665,-1.3706701311541,-1.1711906823058025,-1.0653122639792258,-0.8993892291418026,-0.7733155581924301,-0.6480324944132418,-0.5056909475832099,-0.47479361204658865,-0.33779906656584496,-0.29356321139174213,-0.1537873192158715,-0.2074921567688453,-0.08054605139273895,0.019721629380887402,0.019199609126933293,0.01643202846847228,0.10273527389482691,0.06665153630260534,0.06340838891408301,0.10290766566087457,0.10595984996295808,0.10240533205952622,0.07442988322089346,0.07673727351740019,0.0979337295756444,0.10514889674725723,0.021259190018678622,0.03585249717432373,0.047717459246281485,0.04317297026316864,0.02367713646128388,0.02326026614692261,0.023445593831619413,0.01934344412294947,0.002371691842392998,0.06511057952053757,0.040457383339176964,0.06150933798264458,0.07999102654711505,0.026896016372327067,0.06571285134906528,0.04937807073270341,0.06202944503464023,0.044208695561296744,0.08186212364941997,1.962391900477034e-05,0.07517521683816056,0.0795921842476736,0.09477953060018585,-0.007762411276187739,0.039191109891273355,0.08910385027892888,0.016427582835846877,0.05399307181684215,-0.007080685624854023,0.031277692686325693,0.006662244217929393,-0.04579137806782032,0.025090532208234647,-0.019851892300686486,0.0225220202480748,-0.011961372144199433,-0.11501994394588715,0.014992828017995235,0.026568461667736597,-0.018436230027999705,-0.049190216359149753,-0.06477174234626187,-0.03976717488617606,-0.02187024446823772,-0.001875417963396295,0.03655571165144099,-0.05533102573272574,-0.04592094158920872,-0.005780732406977123,0.06536722876360383,0.00810443342019774,-0.029663686954906756,-0.0498988112588963,-0.01978914845928282,-0.042004368724271705,-0.03569584918206161,-0.04034122288802356,-0.07092586775455023,-0.048313992264253806,-0.060086324082507254,-0.041474845779284925,-0.1020548862779007,-0.06636672530023681,-0.06847967103965101,-0.00029617159621664444,-0.012734052830050694,-0.019790401591890088,-0.0038931570459863215,0.033521093997706246,-0.01598258666155055,0.015851794060231728,-0.01749880043365243,-0.033705619581725854,0.026359488382575093,-0.025306927041970254,0.02045640940312757,0.09323688952669816,0.03859609680626028,0.026039672666429144,-0.038620217456028824,0.04089606513426775,0.012862349457413198,-0.017377657631537983,0.001606173421634806,0.011168313468852373,0.0001927317200168356,0.033497129809175505,0.012718594515791255,0.0042403044190973006,0.03556364756497683,0.019231043238296715,-0.000821580048839376,-0.025617434422599103,0.0747819859827399,-0.0007793184411280325,0.016768326637904046,-0.03736773136808594,0.06090073157087632,-0.05812222184551027,-0.027492028677257467,0.006940681821783901,0.026633479406751738,0.03859062279499933,-0.038487582620559575,0.0737477431307995,-0.022916842192838918,-0.009187363112100467,-0.03268529148284867,0.01665156124856805,-0.011633328487311445,0.003958202703285481,-0.03282527977402149,-0.014201299389500193,0.021206955841745048,0.016428771355717083,0.04048599216251684,-0.010135386954304859,0.06317271671361432,0.07500597572864727,0.013856192654854778,0.08178691357086458,0.021020552649681386,0.03784262723566782,0.030885109623342098,0.0929778906552292,0.04728327458098935,0.03775681079124078,-0.0015153395058833286,-0.013550993589380634,0.036659340775456524,0.03779274200686868,0.0335781905758995,0.015574062847665167,-0.020586370687987566,-0.00631369800793759,-0.015327395034868529,-0.018657080955025336,-0.004498929217412756,0.02912466196502152,-0.05458506542757586,-0.03239033113210588,0.0031431466492824393,-0.02488561587626423,-0.08569463051777097,-0.09276107087803073,-0.06359232173469172,-0.10083907264208604,-0.10493829363439405
1000000.0,1.0,-0.0004344571049554437,12.563253741660153,9.17290018106733,6.246987157206188,3.8769930296438013,1.8947236034016728,0.37184406058998065,-0.7880887400274822,-1.6784279694442004,-2.231708253876112,-2.6595402201409857,-2.868546097894633,-2.8770764832416624,-2.903175657311112,-2.7883443704283035,-2.5531623883380092,-2.3861620394252956,-2.132407137137886,-1.88088979558116,-1.6146481586066128,-1.3782097376757294,-1.1669681718462226,-0.9783676427006587,-0.7791226365757008,-0.6690479738506471,-0.4651669432235646,-0.3852788486599759,-0.2758508359446767,-0.15046605653457806,-0.11131825149846522,-0.047038095308545795,-0.0038669459451445994,0.02229091682269707,0.08691438442822727,0.10146309187507051,0.14978684583769677,0.15192495852536805,0.14524317014319357,0.14292490821860307,0.15452865319503484,0.08756870384507812,0.11135807381562683,0.035237963839222654,0.079551729950122,0.015321895423520282,0.030580311622300006,0.06824123812693329,0.004611252442666588,0.0948954964997268,0.06981844175549394,0.05564009248823263,0.06066634836041036,0.06496632432572584,0.06920036873551941,0.012100430434656327,0.045465904985665426,0.006182164778544932,0.05801381667843569,0.008189636727821041,-0.0189815406613365,0.008227833604837186,-0.04033336050090139,-0.030784840928205316,-0.05783970618013654,-0.0636641304591911,-0.0003080546170826009,-0.033371861881699806,-0.011918444233748998,0.005626814508578989,-0.0161943906748942,-0.023160183214611163,-0.03999343176946236,-0.02472830633434418,-0.04791384747068633,-0.0010691679332429692,-0.03499834732637257,-0.02048934673112631,-0.038574195399311055,-0.032013924924090255,-0.028875919473818592,0.016382999363709995,0.035660615464478886,0.073718814049228,0.044417350040028905,0.07558373217855298,0.02566092372062317,0.06041919939340208,0.05441149240603017,0.0363758319246853,0.03201935317584572,0.010956187157467127,0.0037882933882411435,-0.009917910277103354,0.01716812109292953,-0.0049673485752056695,-0.003181642320859356,-0.004662326216390336,-0.009648739428675649,0.005770797336661626,-0.031174105443924433,0.0019317246177743383,-0.015617038528127134,-0.01651564695568957,-0.04885010730879675,-0.03019821298648633,-0.018668982832212577,-0.006208223319251541,-0.014087475527637498,0.016282142669243885,0.027930593589138332,0.007291475180442014,-0.00043287296547125383,0.018271116854053606,-0.03409047109066449,0.04582322519206833,-0.009077919271666637,-0.014699495788486167,0.005706667120425905,-0.0020358761275543146,0.02140532074708734,0.0070050770982749925,-0.042643336807155346,-0.01693566084184433,0.0029163902363084785,-0.05342639310015211,-0.04234244116863485,-0.030759854388082417,-0.02701033126429472,-0.01345538643651581,0.003326628333013918,0.03432706467886454,0.0029169487391949222,0.014226111696039616,0.005021880483630383,-0.020656204890852414,0.0027097704272671884,0.026620888201736855,0.00431733318872781,-0.020688311144845876,-0.0970487945622648,0.012521262123863036,-0.027530503579495522,-0.039134302403053094,-0.010523823036447255,0.00023242488747602714,-0.029817665358454114,0.0393845682897667,0.013565271034749377,-0.0039856527342915,0.02554509690172419,0.005994439788970494,0.014354632378711088,-0.03423935621782738,0.006355191578872094,0.05816719598908131,0.05079356194957439,0.03675971174511094,0.0443738227230712,0.06848825136696723,0.07263257055849258,0.049743784690539763,0.023770484263718347,0.013328135761944486,0.0036358274521735355,0.02218836857774775,-0.04340155723130701,0.016783780410030716,-0.02381133482951598,-0.005134934730679234,-0.02287365625737211,-0.006958817109942279,-0.06994519979411902,-0.013600965113331713,-0.055632872767606256,-0.01961946898442405,0.019775701411067683,-0.04075969270118888,0.029978891189594327,-0.015267517449655267,-0.003744173828010638,-0.00585143746048051,-0.017378676415390475,-0.05253531262265408,-0.005332531400846697,-0.0194616265152031,-0.02688577650763502,-0.0212173499287048,-0.005179113514759582,-0.036087052694405305,0.015063146561634483,-0.03478165451805502,-0.02203722861057428,-0.020669669157125647,-0.0023920638891689874,-0.0035479288211650094,0.05583684920419924,0.04717185198107085,0.047960497060074554,0.02125130669607163,0.024941605036673847,-0.024664790201861433
1000000.0,2.0,-0.0003292903814781587,13.65865437886487,9.388561364077727,5.872180938831066,3.0223244102360596,0.8924301473084192,-0.7446114297178569,-1.8826250667362823,-2.608703442705194,-3.0506323811476803,-3.207079394022173,-3.2549664307902373,-3.1185567496570545,-2.875241636271134,-2.6041664069887096,-2.335294572149023,-1.9751198505818701,-1.692759448968924,-1.4097775865754507,-1.1132173909399639,-0.8571776742221896,-0.6299187054317203,-0.45583097679225365,-0.31961630587538015,-0.18899069386826678,-0.08772525867171152,0.016440852046917014,0.06872002396813504,0.08126675500648729,0.13829660836084773,0.14156918417835293,0.15763428484909325,0.08751355220561537,0.11121829518718268,0.14555684229243673,0.12292719347333733,0.09278150632244321,0.09365535801338257,0.11587043836146144,0.08806681566406989,0.03612961801761015,0.03186288611620348,0.04463182829969329,0.04140170784205625,-0.016612673355849948,1.8552015065729566e-05,0.007982517430650395,-0.010044135123744928,0.05635710782225601,-0.013694607181417837,0.05291659532361336,0.03617495099143968,0.012012713566172515,0.029599865478295757,0.02702425535491516,0.03327008609186105,0.025675532282009025,0.030250611660525763,-0.027225314808541897,-0.0196851819319274,-0.013494310942134213,-0.025293828126271876,-0.034636226899736285,-0.07799246263469554,-0.08903558064949164,-0.03305892755558779,-0.03945412720600336,-0.03414902974210933,-0.02589446785557152,-0.022066125348686877,-0.050911524441478055,0.00772964823829903,-0.015378630564587334,0.0060299825322626755,-0.0006805537817790186,0.02809705511454377,0.097421901646069,0.024114908644291312,-0.009305068913526336,0.0035207977665015246,0.021639477284821008,0.04889978901723927,0.015238346558157773,-0.0017021655266194744,-0.025287910864846812,0.02716271009783035,0.014462682622660436,0.011246854811142714,0.0034828927327871196,0.030065410950670748,0.03107331914635887,-0.013721815536522679,0.02802764712956596,0.013043571393500226,0.014471694642986827,-0.020590648426536122,-0.002154044924541,-0.01630252447830417,0.0037717567954824328,-0.03819473964317546,-0.03182810649192277,0.04779327238296337,-0.017391226415762014,0.007414536818284818,-0.025110907869145462,-0.00715162587520592,-0.004444729515330199,-0.004168638041229094,-0.02673678086067412,-0.047823825875404645,-0.0012418414490600878,-0.029314550308330203,-0.008446710854835176,-0.042096474806575926,-0.0244710579638408,-0.003099946939505177,0.020145963922820732,-0.016714466234670832,-0.014006311590682042,-0.02654291246342698,0.0237114233050811,0.0016410829668218052,-0.02810698056829879,-0.03255467329261875,0.03151401806314543,0.029915805126751092,0.02270644449297852,0.061020655141834884,0.07790236842021361,0.02484121445085404,0.06745383151609842,0.047566860013693826,0.04572718826344994,-0.005301575287452741,-0.0004891164121708476,-0.03204484529612468,0.006552226907730672,-0.02871807419635604,-0.08819385156587499,-0.039249591213587905,-0.045089484900581366,-0.03973324694187352,-0.04758962892126761,-0.05950867221520575,-0.035109235586019215,0.008778831907171028,0.03384271037420481,-0.020759098429056967,0.012116578135467211,-0.01166735042333309,0.004867982063555927,0.0103393407847228,-0.004347037073584149,-0.00992135048990991,-0.009009347008730986,0.0309448243997688,0.06595207954892027,0.033466630081247215,0.05246325738047643,0.04105019227057324,0.06044434015021996,0.02730457688390814,0.04013870410372694,0.0067285285107822725,0.01849924336839692,0.012416246625629375,-0.009425954103126867,-0.015772288925693892,0.02460218049752651,-0.0018798554542864229,-0.0222161917482701,0.013127503210019079,-0.009273009774608659,-0.020491242167142425,-0.03776666364512914,-0.0027756891582841722,-0.03233656227826239,-0.04311289043228692,-0.02464226089545795,-0.06292764678780738,-0.030228473290878896,-0.07620827194766562,-0.0584402673189289,-0.019302567644677183,-0.03867856975405143,0.020953424906461078,-0.028187267535889377,-0.02746361711763156,0.04188079284195642,0.02293454113696463,-0.019572216664570246,0.017102023494240524,0.01546828253834006,0.018693069960043628,0.03335019621740981,0.0019826010585170485,0.04161153938571878,0.05629190424409083,0.01466747045660208,-0.010497684419364505,-0.006502296309275691
