   Lambda  D_rot      bias        w0        w1        w2        w3        w4        w5        w6        w7        w8        w9       w10       w11       w12       w13       w14       w15       w16       w17       w18       w19       w20       w21       w22       w23       w24       w25       w26       w27       w28       w29       w30       w31       w32       w33       w34       w35       w36       w37       w38       w39       w40       w41       w42       w43       w44       w45       w46       w47       w48       w49       w50       w51       w52       w53       w54       w55       w56       w57       w58       w59       w60       w61       w62       w63       w64       w65       w66       w67       w68       w69       w70       w71       w72       w73       w74       w75       w76       w77       w78       w79       w80       w81       w82       w83       w84       w85       w86       w87       w88       w89       w90       w91       w92       w93       w94       w95       w96       w97       w98       w99      w100      w101      w102      w103      w104      w105      w106      w107      w108      w109      w110      w111      w112      w113      w114      w115      w116      w117      w118      w119      w120      w121      w122      w123      w124      w125      w126      w127      w128      w129      w130      w131      w132      w133      w134      w135      w136      w137      w138      w139      w140      w141      w142      w143      w144      w145      w146      w147      w148      w149      w150      w151      w152      w153      w154      w155      w156      w157      w158      w159      w160      w161      w162      w163      w164      w165      w166      w167      w168      w169      w170      w171      w172      w173      w174      w175      w176      w177      w178      w179      w180      w181      w182      w183      w184      w185      w186      w187      w188      w189      w190      w191      w192      w193      w194      w195      w196      w197      w198      w199
0  1000.0  0.000 -0.003806  0.170915  0.167975  0.165986  0.165169  0.162622  0.160263  0.160950  0.158371  0.154650  0.155513  0.150647  0.149740  0.151053  0.147686  0.146691  0.143084  0.140997  0.141308  0.137928  0.136956  0.130731  0.134034  0.132509  0.128986  0.127715  0.128660  0.122849  0.122520  0.121029  0.118067  0.116624  0.116925  0.112968  0.111578  0.109200  0.109403  0.109038  0.108949  0.105799  0.099076  0.101535  0.100279  0.092372  0.093802  0.092764  0.091966  0.090708  0.087654  0.089270  0.086318  0.082956  0.080270  0.080800  0.072686  0.074987  0.073821  0.070837  0.067690  0.067411  0.065341  0.064628  0.063578  0.063027  0.058766  0.056138  0.055901  0.053381  0.051026  0.050006  0.049591  0.049721  0.043950  0.042988  0.046655  0.039576  0.035084  0.037844  0.035897  0.035058  0.034906  0.028708  0.025480  0.027383  0.024815  0.022500  0.023777  0.019916  0.017401  0.013738  0.013073  0.013569  0.010861  0.006391  0.004856  0.006562  0.005068  0.003960 -0.000951 -0.003707 -0.003704 -0.004683 -0.007341 -0.005008 -0.009509 -0.012698 -0.014353 -0.016403 -0.017383 -0.019852 -0.020607 -0.024502 -0.026719 -0.026645 -0.029636 -0.030178 -0.032223 -0.031938 -0.038373 -0.035554 -0.038957 -0.037309 -0.043093 -0.044892 -0.044594 -0.046148 -0.049618 -0.052578 -0.054589 -0.052495 -0.056788 -0.057912 -0.056968 -0.060825 -0.064464 -0.065229 -0.068995 -0.070551 -0.070960 -0.070557 -0.074678 -0.073358 -0.074867 -0.074380 -0.081898 -0.080679 -0.084305 -0.081775 -0.085340 -0.090732 -0.090969 -0.096742 -0.092478 -0.097510 -0.095491 -0.097400 -0.099455 -0.102882 -0.104059 -0.104650 -0.108055 -0.111494 -0.112700 -0.112432 -0.115764 -0.112314 -0.117459 -0.120959 -0.117938 -0.122386 -0.124628 -0.124998 -0.125022 -0.128122 -0.130422 -0.135223 -0.134148 -0.138200 -0.138605 -0.138919 -0.140415 -0.142481 -0.143323 -0.145820 -0.148543 -0.151862 -0.150540 -0.154627 -0.158705 -0.156888 -0.160387 -0.159129 -0.160154 -0.163089 -0.166398 -0.164177 -0.169616 -0.168091 -0.170428 -0.171274 -0.176660
1  1000.0  0.001 -0.003627  0.166168  0.163338  0.162670  0.156012  0.159418  0.154686  0.156372  0.146239  0.152511  0.149109  0.145355  0.145069  0.143868  0.144614  0.140469  0.137063  0.135979  0.134785  0.132085  0.131985  0.127876  0.129021  0.125884  0.126500  0.124112  0.120938  0.120019  0.120573  0.116336  0.114438  0.108090  0.111968  0.109091  0.108478  0.103905  0.104745  0.102730  0.097824  0.096717  0.098338  0.094715  0.091773  0.092821  0.090771  0.089465  0.088961  0.082527  0.080525  0.081512  0.081265  0.079211  0.072863  0.076263  0.068548  0.072166  0.069750  0.066470  0.067223  0.064370  0.061168  0.057986  0.057876  0.057599  0.056952  0.053136  0.053741  0.049144  0.049528  0.048063  0.043605  0.041326  0.043503  0.041524  0.035693  0.035999  0.034185  0.034827  0.031331  0.030110  0.029588  0.027053  0.027615  0.022464  0.021246  0.019141  0.018838  0.016766  0.014092  0.014956  0.007301  0.010631  0.005904  0.002747  0.005846  0.002441  0.001620 -0.000812 -0.003353 -0.003479 -0.007578 -0.008815 -0.006375 -0.013545 -0.007747 -0.012906 -0.015925 -0.014865 -0.019057 -0.021051 -0.022797 -0.024315 -0.028353 -0.026210 -0.027187 -0.028639 -0.032178 -0.032081 -0.035539 -0.035980 -0.037603 -0.038917 -0.039869 -0.044410 -0.043387 -0.047071 -0.047523 -0.048183 -0.048794 -0.053387 -0.049003 -0.056445 -0.060083 -0.058112 -0.059948 -0.061550 -0.064850 -0.067144 -0.067879 -0.066546 -0.068784 -0.072241 -0.075904 -0.072708 -0.079189 -0.081150 -0.077399 -0.082135 -0.084153 -0.084255 -0.083176 -0.086424 -0.087657 -0.091086 -0.091290 -0.092617 -0.094452 -0.097216 -0.098323 -0.098374 -0.103246 -0.099907 -0.104063 -0.104395 -0.105177 -0.107014 -0.112724 -0.113400 -0.115048 -0.113901 -0.113969 -0.120077 -0.120424 -0.117437 -0.124919 -0.124922 -0.126663 -0.128172 -0.129148 -0.129712 -0.129927 -0.135771 -0.137581 -0.135697 -0.141571 -0.142262 -0.139194 -0.145968 -0.147194 -0.145585 -0.147544 -0.150633 -0.151593 -0.155907 -0.154290 -0.158009 -0.156990 -0.158321 -0.158602 -0.165206 -0.167294
2  1000.0  0.010 -0.002588  0.148597  0.142645  0.142071  0.140660  0.136122  0.137354  0.134315  0.131080  0.131617  0.129880  0.126750  0.122626  0.121709  0.119961  0.115510  0.114601  0.115344  0.114076  0.111335  0.104924  0.105823  0.100401  0.098741  0.100546  0.096477  0.095651  0.092155  0.093507  0.089440  0.087378  0.086710  0.084273  0.082673  0.079056  0.078754  0.077518  0.076291  0.074514  0.070049  0.072709  0.065586  0.066930  0.065524  0.064547  0.060551  0.059224  0.056500  0.056038  0.054710  0.051655  0.052684  0.051164  0.049292  0.047646  0.044331  0.043236  0.041203  0.041509  0.039863  0.038755  0.034222  0.034083  0.033032  0.033480  0.032093  0.029990  0.027391  0.025991  0.022355  0.025730  0.023542  0.017654  0.019795  0.014935  0.019198  0.017463  0.013920  0.012632  0.012014  0.009187  0.009077  0.006439  0.007070  0.003203  0.005945  0.004675  0.000786 -0.000065  0.001379 -0.002094 -0.002773 -0.004386 -0.006889 -0.009481 -0.009081 -0.008267 -0.011871 -0.011950 -0.012995 -0.011399 -0.014688 -0.015099 -0.016878 -0.018139 -0.016485 -0.020951 -0.021939 -0.024408 -0.022076 -0.026982 -0.025262 -0.028595 -0.026095 -0.025980 -0.031022 -0.029127 -0.032326 -0.032429 -0.034231 -0.034931 -0.036041 -0.037691 -0.037626 -0.039064 -0.040452 -0.039527 -0.042084 -0.042789 -0.043614 -0.044491 -0.045793 -0.049293 -0.050492 -0.049091 -0.050024 -0.048769 -0.052667 -0.052742 -0.051543 -0.052626 -0.054437 -0.054530 -0.057172 -0.056523 -0.058077 -0.059399 -0.059706 -0.060336 -0.061773 -0.062632 -0.063248 -0.065805 -0.066125 -0.067953 -0.066000 -0.067569 -0.066947 -0.071603 -0.069942 -0.069907 -0.071689 -0.072987 -0.075744 -0.075378 -0.074170 -0.080730 -0.077118 -0.078737 -0.079762 -0.082907 -0.083755 -0.083410 -0.086058 -0.087037 -0.087365 -0.084477 -0.088314 -0.083587 -0.084702 -0.089283 -0.090762 -0.090767 -0.090216 -0.092770 -0.091647 -0.091591 -0.097168 -0.098025 -0.094397 -0.101448 -0.098025 -0.099926 -0.101227 -0.100866 -0.102568 -0.102788 -0.107291 -0.103487 -0.106542 -0.105950
3  1000.0  0.100 -0.000983  0.142026  0.139537  0.134450  0.130367  0.126499  0.122536  0.117900  0.115443  0.110548  0.108714  0.104139  0.101322  0.096970  0.094945  0.090920  0.088976  0.084836  0.081478  0.078020  0.074620  0.072875  0.070531  0.066855  0.064437  0.061685  0.059207  0.056057  0.055020  0.050880  0.048396  0.045734  0.043362  0.041174  0.038419  0.037602  0.034292  0.032130  0.031454  0.028334  0.026628  0.023816  0.021916  0.020412  0.017723  0.016519  0.015290  0.014334  0.012469  0.008927  0.008772  0.008482  0.005710  0.004431  0.002542  0.000031  0.000162 -0.001767 -0.003038 -0.003415 -0.004700 -0.006028 -0.007281 -0.007451 -0.008087 -0.010327 -0.010548 -0.012417 -0.012446 -0.015193 -0.015077 -0.015590 -0.016762 -0.017080 -0.016801 -0.017109 -0.020376 -0.021045 -0.021297 -0.021873 -0.021734 -0.023216 -0.023577 -0.023957 -0.023030 -0.025624 -0.024623 -0.025045 -0.026589 -0.027179 -0.028155 -0.027937 -0.027823 -0.028114 -0.028789 -0.028682 -0.029329 -0.030256 -0.029350 -0.031110 -0.030606 -0.030729 -0.030024 -0.030307 -0.031074 -0.030372 -0.030201 -0.030631 -0.032776 -0.031306 -0.030618 -0.033084 -0.031932 -0.032522 -0.032441 -0.033894 -0.032112 -0.030895 -0.032247 -0.031570 -0.030128 -0.032436 -0.032681 -0.032008 -0.031541 -0.031640 -0.030676 -0.032372 -0.031742 -0.029049 -0.030162 -0.031077 -0.030701 -0.030187 -0.031021 -0.029624 -0.031234 -0.030077 -0.030647 -0.029720 -0.028242 -0.027608 -0.030867 -0.030249 -0.029148 -0.028731 -0.028923 -0.027814 -0.027291 -0.029095 -0.028111 -0.027937 -0.027253 -0.026510 -0.027467 -0.027018 -0.028163 -0.027593 -0.025984 -0.026517 -0.024150 -0.025936 -0.025861 -0.024673 -0.024214 -0.023699 -0.025435 -0.024515 -0.024131 -0.024272 -0.022479 -0.023183 -0.022687 -0.022325 -0.022596 -0.021828 -0.022418 -0.021234 -0.022105 -0.021346 -0.021843 -0.020273 -0.018916 -0.020197 -0.020371 -0.020136 -0.019729 -0.020245 -0.018125 -0.018377 -0.017926 -0.018885 -0.019214 -0.018284 -0.018014 -0.018193 -0.016421 -0.016379 -0.017039 -0.015870 -0.015584
4  1000.0  0.200 -0.000776  0.146859  0.141964  0.139533  0.132520  0.129256  0.123605  0.120141  0.115758  0.110918  0.106881  0.103274  0.100284  0.094621  0.090849  0.087046  0.083846  0.079758  0.077210  0.074115  0.068998  0.066070  0.062750  0.060330  0.056967  0.053777  0.050862  0.048707  0.045044  0.041501  0.038768  0.036844  0.035562  0.031727  0.029343  0.026447  0.025146  0.022201  0.020147  0.018416  0.017006  0.013616  0.011366  0.009124  0.008119  0.005886  0.005375  0.004010  0.002394  0.000602 -0.002339 -0.004140 -0.004427 -0.006021 -0.008073 -0.008998 -0.010022 -0.011503 -0.012958 -0.012462 -0.014874 -0.015574 -0.016252 -0.018314 -0.017674 -0.020666 -0.020498 -0.020799 -0.021273 -0.023127 -0.021519 -0.022795 -0.025034 -0.025042 -0.025846 -0.026164 -0.028396 -0.028388 -0.027473 -0.028053 -0.029722 -0.028816 -0.028853 -0.029647 -0.028490 -0.030359 -0.029785 -0.030202 -0.032152 -0.032015 -0.031640 -0.031202 -0.031425 -0.031246 -0.031502 -0.032524 -0.031103 -0.031451 -0.031641 -0.032428 -0.032497 -0.032903 -0.032013 -0.031742 -0.031929 -0.032262 -0.031547 -0.031073 -0.031618 -0.031800 -0.031781 -0.030759 -0.030562 -0.031497 -0.030687 -0.029886 -0.030282 -0.028629 -0.030515 -0.028889 -0.030712 -0.028566 -0.027656 -0.029567 -0.028761 -0.027735 -0.027235 -0.027293 -0.026251 -0.027085 -0.025476 -0.026243 -0.026476 -0.024469 -0.024703 -0.025550 -0.025340 -0.024566 -0.023449 -0.022785 -0.023411 -0.023408 -0.023323 -0.021747 -0.021639 -0.022033 -0.021977 -0.020714 -0.020307 -0.020275 -0.020809 -0.019678 -0.018857 -0.018822 -0.018043 -0.017909 -0.018313 -0.016992 -0.016417 -0.018019 -0.016039 -0.016269 -0.015439 -0.015671 -0.015660 -0.014605 -0.013647 -0.014259 -0.014888 -0.013075 -0.014151 -0.013077 -0.013955 -0.012769 -0.011713 -0.012629 -0.011492 -0.010561 -0.011257 -0.010221 -0.010739 -0.009695 -0.010572 -0.008725 -0.009825 -0.010215 -0.009398 -0.008562 -0.007775 -0.008818 -0.007151 -0.007343 -0.007189 -0.005492 -0.006398 -0.006138 -0.005625 -0.004946 -0.005584 -0.004809 -0.004032
5  1000.0  1.000 -0.000448  0.170246  0.162269  0.154560  0.146129  0.140159  0.133190  0.126202  0.119330  0.113278  0.106413  0.100988  0.094895  0.089354  0.083349  0.077069  0.073556  0.067446  0.062239  0.057771  0.054059  0.048191  0.044839  0.040122  0.035503  0.032767  0.028598  0.024193  0.021766  0.018431  0.015356  0.011409  0.008773  0.006717  0.003740  0.001211 -0.000916 -0.004445 -0.006324 -0.008855 -0.010008 -0.011479 -0.014710 -0.016071 -0.017209 -0.018423 -0.019047 -0.022144 -0.022174 -0.024501 -0.025906 -0.024570 -0.028193 -0.028379 -0.027857 -0.029061 -0.030307 -0.031588 -0.032159 -0.032911 -0.033168 -0.031999 -0.034396 -0.033341 -0.033442 -0.034037 -0.034567 -0.034339 -0.033907 -0.035062 -0.035366 -0.034687 -0.034816 -0.034703 -0.034543 -0.033603 -0.033947 -0.034771 -0.034389 -0.034986 -0.033926 -0.034403 -0.033106 -0.032641 -0.031806 -0.032069 -0.032076 -0.031525 -0.031306 -0.030957 -0.030751 -0.030427 -0.030658 -0.029030 -0.028173 -0.028180 -0.028025 -0.028639 -0.027195 -0.026138 -0.026140 -0.025449 -0.026058 -0.024186 -0.023673 -0.024058 -0.023651 -0.022609 -0.022215 -0.022389 -0.022405 -0.020732 -0.021840 -0.019774 -0.020792 -0.018863 -0.019433 -0.018908 -0.018837 -0.016931 -0.016935 -0.017456 -0.016469 -0.016202 -0.014350 -0.014881 -0.014921 -0.013709 -0.013487 -0.012862 -0.012936 -0.011755 -0.010663 -0.011418 -0.010683 -0.011015 -0.010164 -0.010581 -0.009497 -0.009749 -0.009442 -0.008047 -0.008745 -0.007306 -0.007640 -0.006718 -0.006559 -0.006383 -0.006192 -0.006365 -0.005292 -0.005168 -0.004394 -0.005530 -0.003870 -0.003489 -0.004081 -0.003944 -0.003816 -0.003248 -0.002860 -0.002774 -0.002216 -0.002025 -0.002010 -0.001399 -0.002104 -0.002227 -0.001523 -0.001221 -0.000298 -0.000812 -0.000268 -0.001026 -0.000315 -0.000550  0.000133  0.000593  0.000415  0.000340  0.001614  0.002622  0.000815  0.001216  0.000526  0.001712  0.002256  0.002005  0.002089  0.002547  0.002178  0.002685  0.003601  0.003536  0.003657  0.002833  0.003525  0.004293  0.004630  0.004019  0.003293
6  1000.0  2.000 -0.000265  0.170230  0.161274  0.151513  0.142704  0.133645  0.125952  0.116513  0.110092  0.102946  0.095244  0.087931  0.082195  0.075153  0.068518  0.062262  0.057917  0.052701  0.047153  0.042021  0.036938  0.032278  0.029347  0.024043  0.021096  0.016134  0.013401  0.010150  0.005931  0.003039  0.002003 -0.001051 -0.005629 -0.007861 -0.010393 -0.011104 -0.014446 -0.015831 -0.018036 -0.019143 -0.021056 -0.022332 -0.022942 -0.025233 -0.025175 -0.026907 -0.027320 -0.029646 -0.030590 -0.030290 -0.031600 -0.031713 -0.030759 -0.031637 -0.031528 -0.033516 -0.033825 -0.033061 -0.033100 -0.033825 -0.032247 -0.032227 -0.032831 -0.033316 -0.032071 -0.033242 -0.032581 -0.032791 -0.031619 -0.031388 -0.030054 -0.030999 -0.031566 -0.030163 -0.030442 -0.029043 -0.029156 -0.028591 -0.026939 -0.027585 -0.026348 -0.026012 -0.025372 -0.025011 -0.025731 -0.025059 -0.025060 -0.023353 -0.023588 -0.021926 -0.021604 -0.022588 -0.021056 -0.020276 -0.020663 -0.020082 -0.019541 -0.018649 -0.018934 -0.017338 -0.017107 -0.015267 -0.016579 -0.016446 -0.015675 -0.015048 -0.014692 -0.013800 -0.012869 -0.014108 -0.013462 -0.012744 -0.012581 -0.010688 -0.011414 -0.011622 -0.010115 -0.010217 -0.008699 -0.008630 -0.009396 -0.008112 -0.008081 -0.007356 -0.008161 -0.007522 -0.006801 -0.007268 -0.006042 -0.005622 -0.006495 -0.004383 -0.004755 -0.004974 -0.005062 -0.004216 -0.003724 -0.003027 -0.004772 -0.003411 -0.003524 -0.003284 -0.002391 -0.002117 -0.002840 -0.002030 -0.002581 -0.001193 -0.002351 -0.002062 -0.000859 -0.001353 -0.000454 -0.001610 -0.000676 -0.000632 -0.000982 -0.000923 -0.000897  0.000052 -0.000418 -0.000259 -0.000507 -0.000350 -0.000811 -0.000025  0.000855  0.001001  0.000413 -0.000298  0.000689  0.000561  0.000930  0.000799 -0.000347  0.000515  0.000339 -0.000327  0.000486  0.001234  0.000716  0.001723  0.000544  0.000368  0.001067  0.001591  0.001507  0.001631  0.000286  0.000781  0.000264  0.001935  0.002126  0.001043  0.002059  0.002213  0.002403  0.003170  0.003020  0.001761  0.002242