     Lambda  D_rot  T_eff      bias        w0        w1        w2        w3        w4        w5        w6        w7        w8        w9       w10       w11       w12       w13       w14       w15       w16       w17       w18       w19       w20       w21       w22       w23       w24       w25       w26       w27       w28       w29       w30       w31       w32       w33       w34       w35       w36       w37       w38       w39       w40       w41       w42       w43       w44       w45       w46       w47       w48       w49       w50       w51       w52       w53       w54       w55       w56       w57       w58       w59       w60       w61       w62       w63       w64       w65       w66       w67       w68       w69       w70       w71       w72       w73       w74       w75       w76       w77       w78       w79       w80       w81       w82       w83       w84       w85       w86       w87       w88       w89       w90       w91       w92       w93       w94       w95       w96       w97       w98       w99      w100      w101      w102      w103      w104      w105      w106      w107      w108      w109      w110      w111      w112      w113      w114      w115      w116      w117      w118      w119      w120      w121      w122      w123      w124      w125      w126      w127      w128      w129      w130      w131      w132      w133      w134      w135      w136      w137      w138      w139      w140      w141      w142      w143      w144      w145      w146      w147      w148      w149      w150      w151      w152      w153      w154      w155      w156      w157      w158      w159      w160      w161      w162      w163      w164      w165      w166      w167      w168      w169      w170      w171      w172      w173      w174      w175      w176      w177      w178      w179      w180      w181      w182      w183      w184      w185      w186      w187      w188      w189      w190      w191      w192      w193      w194      w195      w196      w197      w198      w199
0  100000.0  0.000   2.00 -0.021035  0.969767  0.942588  1.000000  0.942258  0.959077  0.911029  0.908981  0.946988  0.861319  0.886559  0.877521  0.874112  0.848793  0.864578  0.835351  0.841533  0.805349  0.818798  0.836596  0.813314  0.790159  0.772651  0.820876  0.741160  0.766481  0.743129  0.749688  0.713971  0.677400  0.660415  0.683473  0.677391  0.685313  0.666922  0.643912  0.623186  0.599175  0.589517  0.582739  0.595042  0.544067  0.550486  0.573931  0.537491  0.534235  0.508379  0.508067  0.514810  0.515268  0.481265  0.470763  0.461685  0.436608  0.447928  0.452219  0.430366  0.402470  0.362055  0.422325  0.367959  0.358907  0.385273  0.355436  0.340552  0.332797  0.297322  0.316534  0.327796  0.280273  0.328372  0.218282  0.249580  0.229446  0.205753  0.211870  0.245546  0.204938  0.199125  0.186559  0.190058  0.213164  0.152996  0.146233  0.092234  0.120305  0.088875  0.144546  0.149748  0.065461  0.092942  0.046861  0.047460  0.055252 -0.030543  0.069361 -0.015607  0.024846 -0.021208 -0.044331 -0.003098 -0.053118 -0.009730 -0.042172 -0.077223 -0.113590 -0.075925 -0.147250 -0.086150 -0.160311 -0.157788 -0.135038 -0.109009 -0.173750 -0.153801 -0.172811 -0.222004 -0.187694 -0.231992 -0.240471 -0.220572 -0.234525 -0.267902 -0.270900 -0.267337 -0.270888 -0.308294 -0.307306 -0.318293 -0.330330 -0.334943 -0.354406 -0.332093 -0.392130 -0.374259 -0.351241 -0.404939 -0.390861 -0.409243 -0.393554 -0.463730 -0.436295 -0.446201 -0.459678 -0.482000 -0.467168 -0.440684 -0.481896 -0.495912 -0.513089 -0.497671 -0.540621 -0.523544 -0.577195 -0.556666 -0.553755 -0.561877 -0.599608 -0.587602 -0.601726 -0.590985 -0.600874 -0.637333 -0.670642 -0.656701 -0.667134 -0.628632 -0.707508 -0.685776 -0.723135 -0.734097 -0.718373 -0.743691 -0.718401 -0.775342 -0.765184 -0.794560 -0.780748 -0.776637 -0.807381 -0.783745 -0.763199 -0.851296 -0.828762 -0.867327 -0.845161 -0.870762 -0.842459 -0.879524 -0.882189 -0.848888 -0.914126 -0.901443 -0.874408 -0.949842 -0.936762 -0.912037 -0.939129 -0.916014 -0.989300 -0.966202
1  100000.0  0.001   2.00 -0.006543  1.000000  0.932030  0.960908  0.923856  0.925957  0.899132  0.855890  0.822980  0.777233  0.730604  0.740777  0.719214  0.693625  0.674139  0.611085  0.618797  0.592954  0.567571  0.572862  0.537690  0.502947  0.496517  0.500762  0.491293  0.427664  0.405352  0.399012  0.407426  0.350850  0.292006  0.344058  0.318515  0.289661  0.286645  0.262991  0.226531  0.198797  0.202970  0.200039  0.213603  0.169358  0.175589  0.164059  0.149250  0.100154  0.149765  0.088313  0.049887  0.035095 -0.004377  0.089752  0.006844  0.014234  0.003853  0.000374 -0.019405  0.000404 -0.052482 -0.011540 -0.045829 -0.059929 -0.072224 -0.057025 -0.065412 -0.086486 -0.123779 -0.084939 -0.128362 -0.070157 -0.119239 -0.132943 -0.117414 -0.104017 -0.151166 -0.120664 -0.171460 -0.126904 -0.131467 -0.157137 -0.153045 -0.154364 -0.211681 -0.183791 -0.155413 -0.143875 -0.194826 -0.225143 -0.205418 -0.158268 -0.210027 -0.174348 -0.207187 -0.210131 -0.237335 -0.243431 -0.208970 -0.213016 -0.175595 -0.233395 -0.234892 -0.230606 -0.219755 -0.232624 -0.213055 -0.208721 -0.203401 -0.263801 -0.213145 -0.225979 -0.241419 -0.221885 -0.222656 -0.218027 -0.196293 -0.242964 -0.229473 -0.230243 -0.226892 -0.254035 -0.219713 -0.208708 -0.277681 -0.224230 -0.242244 -0.234844 -0.247068 -0.227544 -0.220805 -0.299390 -0.224900 -0.226091 -0.256581 -0.240212 -0.168645 -0.227244 -0.214542 -0.215045 -0.204757 -0.152871 -0.243677 -0.202689 -0.212184 -0.215784 -0.179230 -0.160063 -0.185006 -0.203447 -0.206029 -0.161949 -0.172949 -0.224399 -0.191810 -0.182109 -0.161258 -0.205060 -0.184973 -0.192383 -0.193694 -0.153296 -0.202447 -0.203269 -0.181370 -0.181353 -0.188926 -0.185091 -0.168548 -0.130958 -0.186935 -0.128477 -0.156235 -0.143726 -0.135894 -0.123240 -0.152525 -0.170777 -0.133122 -0.143984 -0.108647 -0.138629 -0.125928 -0.137444 -0.116765 -0.104116 -0.108035 -0.083065 -0.101275 -0.108849 -0.161485 -0.101939 -0.115961 -0.072589 -0.094480 -0.135127 -0.149735 -0.133649 -0.109654 -0.101918 -0.078677 -0.107915 -0.059040
2  100000.0  0.010   1.35 -0.001042  1.000000  0.925469  0.895338  0.830587  0.788553  0.730841  0.691539  0.649715  0.613839  0.578453  0.539214  0.485853  0.464182  0.422534  0.382505  0.354863  0.324873  0.287636  0.267136  0.230386  0.203478  0.194052  0.160081  0.153262  0.099651  0.104970  0.077121  0.038568  0.051734 -0.000425  0.003675 -0.013137 -0.043505 -0.060346 -0.073925 -0.069244 -0.087200 -0.094466 -0.121041 -0.116887 -0.128260 -0.149033 -0.131988 -0.171280 -0.161279 -0.167787 -0.157270 -0.176219 -0.189302 -0.187359 -0.193026 -0.217565 -0.194181 -0.203538 -0.194058 -0.221704 -0.222561 -0.209117 -0.212824 -0.213975 -0.207626 -0.218333 -0.200236 -0.214847 -0.203896 -0.194868 -0.218982 -0.204351 -0.203621 -0.200556 -0.200942 -0.208573 -0.177032 -0.187570 -0.201731 -0.186769 -0.186060 -0.173598 -0.168046 -0.184160 -0.187842 -0.191232 -0.171248 -0.170594 -0.155560 -0.151759 -0.158266 -0.124276 -0.157947 -0.138329 -0.149300 -0.137002 -0.131865 -0.126206 -0.120933 -0.120812 -0.125331 -0.110709 -0.138238 -0.098643 -0.098769 -0.107647 -0.098762 -0.072817 -0.096450 -0.095553 -0.096749 -0.082440 -0.085449 -0.068606 -0.071540 -0.073914 -0.060050 -0.073197 -0.078377 -0.071105 -0.067056 -0.055727 -0.052646 -0.064590 -0.051846 -0.055132 -0.027024 -0.050236 -0.043958 -0.026155 -0.047560 -0.033861 -0.037832 -0.048920 -0.039275 -0.036387 -0.022990 -0.025129 -0.006862 -0.017154  0.005695 -0.024404 -0.002784 -0.024970 -0.026700 -0.020386 -0.012237 -0.010292 -0.006116 -0.016447  0.013352  0.002311  0.006205 -0.010626 -0.002375  0.000498  0.004487  0.017873  0.007291  0.018559 -0.002925  0.015218  0.012890  0.015426  0.022541  0.009521  0.015560  0.016792  0.007656  0.008974  0.019196  0.016385  0.026828  0.012186  0.034584  0.020699  0.014128  0.034485  0.015731  0.022769  0.031174  0.028268  0.004161  0.024089  0.015155  0.014549  0.020710 -0.005829 -0.003332  0.008332  0.025909  0.014170  0.022487  0.017007  0.015175  0.009902  0.012091  0.014193  0.011814  0.005731  0.002938  0.015937  0.018796 -0.007289
3  100000.0  0.100   0.80 -0.000295  1.000000  0.898926  0.814658  0.732610  0.657660  0.583813  0.514734  0.438153  0.380313  0.319433  0.269260  0.215976  0.170148  0.118557  0.087583  0.051639  0.010322 -0.017082 -0.039413 -0.075815 -0.095944 -0.114245 -0.130690 -0.146571 -0.162065 -0.174916 -0.187944 -0.188590 -0.202044 -0.205494 -0.215574 -0.212926 -0.210838 -0.208489 -0.209961 -0.225434 -0.212188 -0.209379 -0.196944 -0.195983 -0.196299 -0.195522 -0.201634 -0.179083 -0.171711 -0.177789 -0.165474 -0.166575 -0.159217 -0.146648 -0.141323 -0.132242 -0.127479 -0.121935 -0.113874 -0.108084 -0.102001 -0.099178 -0.098031 -0.095707 -0.085995 -0.072725 -0.070517 -0.060132 -0.055757 -0.057358 -0.046966 -0.040359 -0.045238 -0.045239 -0.028791 -0.024180 -0.030074 -0.029559 -0.021460 -0.018228 -0.015462 -0.012411 -0.014235 -0.007780 -0.011006 -0.007636 -0.004151 -0.000115 -0.001620  0.010036  0.013468  0.000935  0.003931  0.008774 -0.001122  0.004839  0.006854  0.006233  0.006688 -0.000004 -0.003904  0.004158  0.001892  0.000433  0.009774  0.008421  0.007080  0.010363  0.003884  0.009712  0.007845  0.011800  0.001944  0.004916  0.002744  0.008852  0.002352  0.006140  0.008013  0.008369  0.009513  0.011381  0.005550  0.004820  0.011395 -0.001779  0.002749  0.012945  0.006054  0.000883  0.011611  0.015577  0.006730  0.006330  0.003801  0.002269  0.009882  0.002302  0.006603 -0.001539 -0.002912  0.007216 -0.000540  0.000541 -0.001886 -0.003438 -0.004097 -0.000779  0.004625 -0.001682 -0.002204 -0.002138  0.000497 -0.000108  0.006701  0.008584  0.002498 -0.004038  0.006440  0.002023 -0.000134  0.000841 -0.003540 -0.001793  0.002373  0.003470 -0.003012  0.000422 -0.005341  0.002769  0.002924  0.001820  0.001648  0.003730  0.003133 -0.004293 -0.003575 -0.002800 -0.002307  0.001990 -0.000547  0.001282 -0.006770  0.006780 -0.007537 -0.003434 -0.003775 -0.001291  0.002706  0.001421 -0.004829 -0.006747 -0.005165 -0.005861 -0.009922 -0.005714 -0.002243 -0.010259 -0.004496 -0.009271 -0.007420  0.001443 -0.008462 -0.003512
4  100000.0  0.200   0.68 -0.000247  1.000000  0.890884  0.789675  0.692932  0.604216  0.518244  0.443157  0.366054  0.301048  0.235623  0.182523  0.128298  0.082688  0.047766  0.000125 -0.034809 -0.064695 -0.086588 -0.117021 -0.137531 -0.156005 -0.167397 -0.184286 -0.197538 -0.198998 -0.207996 -0.202569 -0.213811 -0.210426 -0.213721 -0.212578 -0.205792 -0.203159 -0.196658 -0.200710 -0.185234 -0.193096 -0.181465 -0.176673 -0.165291 -0.166545 -0.148708 -0.147893 -0.144332 -0.139259 -0.123701 -0.120898 -0.119258 -0.110032 -0.102218 -0.096844 -0.085216 -0.077268 -0.076722 -0.075484 -0.062059 -0.062632 -0.056626 -0.056156 -0.044186 -0.038885 -0.032141 -0.028229 -0.026276 -0.020778 -0.016623 -0.013841 -0.006584 -0.007719 -0.003923 -0.000256 -0.002174  0.004639  0.002893 -0.001087  0.002709  0.002588 -0.002007  0.010813  0.012183  0.007032  0.009163  0.014462  0.009749  0.007595  0.003303  0.012581  0.013548  0.006716  0.005923  0.007695  0.003818  0.011862  0.005307  0.010522  0.013054  0.003245  0.005980  0.003377  0.004255 -0.001512  0.005287  0.000567 -0.001132  0.004961 -0.004997 -0.002774  0.005646  0.000666 -0.001179 -0.002136  0.000042 -0.000071  0.000494 -0.001534 -0.004526 -0.000248  0.001648  0.000713  0.002559 -0.001128 -0.003238  0.005598 -0.002378 -0.003623  0.001599 -0.001703  0.001188  0.000288  0.000425 -0.001285 -0.000040 -0.000530 -0.002298 -0.005529 -0.003777 -0.001114  0.000860  0.007452  0.001867  0.002129  0.000041  0.002974  0.002827 -0.002317 -0.003325  0.006139  0.005668  0.003080 -0.002480  0.000338  0.012230  0.005179  0.004251  0.002931  0.004024  0.002793  0.003832  0.005066  0.001250  0.006633  0.002144  0.003416  0.007240  0.003847  0.003344  0.002055  0.000385  0.002193  0.009066  0.006195  0.001020  0.003241  0.008333  0.004336  0.001361  0.002035  0.002498  0.005763 -0.002366  0.004716  0.003262 -0.002076 -0.001151 -0.003400 -0.001913 -0.004441 -0.006939 -0.001756 -0.002988 -0.003791 -0.002543 -0.007669 -0.010984 -0.012003 -0.010443 -0.013200 -0.016807 -0.009348 -0.017970
5  100000.0  1.000   0.50 -0.000176  1.000000  0.849900  0.713666  0.581566  0.473712  0.365079  0.271868  0.193756  0.119427  0.058734  0.001099 -0.044847 -0.083901 -0.121280 -0.151513 -0.174939 -0.189024 -0.200580 -0.214002 -0.218625 -0.220326 -0.219302 -0.214325 -0.213020 -0.210072 -0.201018 -0.190772 -0.182007 -0.179772 -0.165421 -0.151962 -0.145984 -0.134025 -0.125278 -0.114813 -0.104886 -0.093553 -0.085156 -0.076832 -0.067886 -0.063548 -0.055705 -0.046799 -0.039347 -0.033500 -0.026781 -0.023734 -0.019211 -0.016581 -0.010176 -0.005699 -0.004128 -0.002241 -0.000627  0.001604  0.003778  0.003822  0.008312  0.003636  0.008288  0.007766  0.006260  0.009711  0.005308  0.008795  0.009243  0.012518  0.006638  0.010095  0.009210  0.010028  0.006100  0.007373  0.005038  0.005138  0.008520  0.003608  0.006559  0.008067  0.008972  0.012871  0.006447  0.007092  0.004742  0.006056  0.006261  0.003777  0.005154  0.002424  0.003261  0.003863  0.000318  0.004071  0.003068  0.000802 -0.000531 -0.000656  0.000048 -0.000880 -0.002898 -0.000347 -0.002713 -0.000466 -0.005222 -0.002889 -0.003321  0.000456  0.000965 -0.002727  0.003546 -0.001897 -0.003413 -0.003714 -0.002441 -0.001678 -0.001121 -0.003381 -0.000474 -0.002710 -0.002177 -0.000525 -0.005165 -0.001669 -0.002666 -0.001854 -0.002654 -0.002962 -0.003360 -0.002905 -0.002124 -0.004280 -0.001409 -0.006778 -0.000302 -0.003031 -0.001145 -0.001500 -0.004045  0.000187 -0.000879 -0.000726  0.002817  0.002522  0.002067  0.003455  0.002651  0.001999  0.001838  0.005425  0.000147  0.005097  0.006801  0.003152  0.003410  0.002684  0.001527  0.003044  0.004027  0.002959  0.000585  0.000550  0.000143  0.003355 -0.000754 -0.001276  0.001374  0.001141 -0.000408  0.000444 -0.002333 -0.002834 -0.002869 -0.005002 -0.000051 -0.003435 -0.003062 -0.001485 -0.002495 -0.006077 -0.002828 -0.004796 -0.004121 -0.004903 -0.004482  0.001001 -0.003296  0.000495 -0.003418 -0.002927 -0.002870  0.000766 -0.001652 -0.000081  0.004538  0.000944  0.001921 -0.002167  0.001013  0.005088  0.005688
6  100000.0  2.000   0.43 -0.000113  1.000000  0.826080  0.672056  0.529034  0.402963  0.291297  0.195804  0.111869  0.040087 -0.020271 -0.074136 -0.116327 -0.147284 -0.174784 -0.193890 -0.209695 -0.217101 -0.221318 -0.225855 -0.220438 -0.216926 -0.208783 -0.199941 -0.190928 -0.178526 -0.171046 -0.157899 -0.143235 -0.127765 -0.119912 -0.106305 -0.098130 -0.083563 -0.076756 -0.064842 -0.053161 -0.046916 -0.041902 -0.036342 -0.028123 -0.021227 -0.016610 -0.011135 -0.005192 -0.005507 -0.005330  0.003029  0.002454  0.004757  0.009051  0.010057  0.008288  0.009688  0.008773  0.008116  0.012848  0.010288  0.008187  0.006983  0.006223  0.005156  0.006070  0.004325  0.003664  0.000103  0.004147  0.005749 -0.000286  0.003440  0.004570  0.001202  0.000420  0.001018  0.002313  0.004323  0.004298  0.002706  0.005476  0.006070  0.003936  0.001517  0.002349 -0.000573  0.001669  0.000805  0.001482  0.002463  0.002729 -0.000431 -0.000193  0.002670 -0.001461  0.000525 -0.003160  0.000148 -0.000675 -0.000990 -0.001643 -0.002295 -0.001013 -0.001344 -0.002141 -0.001267 -0.002783 -0.000422  0.000465 -0.004788 -0.004029 -0.005755 -0.002978 -0.001124 -0.002370  0.000027 -0.002978 -0.000858 -0.003030 -0.004568 -0.001865  0.000238  0.001324 -0.000493 -0.000579  0.001141  0.003061  0.001225  0.004769  0.003048  0.001480  0.003913  0.001980  0.000010  0.001270  0.002935  0.000312 -0.004154 -0.002122 -0.002080 -0.006043 -0.001261 -0.001078 -0.003720 -0.002043  0.000239  0.002359 -0.001084  0.003287 -0.000312  0.000794 -0.000613  0.000861 -0.000757  0.002606  0.000416  0.004827  0.003911  0.005549  0.000076  0.001568  0.003485  0.003226  0.001838  0.000910  0.000376  0.000162  0.001566 -0.000647  0.001043 -0.000666 -0.000155 -0.004044  0.000842 -0.000264 -0.002286 -0.002046 -0.005083 -0.005197  0.001695 -0.004722 -0.004081 -0.005484 -0.004429 -0.004310 -0.005228 -0.003342 -0.002301 -0.003020 -0.003326  0.002182  0.000195  0.000462 -0.002157 -0.000358  0.000942  0.000620  0.002541  0.003134  0.004145  0.002961  0.005416  0.004310