   Lambda  D_rot  T_eff      bias   w0        w1        w2        w3        w4        w5        w6        w7        w8        w9       w10       w11       w12       w13       w14       w15       w16       w17       w18       w19       w20       w21       w22       w23       w24       w25       w26       w27       w28       w29       w30       w31       w32       w33       w34       w35       w36       w37       w38       w39       w40       w41       w42       w43       w44       w45       w46       w47       w48       w49       w50       w51       w52       w53       w54       w55       w56       w57       w58       w59       w60       w61       w62       w63       w64       w65       w66       w67       w68       w69       w70       w71       w72       w73       w74       w75       w76       w77       w78       w79       w80       w81       w82       w83       w84       w85       w86       w87       w88       w89       w90       w91       w92       w93       w94       w95       w96       w97       w98       w99      w100      w101      w102      w103      w104      w105      w106      w107      w108      w109      w110      w111      w112      w113      w114      w115      w116      w117      w118      w119      w120      w121      w122      w123      w124      w125      w126      w127      w128      w129      w130      w131      w132      w133      w134      w135      w136      w137      w138      w139      w140      w141      w142      w143      w144      w145      w146      w147      w148      w149      w150      w151      w152      w153      w154      w155      w156      w157      w158      w159      w160      w161      w162      w163      w164      w165      w166      w167      w168      w169      w170      w171      w172      w173      w174      w175      w176      w177      w178      w179      w180      w181      w182      w183      w184      w185      w186      w187      w188      w189      w190      w191      w192      w193      w194      w195      w196      w197      w198      w199
0  1000.0  0.000   2.00 -0.022266  1.0  0.982797  0.971163  0.966380  0.951479  0.937678  0.941696  0.926607  0.904837  0.909887  0.881416  0.876110  0.883789  0.864090  0.858267  0.837163  0.824955  0.826772  0.806999  0.801309  0.764889  0.784213  0.775293  0.754682  0.747240  0.752771  0.718774  0.716847  0.708127  0.690796  0.682349  0.684111  0.660958  0.652825  0.638916  0.640103  0.637964  0.637445  0.619016  0.579683  0.594065  0.586717  0.540458  0.548821  0.542750  0.538080  0.530718  0.512852  0.522307  0.505032  0.485364  0.469646  0.472748  0.425276  0.438738  0.431915  0.414460  0.396045  0.394411  0.382300  0.378129  0.371986  0.368765  0.343829  0.328456  0.327070  0.312323  0.298544  0.292580  0.290148  0.290914  0.257145  0.251514  0.272971  0.231556  0.205269  0.221422  0.210029  0.205118  0.204232  0.167965  0.149080  0.160214  0.145188  0.131642  0.139113  0.116524  0.101812  0.080381  0.076487  0.079390  0.063544  0.037390  0.028414  0.038394  0.029653  0.023168 -0.005567 -0.021689 -0.021669 -0.027402 -0.042950 -0.029300 -0.055633 -0.074292 -0.083976 -0.095974 -0.101705 -0.116150 -0.120570 -0.143355 -0.156330 -0.155895 -0.173395 -0.176570 -0.188532 -0.186864 -0.224513 -0.208024 -0.227934 -0.218288 -0.252134 -0.262657 -0.260912 -0.270006 -0.290306 -0.307628 -0.319393 -0.307142 -0.332259 -0.338835 -0.333314 -0.355880 -0.377167 -0.381647 -0.403683 -0.412784 -0.415176 -0.412818 -0.436931 -0.429209 -0.438035 -0.435188 -0.479174 -0.472039 -0.493258 -0.478453 -0.499313 -0.530860 -0.532250 -0.566023 -0.541075 -0.570517 -0.558706 -0.569876 -0.581899 -0.601950 -0.608836 -0.612294 -0.632216 -0.652336 -0.659392 -0.657827 -0.677320 -0.657136 -0.687235 -0.707713 -0.690038 -0.716062 -0.729182 -0.731344 -0.731484 -0.749624 -0.763078 -0.791169 -0.784883 -0.808591 -0.810956 -0.812799 -0.821547 -0.833636 -0.838561 -0.853172 -0.869107 -0.888525 -0.880786 -0.904702 -0.928559 -0.917927 -0.938403 -0.931044 -0.937037 -0.954211 -0.973573 -0.960575 -0.992397 -0.983478 -0.997148 -1.002100 -1.033616
1  1000.0  0.001   2.00 -0.021826  1.0  0.982969  0.978952  0.938885  0.959380  0.930905  0.941049  0.880068  0.917816  0.897343  0.874747  0.873031  0.865803  0.870290  0.845348  0.824845  0.818326  0.811136  0.794893  0.794291  0.769562  0.776451  0.757572  0.761277  0.746911  0.727807  0.722274  0.725612  0.700116  0.688688  0.650491  0.673828  0.656512  0.652821  0.625304  0.630357  0.618230  0.588709  0.582043  0.591800  0.569998  0.552292  0.558597  0.546262  0.538401  0.535368  0.496651  0.484604  0.490541  0.489057  0.476696  0.438490  0.458954  0.412526  0.434299  0.419756  0.400019  0.404548  0.387382  0.368109  0.348961  0.348301  0.346630  0.342738  0.319771  0.323416  0.295750  0.298062  0.289245  0.262415  0.248701  0.261799  0.249894  0.214803  0.216644  0.205726  0.209592  0.188553  0.181200  0.178060  0.162805  0.166190  0.135186  0.127861  0.115191  0.113368  0.100896  0.084807  0.090005  0.043935  0.063976  0.035532  0.016529  0.035183  0.014689  0.009751 -0.004885 -0.020177 -0.020940 -0.045607 -0.053052 -0.038367 -0.081511 -0.046622 -0.077666 -0.095835 -0.089457 -0.114685 -0.126686 -0.137195 -0.146328 -0.170630 -0.157735 -0.163612 -0.172352 -0.193646 -0.193063 -0.213874 -0.216527 -0.226294 -0.234204 -0.239935 -0.267258 -0.261102 -0.283276 -0.285996 -0.289969 -0.293641 -0.321286 -0.294901 -0.339686 -0.361583 -0.349722 -0.360768 -0.370407 -0.390268 -0.404076 -0.408498 -0.400473 -0.413946 -0.434749 -0.456791 -0.437560 -0.476562 -0.488361 -0.465790 -0.494290 -0.506437 -0.507050 -0.500555 -0.520100 -0.527520 -0.548156 -0.549382 -0.557370 -0.568412 -0.585046 -0.591712 -0.592016 -0.621339 -0.601241 -0.626255 -0.628251 -0.632955 -0.644013 -0.678378 -0.682442 -0.692361 -0.685459 -0.685869 -0.722625 -0.724713 -0.706739 -0.751763 -0.751785 -0.762262 -0.771341 -0.777217 -0.780608 -0.781905 -0.817073 -0.827965 -0.816628 -0.851980 -0.856138 -0.837672 -0.878440 -0.885815 -0.876132 -0.887925 -0.906511 -0.912292 -0.938252 -0.928519 -0.950899 -0.944771 -0.952778 -0.954469 -0.994215 -1.006780
2  1000.0  0.010   2.00 -0.017416  1.0  0.959946  0.956083  0.946592  0.916051  0.924341  0.903890  0.882123  0.885736  0.874047  0.852980  0.825227  0.819056  0.807291  0.777340  0.771221  0.776224  0.767692  0.749243  0.706103  0.712151  0.675663  0.664490  0.676636  0.649253  0.643697  0.620172  0.629267  0.601897  0.588022  0.583529  0.567129  0.556359  0.532015  0.529985  0.521670  0.513409  0.501453  0.471407  0.489305  0.441371  0.450417  0.440955  0.434377  0.407485  0.398559  0.380222  0.377116  0.368178  0.347621  0.354547  0.344314  0.331720  0.320642  0.298328  0.290961  0.277279  0.279343  0.268261  0.260808  0.230303  0.229368  0.222292  0.225305  0.215972  0.201824  0.184333  0.174913  0.150438  0.173154  0.158427  0.118802  0.133211  0.100506  0.129196  0.117517  0.093678  0.085007  0.080851  0.061828  0.061085  0.043333  0.047576  0.021553  0.040008  0.031463  0.005290 -0.000435  0.009279 -0.014094 -0.018662 -0.029518 -0.046357 -0.063804 -0.061112 -0.055635 -0.079888 -0.080417 -0.087450 -0.076710 -0.098844 -0.101612 -0.113584 -0.122071 -0.110939 -0.140991 -0.147639 -0.164256 -0.148561 -0.181579 -0.170002 -0.192432 -0.175611 -0.174834 -0.208769 -0.196013 -0.217543 -0.218234 -0.230360 -0.235075 -0.242545 -0.253649 -0.253210 -0.262889 -0.272225 -0.266001 -0.283208 -0.287954 -0.293504 -0.299407 -0.308171 -0.331725 -0.339793 -0.330365 -0.336640 -0.328197 -0.354431 -0.354934 -0.346868 -0.354153 -0.366343 -0.366967 -0.384750 -0.380378 -0.390837 -0.399730 -0.401801 -0.406038 -0.415711 -0.421493 -0.425636 -0.442842 -0.445000 -0.457301 -0.444153 -0.454716 -0.450529 -0.481864 -0.470686 -0.470447 -0.482440 -0.491174 -0.509732 -0.507264 -0.499139 -0.543282 -0.518973 -0.529871 -0.536772 -0.557931 -0.563644 -0.561317 -0.579136 -0.585726 -0.587935 -0.568499 -0.594322 -0.562512 -0.570017 -0.600842 -0.610796 -0.610828 -0.607123 -0.624306 -0.616753 -0.616375 -0.653905 -0.659669 -0.635256 -0.682705 -0.659675 -0.672464 -0.681220 -0.678793 -0.690246 -0.691728 -0.722026 -0.696433 -0.716991 -0.713004
3  1000.0  0.100   2.00 -0.006924  1.0  0.982476  0.946660  0.917909  0.890676  0.862772  0.830127  0.812827  0.778365  0.765449  0.733239  0.713405  0.682763  0.668502  0.640162  0.626480  0.597326  0.573682  0.549333  0.525394  0.513113  0.496606  0.470723  0.453696  0.434323  0.416878  0.394697  0.387392  0.358245  0.340752  0.322009  0.305311  0.289904  0.270509  0.264753  0.241446  0.226227  0.221465  0.199496  0.187487  0.167687  0.154312  0.143720  0.124784  0.116307  0.107654  0.100925  0.087790  0.062853  0.061760  0.059722  0.040201  0.031197  0.017899  0.000218  0.001139 -0.012438 -0.021391 -0.024044 -0.033091 -0.042443 -0.051266 -0.052464 -0.056938 -0.072709 -0.074271 -0.087426 -0.087632 -0.106974 -0.106154 -0.109770 -0.118020 -0.120261 -0.118292 -0.120462 -0.143466 -0.148175 -0.149949 -0.154004 -0.153029 -0.163464 -0.166001 -0.168678 -0.162157 -0.180414 -0.173371 -0.176342 -0.187214 -0.191366 -0.198239 -0.196702 -0.195901 -0.197950 -0.202704 -0.201948 -0.206504 -0.213034 -0.206655 -0.219047 -0.215495 -0.216364 -0.211400 -0.213389 -0.218790 -0.213851 -0.212647 -0.215668 -0.230771 -0.220423 -0.215580 -0.232945 -0.224830 -0.228986 -0.228415 -0.238650 -0.226099 -0.217532 -0.227051 -0.222286 -0.212130 -0.228382 -0.230107 -0.225364 -0.222076 -0.222774 -0.215990 -0.227929 -0.223495 -0.204532 -0.212371 -0.218809 -0.216165 -0.212544 -0.218418 -0.208579 -0.219916 -0.211772 -0.215781 -0.209255 -0.198852 -0.194389 -0.217333 -0.212983 -0.205233 -0.202293 -0.203644 -0.195835 -0.192154 -0.204856 -0.197927 -0.196703 -0.191886 -0.186655 -0.193392 -0.190230 -0.198297 -0.194285 -0.182954 -0.186702 -0.170039 -0.182616 -0.182087 -0.173722 -0.170488 -0.166864 -0.179090 -0.172611 -0.169908 -0.170897 -0.158277 -0.163230 -0.159737 -0.157189 -0.159099 -0.153688 -0.157842 -0.149508 -0.155638 -0.150294 -0.153795 -0.142741 -0.133190 -0.142206 -0.143431 -0.141779 -0.138911 -0.142544 -0.127617 -0.129390 -0.126219 -0.132969 -0.135285 -0.128739 -0.126839 -0.128095 -0.115618 -0.115322 -0.119971 -0.111737 -0.109725
4  1000.0  0.200   2.00 -0.005286  1.0  0.966666  0.950116  0.902362  0.880135  0.841654  0.818070  0.788227  0.755265  0.727776  0.703218  0.682856  0.644298  0.618612  0.592720  0.570928  0.543093  0.525740  0.504666  0.469822  0.449886  0.427282  0.410800  0.387903  0.366183  0.346334  0.331655  0.306717  0.282590  0.263979  0.250879  0.242153  0.216034  0.199804  0.180082  0.171224  0.151171  0.137187  0.125399  0.115797  0.092716  0.077395  0.062125  0.055284  0.040077  0.036600  0.027306  0.016302  0.004099 -0.015926 -0.028190 -0.030145 -0.040998 -0.054971 -0.061272 -0.068243 -0.078324 -0.088232 -0.084859 -0.101282 -0.106044 -0.110665 -0.124704 -0.120346 -0.140720 -0.139575 -0.141622 -0.144850 -0.157476 -0.146528 -0.155214 -0.170463 -0.170516 -0.175989 -0.178157 -0.193357 -0.193302 -0.187073 -0.191022 -0.202387 -0.196214 -0.196469 -0.201876 -0.193992 -0.206722 -0.202813 -0.205652 -0.218929 -0.217998 -0.215442 -0.212464 -0.213983 -0.212761 -0.214505 -0.221466 -0.211786 -0.214161 -0.215452 -0.220808 -0.221279 -0.224044 -0.217987 -0.216139 -0.217410 -0.219677 -0.214813 -0.211586 -0.215294 -0.216535 -0.216404 -0.209448 -0.208105 -0.214470 -0.208957 -0.203502 -0.206199 -0.194941 -0.207783 -0.196715 -0.209126 -0.194513 -0.188318 -0.201328 -0.195843 -0.188857 -0.185450 -0.185843 -0.178750 -0.184431 -0.173471 -0.178694 -0.180279 -0.166617 -0.168211 -0.173973 -0.172547 -0.167277 -0.159670 -0.155148 -0.159411 -0.159391 -0.158815 -0.148079 -0.147348 -0.150031 -0.149644 -0.141044 -0.138273 -0.138059 -0.141691 -0.133995 -0.128404 -0.128163 -0.122862 -0.121949 -0.124698 -0.115703 -0.111790 -0.122693 -0.109213 -0.110779 -0.105129 -0.106705 -0.106632 -0.099447 -0.092924 -0.097091 -0.101374 -0.089033 -0.096356 -0.089044 -0.095024 -0.086945 -0.079758 -0.085996 -0.078252 -0.071916 -0.076649 -0.069600 -0.073128 -0.066014 -0.071990 -0.059408 -0.066898 -0.069556 -0.063992 -0.058302 -0.052945 -0.060043 -0.048695 -0.050001 -0.048951 -0.037396 -0.043562 -0.041798 -0.038304 -0.033679 -0.038020 -0.032744 -0.027458
5  1000.0  1.000   1.65 -0.002632  1.0  0.953146  0.907867  0.858340  0.823275  0.782338  0.741295  0.700930  0.665379  0.625055  0.593192  0.557402  0.524855  0.489581  0.452691  0.432059  0.396168  0.365584  0.339337  0.317533  0.283070  0.263379  0.235672  0.208538  0.192470  0.167979  0.142107  0.127852  0.108262  0.090198  0.067013  0.051530  0.039457  0.021970  0.007113 -0.005383 -0.026111 -0.037148 -0.052016 -0.058786 -0.067423 -0.086405 -0.094397 -0.101083 -0.108215 -0.111880 -0.130068 -0.130245 -0.143916 -0.152166 -0.144322 -0.165605 -0.166693 -0.163626 -0.170699 -0.178019 -0.185541 -0.188896 -0.193314 -0.194823 -0.187957 -0.202038 -0.195839 -0.196432 -0.199932 -0.203043 -0.201701 -0.199164 -0.205951 -0.207734 -0.203744 -0.204503 -0.203840 -0.202901 -0.197378 -0.199400 -0.204243 -0.201996 -0.205505 -0.199277 -0.202078 -0.194458 -0.191729 -0.186824 -0.188368 -0.188410 -0.185173 -0.183888 -0.181840 -0.180627 -0.178726 -0.180078 -0.170516 -0.165487 -0.165528 -0.164615 -0.168224 -0.159740 -0.153529 -0.153543 -0.149481 -0.153064 -0.142065 -0.139052 -0.141312 -0.138921 -0.132804 -0.130490 -0.131508 -0.131606 -0.121774 -0.128283 -0.116149 -0.122129 -0.110801 -0.114145 -0.111062 -0.110649 -0.099451 -0.099473 -0.102536 -0.096737 -0.095169 -0.084289 -0.087412 -0.087646 -0.080528 -0.079221 -0.075550 -0.075985 -0.069046 -0.062635 -0.067066 -0.062752 -0.064702 -0.059704 -0.062153 -0.055782 -0.057265 -0.055462 -0.047270 -0.051367 -0.042916 -0.044877 -0.039458 -0.038525 -0.037493 -0.036372 -0.037388 -0.031084 -0.030358 -0.025808 -0.032482 -0.022734 -0.020495 -0.023970 -0.023165 -0.022413 -0.019076 -0.016798 -0.016294 -0.013018 -0.011893 -0.011807 -0.008219 -0.012361 -0.013082 -0.008946 -0.007173 -0.001751 -0.004770 -0.001576 -0.006028 -0.001852 -0.003231  0.000780  0.003483  0.002437  0.001996  0.009478  0.015401  0.004785  0.007140  0.003089  0.010056  0.013254  0.011775  0.012270  0.014959  0.012791  0.015769  0.021154  0.020772  0.021481  0.016643  0.020707  0.025219  0.027196  0.023608  0.019342
6  1000.0  2.000   1.47 -0.001556  1.0  0.947386  0.890049  0.838301  0.785082  0.739889  0.684443  0.646725  0.604747  0.559501  0.516540  0.482847  0.441477  0.402504  0.365750  0.340225  0.309589  0.276993  0.246849  0.216989  0.189614  0.172396  0.141239  0.123924  0.094776  0.078725  0.059626  0.034841  0.017853  0.011764 -0.006173 -0.033067 -0.046180 -0.061055 -0.065229 -0.084860 -0.092995 -0.105949 -0.112452 -0.123693 -0.131186 -0.134769 -0.148227 -0.147887 -0.158061 -0.160487 -0.174153 -0.179699 -0.177936 -0.185628 -0.186294 -0.180688 -0.185849 -0.185209 -0.196886 -0.198702 -0.194211 -0.194443 -0.198699 -0.189432 -0.189314 -0.192860 -0.195709 -0.188398 -0.195278 -0.191394 -0.192627 -0.185741 -0.184387 -0.176546 -0.182103 -0.185434 -0.177187 -0.178831 -0.170612 -0.171274 -0.167957 -0.158249 -0.162047 -0.154777 -0.152804 -0.149046 -0.146926 -0.151152 -0.147204 -0.147214 -0.137183 -0.138564 -0.128800 -0.126910 -0.132693 -0.123692 -0.119107 -0.121381 -0.117969 -0.114790 -0.109553 -0.111224 -0.101853 -0.100496 -0.089686 -0.097389 -0.096608 -0.092080 -0.088399 -0.086307 -0.081065 -0.075597 -0.082876 -0.079084 -0.074866 -0.073904 -0.062788 -0.067050 -0.068270 -0.059421 -0.060019 -0.051101 -0.050698 -0.055195 -0.047654 -0.047474 -0.043212 -0.047943 -0.044189 -0.039953 -0.042697 -0.035495 -0.033027 -0.038156 -0.025746 -0.027930 -0.029221 -0.029739 -0.024764 -0.021874 -0.017782 -0.028035 -0.020039 -0.020704 -0.019293 -0.014046 -0.012436 -0.016686 -0.011925 -0.015161 -0.007007 -0.013808 -0.012110 -0.005045 -0.007948 -0.002666 -0.009457 -0.003970 -0.003715 -0.005771 -0.005422 -0.005271  0.000303 -0.002453 -0.001522 -0.002976 -0.002055 -0.004764 -0.000148  0.005025  0.005882  0.002424 -0.001752  0.004050  0.003293  0.005462  0.004694 -0.002040  0.003028  0.001992 -0.001922  0.002856  0.007250  0.004207  0.010121  0.003194  0.002162  0.006269  0.009345  0.008852  0.009583  0.001682  0.004587  0.001549  0.011364  0.012488  0.006128  0.012095  0.013000  0.014118  0.018624  0.017742  0.010345  0.013169