    Lambda  D_rot  T_eff      bias        w0        w1        w2        w3        w4        w5        w6        w7        w8        w9       w10       w11       w12       w13       w14       w15       w16       w17       w18       w19       w20       w21       w22       w23       w24       w25       w26       w27       w28       w29       w30       w31       w32       w33       w34       w35       w36       w37       w38       w39       w40       w41       w42       w43       w44       w45       w46       w47       w48       w49       w50       w51       w52       w53       w54       w55       w56       w57       w58       w59       w60       w61       w62       w63       w64       w65       w66       w67       w68       w69       w70       w71       w72       w73       w74       w75       w76       w77       w78       w79       w80       w81       w82       w83       w84       w85       w86       w87       w88       w89       w90       w91       w92       w93       w94       w95       w96       w97       w98       w99      w100      w101      w102      w103      w104      w105      w106      w107      w108      w109      w110      w111      w112      w113      w114      w115      w116      w117      w118      w119      w120      w121      w122      w123      w124      w125      w126      w127      w128      w129      w130      w131      w132      w133      w134      w135      w136      w137      w138      w139      w140      w141      w142      w143      w144      w145      w146      w147      w148      w149      w150      w151      w152      w153      w154      w155      w156      w157      w158      w159      w160      w161      w162      w163      w164      w165      w166      w167      w168      w169      w170      w171      w172      w173      w174      w175      w176      w177      w178      w179      w180      w181      w182      w183      w184      w185      w186      w187      w188      w189      w190      w191      w192      w193      w194      w195      w196      w197      w198      w199
0  10000.0  0.000   2.00 -0.021678  0.989082  0.958156  0.985290  1.000000  0.922090  0.938986  0.895246  0.933044  0.959518  0.904319  0.901877  0.838164  0.854130  0.866591  0.881998  0.819983  0.825011  0.857301  0.781213  0.827322  0.796755  0.756215  0.755429  0.756256  0.744617  0.701055  0.767728  0.701001  0.719961  0.665117  0.710971  0.734503  0.660847  0.631196  0.664140  0.630030  0.606877  0.633758  0.615640  0.626601  0.568492  0.580426  0.589029  0.594007  0.524455  0.574328  0.538925  0.524693  0.523450  0.505829  0.489928  0.461073  0.453388  0.474439  0.435204  0.409606  0.421028  0.393127  0.423421  0.360211  0.380870  0.337470  0.346851  0.324990  0.283623  0.349941  0.372980  0.335986  0.282241  0.317954  0.249094  0.281342  0.254968  0.233758  0.252311  0.215384  0.224734  0.212527  0.188218  0.206080  0.124450  0.144402  0.163502  0.142633  0.128871  0.140453  0.098332  0.110362  0.088366  0.126243  0.102182  0.078763  0.027038  0.051875  0.039452  0.047416 -0.014250  0.003773  0.037037 -0.037686 -0.014387 -0.022433 -0.054941 -0.027025 -0.055720 -0.073707 -0.069851 -0.124499 -0.146879 -0.107530 -0.177873 -0.129287 -0.176908 -0.123799 -0.190517 -0.216379 -0.195674 -0.242365 -0.219940 -0.234303 -0.272766 -0.239037 -0.245989 -0.245234 -0.293274 -0.251335 -0.257545 -0.303786 -0.336791 -0.322697 -0.348987 -0.322950 -0.339952 -0.356086 -0.390205 -0.394288 -0.397342 -0.380126 -0.416169 -0.429804 -0.449667 -0.472884 -0.485857 -0.439351 -0.476762 -0.479462 -0.465373 -0.501288 -0.525848 -0.524788 -0.537220 -0.555606 -0.519221 -0.613734 -0.584513 -0.605373 -0.623434 -0.622988 -0.630753 -0.634531 -0.654939 -0.616812 -0.681610 -0.636790 -0.709022 -0.736780 -0.718157 -0.690420 -0.727254 -0.727124 -0.738720 -0.738634 -0.746074 -0.722953 -0.773924 -0.837370 -0.794436 -0.854208 -0.810993 -0.832480 -0.841460 -0.846302 -0.831610 -0.852949 -0.876180 -0.880332 -0.893811 -0.898117 -0.903977 -0.936627 -0.951890 -0.967072 -0.981357 -0.945102 -0.956582 -0.988753 -0.995372 -1.005787 -1.021458 -1.032814
1  10000.0  0.001   2.00 -0.016818  1.000000  0.964821  0.956745  0.937135  0.934628  0.883642  0.893790  0.900671  0.861255  0.823623  0.843122  0.814316  0.798157  0.822460  0.788186  0.757721  0.744936  0.745587  0.738041  0.713269  0.749567  0.692618  0.671624  0.674609  0.622946  0.653738  0.618485  0.615281  0.590738  0.583954  0.570004  0.543814  0.511295  0.533382  0.550028  0.544717  0.495786  0.480505  0.464022  0.496562  0.449174  0.438876  0.423519  0.417789  0.406653  0.389253  0.360150  0.388497  0.368711  0.381200  0.328275  0.334938  0.335348  0.299676  0.289287  0.303324  0.306258  0.275185  0.279713  0.260281  0.278647  0.238815  0.214014  0.230074  0.165924  0.222736  0.178029  0.179501  0.164538  0.133680  0.185790  0.116532  0.123975  0.164431  0.101520  0.134769  0.113765  0.092249  0.075849  0.031045  0.055953  0.057718  0.041632  0.061283  0.024323 -0.018229 -0.010013 -0.027485  0.009575 -0.019969 -0.024786  0.005372 -0.040836 -0.064025 -0.015977 -0.071588 -0.063671 -0.047353 -0.092268 -0.077264 -0.070772 -0.122049 -0.107376 -0.100852 -0.075512 -0.098113 -0.145969 -0.170975 -0.132928 -0.127296 -0.182952 -0.203139 -0.200678 -0.230768 -0.209461 -0.246399 -0.184431 -0.241021 -0.219464 -0.206372 -0.208609 -0.252389 -0.246101 -0.276777 -0.284152 -0.253633 -0.275691 -0.297794 -0.294603 -0.328172 -0.285064 -0.308824 -0.344385 -0.333783 -0.316546 -0.371602 -0.336582 -0.370081 -0.375493 -0.358482 -0.338801 -0.392788 -0.401246 -0.370389 -0.371134 -0.402962 -0.421653 -0.380438 -0.420928 -0.417939 -0.437787 -0.437267 -0.429485 -0.431853 -0.438599 -0.468578 -0.486096 -0.465060 -0.475656 -0.514691 -0.456338 -0.479948 -0.474481 -0.499794 -0.531017 -0.489873 -0.501251 -0.514013 -0.523292 -0.559971 -0.514583 -0.583678 -0.602348 -0.565526 -0.570621 -0.577412 -0.581383 -0.573140 -0.574180 -0.579026 -0.575079 -0.628102 -0.609395 -0.639259 -0.647163 -0.643574 -0.617804 -0.614556 -0.641825 -0.649426 -0.657517 -0.643217 -0.663780 -0.675349 -0.701445 -0.671738 -0.709601 -0.709681 -0.698397 -0.766400
2  10000.0  0.010   2.00 -0.005990  1.000000  0.998170  0.963530  0.925586  0.885768  0.859288  0.852245  0.801501  0.785376  0.773174  0.735578  0.716826  0.677575  0.665009  0.651349  0.608695  0.581774  0.564741  0.503867  0.534133  0.488322  0.474728  0.448265  0.439151  0.429526  0.390511  0.375233  0.359282  0.354777  0.336800  0.310453  0.306727  0.273770  0.256864  0.245107  0.215697  0.198662  0.177878  0.185911  0.191488  0.162976  0.143684  0.092839  0.127001  0.097249  0.092994  0.075709  0.066312  0.038329  0.059951  0.008873  0.004738  0.005241 -0.021011 -0.025869 -0.021492 -0.048671 -0.046701 -0.055818 -0.062626 -0.090097 -0.082642 -0.080613 -0.112988 -0.110469 -0.095247 -0.098948 -0.124741 -0.117481 -0.141943 -0.141252 -0.142779 -0.156326 -0.136536 -0.163012 -0.164111 -0.154912 -0.184259 -0.177868 -0.178568 -0.208768 -0.196485 -0.168726 -0.197111 -0.214648 -0.205445 -0.226096 -0.228135 -0.206226 -0.211429 -0.229164 -0.219765 -0.244415 -0.213891 -0.223167 -0.252786 -0.232974 -0.243101 -0.219232 -0.252081 -0.233069 -0.213435 -0.226443 -0.231647 -0.225558 -0.239928 -0.230811 -0.248562 -0.234468 -0.257680 -0.236107 -0.233285 -0.222127 -0.239793 -0.227445 -0.226667 -0.239455 -0.221540 -0.216960 -0.233281 -0.231325 -0.208491 -0.239027 -0.225806 -0.216566 -0.199318 -0.228341 -0.211227 -0.236085 -0.207990 -0.217150 -0.213778 -0.208508 -0.205777 -0.205152 -0.213356 -0.198834 -0.184649 -0.211950 -0.198515 -0.217627 -0.200311 -0.194062 -0.182694 -0.190054 -0.190123 -0.190807 -0.162946 -0.182153 -0.183696 -0.181484 -0.157979 -0.151268 -0.161253 -0.165057 -0.154108 -0.160042 -0.168515 -0.147849 -0.157772 -0.141958 -0.147763 -0.125717 -0.153708 -0.152251 -0.116049 -0.135194 -0.142520 -0.141312 -0.125075 -0.134369 -0.101722 -0.125594 -0.104955 -0.108096 -0.100038 -0.086987 -0.116030 -0.094911 -0.105627 -0.095011 -0.099148 -0.099826 -0.074660 -0.088129 -0.096835 -0.077315 -0.065890 -0.092687 -0.070624 -0.069130 -0.074982 -0.055956 -0.096783 -0.073345 -0.037947 -0.070684 -0.058732 -0.067695 -0.061509
3  10000.0  0.100   1.37 -0.001548  1.000000  0.947976  0.895027  0.851254  0.800261  0.755034  0.707342  0.668881  0.623113  0.581494  0.550088  0.503921  0.475010  0.436137  0.404668  0.373367  0.340175  0.299791  0.274226  0.245303  0.221020  0.191530  0.180105  0.141354  0.126493  0.106178  0.070162  0.054327  0.039180  0.021022  0.002026 -0.023436 -0.031928 -0.043945 -0.056600 -0.066876 -0.081424 -0.092789 -0.107022 -0.113960 -0.133419 -0.137032 -0.144467 -0.160121 -0.156434 -0.165716 -0.178154 -0.170034 -0.177917 -0.200073 -0.177946 -0.198119 -0.195572 -0.198754 -0.214547 -0.199460 -0.203254 -0.201532 -0.212573 -0.204497 -0.207250 -0.210736 -0.204336 -0.200912 -0.208048 -0.208158 -0.206520 -0.205694 -0.198160 -0.195439 -0.189557 -0.204559 -0.196643 -0.193490 -0.186574 -0.188313 -0.189374 -0.186697 -0.184663 -0.176086 -0.169161 -0.161194 -0.169168 -0.159335 -0.163882 -0.159651 -0.148338 -0.150089 -0.146167 -0.142504 -0.141681 -0.143678 -0.126474 -0.132082 -0.131034 -0.121272 -0.124129 -0.130950 -0.113559 -0.114979 -0.125053 -0.104929 -0.108611 -0.101439 -0.100964 -0.095191 -0.091661 -0.090119 -0.091212 -0.087672 -0.081974 -0.072901 -0.066515 -0.081949 -0.072504 -0.061310 -0.066668 -0.069330 -0.064454 -0.054842 -0.051404 -0.051631 -0.053212 -0.041994 -0.031423 -0.033856 -0.038708 -0.046075 -0.035727 -0.033903 -0.038040 -0.036606 -0.026715 -0.024956 -0.023417 -0.027010 -0.006615 -0.025409 -0.022682 -0.022986 -0.023030 -0.012727 -0.011457 -0.006961 -0.011950 -0.002002 -0.014704 -0.008406 -0.010193 -0.005685 -0.002566 -0.015065  0.004087 -0.000793 -0.007472 -0.004455  0.004957 -0.000037 -0.002618  0.003204 -0.003134  0.007028  0.006453  0.013345  0.006579  0.008277  0.000488  0.002241  0.005412  0.008581  0.003557  0.010317  0.010309  0.007654  0.004953  0.011260  0.010985  0.006828  0.011376  0.008482  0.011751  0.017661  0.013482  0.009210  0.012361  0.011109  0.008514  0.004895  0.008919  0.003475  0.001344  0.015075  0.007876  0.008781  0.001373  0.011971  0.016499  0.010154  0.007691  0.008453
4  10000.0  0.200   1.25 -0.001294  1.000000  0.945452  0.891946  0.827181  0.775253  0.719084  0.666885  0.622899  0.568961  0.526720  0.485446  0.449467  0.405111  0.361493  0.323294  0.290381  0.260581  0.220894  0.197329  0.160230  0.138882  0.113711  0.083854  0.066048  0.037484  0.016374 -0.002389 -0.013901 -0.035250 -0.058169 -0.067006 -0.072953 -0.094658 -0.104269 -0.119407 -0.125942 -0.140234 -0.147175 -0.152240 -0.161154 -0.167484 -0.174149 -0.191882 -0.184832 -0.192798 -0.205165 -0.196573 -0.194955 -0.203056 -0.207301 -0.204226 -0.210156 -0.217366 -0.207482 -0.208764 -0.205024 -0.213793 -0.205302 -0.201300 -0.206339 -0.207275 -0.195603 -0.192631 -0.196445 -0.185553 -0.191123 -0.183261 -0.177383 -0.173878 -0.175921 -0.167393 -0.173073 -0.163637 -0.160456 -0.150897 -0.148216 -0.143908 -0.146261 -0.142009 -0.136622 -0.130966 -0.136979 -0.120892 -0.121717 -0.119108 -0.112145 -0.113176 -0.110232 -0.100398 -0.097945 -0.098502 -0.103503 -0.087424 -0.086885 -0.083333 -0.078506 -0.074844 -0.082281 -0.075452 -0.066590 -0.063058 -0.062837 -0.060744 -0.061383 -0.060935 -0.053556 -0.052869 -0.047014 -0.042591 -0.037933 -0.041432 -0.036745 -0.038374 -0.034884 -0.033333 -0.033195 -0.024989 -0.021562 -0.018865 -0.016888 -0.019639 -0.019850 -0.012302 -0.017251 -0.003794 -0.008418 -0.007080 -0.006889 -0.009159 -0.009328 -0.007283 -0.002169 -0.003643 -0.006725  0.000600 -0.001756  0.002900 -0.001741  0.002669  0.004349  0.007702  0.007551  0.006717  0.006795  0.012221  0.012022  0.007155  0.015468  0.001983  0.010225  0.005123  0.011476  0.012296  0.002837  0.007265  0.014366  0.009805  0.016636  0.008208  0.016785  0.012140  0.010411  0.010665  0.015936  0.008105  0.005929  0.008989  0.008824  0.014348  0.010937  0.014151 -0.000042  0.005156 -0.000276  0.004718  0.000292  0.002250  0.010063  0.004188  0.000547  0.006944  0.002474  0.000966 -0.001183  0.005419 -0.002991 -0.003666  0.005750  0.001401 -0.003661 -0.003773 -0.001492 -0.002077 -0.008903 -0.012230 -0.009151 -0.017635 -0.012321 -0.013535 -0.009329
5  10000.0  1.000   0.94 -0.000766  1.000000  0.918302  0.843489  0.763337  0.696515  0.625502  0.562428  0.501664  0.440783  0.383534  0.334957  0.281643  0.239151  0.195113  0.157799  0.118976  0.080140  0.043566  0.019243 -0.006294 -0.033551 -0.057192 -0.077514 -0.097878 -0.112816 -0.130895 -0.146430 -0.155448 -0.170534 -0.177075 -0.190246 -0.193112 -0.195857 -0.206672 -0.204314 -0.210160 -0.208421 -0.213504 -0.210164 -0.211120 -0.214434 -0.206975 -0.202890 -0.201391 -0.200343 -0.193152 -0.197218 -0.190265 -0.187420 -0.182672 -0.175221 -0.168218 -0.164216 -0.159573 -0.155528 -0.146661 -0.147284 -0.134670 -0.134316 -0.124887 -0.118933 -0.115758 -0.113338 -0.112082 -0.105985 -0.094686 -0.096590 -0.086762 -0.078020 -0.077696 -0.074080 -0.067371 -0.064124 -0.058356 -0.054823 -0.049392 -0.050058 -0.048493 -0.039050 -0.037177 -0.029932 -0.034966 -0.029182 -0.023956 -0.022346 -0.021973 -0.017804 -0.018674 -0.016229 -0.015691 -0.012049 -0.012670 -0.011136 -0.010633 -0.006698 -0.007458 -0.007113  0.003493 -0.000561 -0.003182  0.003624  0.002507 -0.000839 -0.001011  0.004255  0.003377  0.006320  0.004345  0.002749  0.004299  0.006994  0.005221  0.004086  0.004250  0.002336  0.009109  0.005384  0.005752  0.004037  0.006699  0.003896  0.005683  0.004421  0.006091  0.007040  0.006585  0.004886  0.006895  0.004387  0.004984  0.002113  0.000569  0.001096  0.005290  0.009852  0.002445  0.008295  0.005717  0.001724  0.003565  0.001110  0.002226  0.004629  0.004289  0.006068  0.001890  0.003885  0.003661  0.000752  0.006366  0.003667  0.000296  0.002636 -0.000008  0.003354  0.001961  0.001865  0.000844  0.001118  0.001513  0.003781 -0.001570 -0.003079  0.000417 -0.002886 -0.002493 -0.000851  0.003696 -0.001255 -0.001411  0.000063 -0.000326 -0.003382 -0.001043 -0.000620  0.001556 -0.001386 -0.000944 -0.004326 -0.002004 -0.004505 -0.001447 -0.001222 -0.000320  0.002677 -0.003590 -0.002557  0.000344 -0.001880 -0.004869 -0.003132 -0.007239 -0.004243 -0.002964  0.000642  0.000225 -0.000067 -0.001748  0.001252  0.000207
6  10000.0  2.000   0.79 -0.000447  1.000000  0.902886  0.816257  0.731847  0.651873  0.577513  0.500853  0.434784  0.367620  0.311237  0.257631  0.201087  0.158085  0.110827  0.071371  0.036419  0.001495 -0.024853 -0.053749 -0.080245 -0.105360 -0.124585 -0.140596 -0.155526 -0.168442 -0.185068 -0.186531 -0.191110 -0.201286 -0.201970 -0.207049 -0.210132 -0.209176 -0.208525 -0.209120 -0.207760 -0.210459 -0.201707 -0.199606 -0.200843 -0.190934 -0.184852 -0.184484 -0.178142 -0.168434 -0.160781 -0.158829 -0.149234 -0.148664 -0.137637 -0.130826 -0.123359 -0.120682 -0.112311 -0.113345 -0.103031 -0.096907 -0.089966 -0.087110 -0.079842 -0.076762 -0.069132 -0.061588 -0.059066 -0.057272 -0.057238 -0.044726 -0.043354 -0.039177 -0.035304 -0.032384 -0.029638 -0.023105 -0.023474 -0.023230 -0.015552 -0.014940 -0.013876 -0.009940 -0.011467 -0.007836 -0.003715 -0.004945 -0.002059 -0.004162 -0.005138 -0.000612  0.000430  0.000456  0.001594  0.003003  0.003073  0.002885  0.006082  0.002968  0.005119  0.004607  0.004248  0.008679  0.006578  0.004013  0.007239  0.002746  0.006087  0.004206  0.004873  0.002224  0.005053  0.002567  0.008653  0.002889  0.004806  0.000926  0.001938  0.004675  0.004812  0.004708  0.007253  0.002455  0.004933  0.001983  0.002649  0.005475  0.001913  0.001356  0.000277  0.003460  0.004325  0.001322  0.005699  0.000265  0.002046  0.000721  0.004016  0.003013  0.004368 -0.003124  0.000869 -0.000789  0.003356 -0.004182  0.000799 -0.000850  0.002963 -0.000095  0.006524 -0.004097  0.001644  0.002526 -0.000363  0.003950 -0.000948 -0.001783 -0.002993  0.002125  0.001195 -0.002187 -0.000532  0.000768  0.004091  0.002767  0.000364 -0.002987  0.000300  0.002954 -0.000165  0.004735 -0.002324 -0.001203  0.000155 -0.005590 -0.002327 -0.001852 -0.003158 -0.001314 -0.003716 -0.004198 -0.005109 -0.005233 -0.004026 -0.006209 -0.005860 -0.001136 -0.002877  0.001164 -0.002539 -0.003963  0.000667 -0.000368 -0.001283 -0.000542 -0.000952 -0.001085  0.002221 -0.001134  0.000652  0.003924  0.003106  0.003850  0.007378