    Lambda  D_rot      bias        w0        w1        w2        w3        w4        w5        w6        w7        w8        w9       w10       w11       w12       w13       w14       w15       w16       w17       w18       w19       w20       w21       w22       w23       w24       w25       w26       w27       w28       w29       w30       w31       w32       w33       w34       w35       w36       w37       w38       w39       w40       w41       w42       w43       w44       w45       w46       w47       w48       w49       w50       w51       w52       w53       w54       w55       w56       w57       w58       w59       w60       w61       w62       w63       w64       w65       w66       w67       w68       w69       w70       w71       w72       w73       w74       w75       w76       w77       w78       w79       w80       w81       w82       w83       w84       w85       w86       w87       w88       w89       w90       w91       w92       w93       w94       w95       w96       w97       w98       w99      w100      w101      w102      w103      w104      w105      w106      w107      w108      w109      w110      w111      w112      w113      w114      w115      w116      w117      w118      w119      w120      w121      w122      w123      w124      w125      w126      w127      w128      w129      w130      w131      w132      w133      w134      w135      w136      w137      w138      w139      w140      w141      w142      w143      w144      w145      w146      w147      w148      w149      w150      w151      w152      w153      w154      w155      w156      w157      w158      w159      w160      w161      w162      w163      w164      w165      w166      w167      w168      w169      w170      w171      w172      w173      w174      w175      w176      w177      w178      w179      w180      w181      w182      w183      w184      w185      w186      w187      w188      w189      w190      w191      w192      w193      w194      w195      w196      w197      w198      w199
0  10000.0  0.000 -0.034333  1.566454  1.517475  1.560448  1.583745  1.460355  1.487114  1.417842  1.477704  1.519632  1.432211  1.428343  1.327438  1.352724  1.372459  1.396860  1.298644  1.306607  1.357745  1.237242  1.310267  1.261856  1.197651  1.196406  1.197717  1.179283  1.110292  1.215885  1.110206  1.140235  1.053376  1.125997  1.163266  1.046613  0.999653  1.051829  0.997806  0.961138  1.003711  0.975017  0.992377  0.900346  0.919246  0.932871  0.940756  0.830602  0.909589  0.853519  0.830980  0.829011  0.801104  0.775920  0.730222  0.718051  0.751390  0.689252  0.648711  0.666801  0.622613  0.670591  0.570483  0.603201  0.534466  0.549324  0.514702  0.449186  0.554217  0.590705  0.532117  0.446998  0.503558  0.394502  0.445573  0.403804  0.370213  0.399595  0.341113  0.355921  0.336588  0.298089  0.326379  0.197096  0.228697  0.258946  0.225894  0.204099  0.222442  0.155733  0.174785  0.139950  0.199937  0.161831  0.124741  0.042821  0.082157  0.062482  0.075094 -0.022569  0.005976  0.058657 -0.059686 -0.022785 -0.035528 -0.087013 -0.042801 -0.088246 -0.116733 -0.110626 -0.197174 -0.232619 -0.170300 -0.281705 -0.204757 -0.280177 -0.196066 -0.301730 -0.342689 -0.309897 -0.383844 -0.348329 -0.371076 -0.431992 -0.378573 -0.389584 -0.388388 -0.464471 -0.398050 -0.407886 -0.481119 -0.533392 -0.511069 -0.552707 -0.511470 -0.538398 -0.563950 -0.617986 -0.624452 -0.629288 -0.602022 -0.659106 -0.680699 -0.712157 -0.748927 -0.769473 -0.695819 -0.755070 -0.759345 -0.737032 -0.793912 -0.832809 -0.831130 -0.850819 -0.879938 -0.822313 -0.971998 -0.925720 -0.958757 -0.987361 -0.986654 -0.998951 -1.004935 -1.037256 -0.976873 -1.079496 -1.008513 -1.122910 -1.166872 -1.137378 -1.093449 -1.151784 -1.151578 -1.169943 -1.169808 -1.181590 -1.144973 -1.225698 -1.326181 -1.258184 -1.352847 -1.284406 -1.318436 -1.332658 -1.340326 -1.317058 -1.350853 -1.387646 -1.394221 -1.415569 -1.422389 -1.431669 -1.483377 -1.507551 -1.531596 -1.554220 -1.496800 -1.514981 -1.565932 -1.576416 -1.592910 -1.617729 -1.635713
1  10000.0  0.001 -0.013646  0.811373  0.782830  0.776277  0.760366  0.758332  0.716963  0.725197  0.730780  0.698799  0.668266  0.684087  0.660715  0.647603  0.667323  0.639513  0.614795  0.604421  0.604950  0.598827  0.578727  0.608179  0.561972  0.544938  0.547360  0.505442  0.530425  0.501822  0.499223  0.479309  0.473805  0.462486  0.441237  0.414851  0.432772  0.446278  0.441969  0.402268  0.389869  0.376495  0.402898  0.364447  0.356092  0.343632  0.338983  0.329947  0.315829  0.292216  0.315216  0.299163  0.309296  0.266354  0.271760  0.272092  0.243149  0.234720  0.246109  0.248489  0.223278  0.226951  0.211185  0.226087  0.193768  0.173645  0.186676  0.134626  0.180722  0.144448  0.145642  0.133502  0.108465  0.150745  0.094551  0.100590  0.133415  0.082370  0.109348  0.092306  0.074849  0.061542  0.025189  0.045399  0.046831  0.033779  0.049724  0.019735 -0.014791 -0.008124 -0.022301  0.007769 -0.016202 -0.020111  0.004359 -0.033134 -0.051948 -0.012963 -0.058085 -0.051661 -0.038421 -0.074864 -0.062690 -0.057422 -0.099027 -0.087122 -0.081829 -0.061268 -0.079606 -0.118436 -0.138724 -0.107854 -0.103285 -0.148443 -0.164821 -0.162825 -0.187239 -0.169951 -0.199922 -0.149642 -0.195558 -0.178068 -0.167445 -0.169259 -0.204782 -0.199679 -0.224569 -0.230553 -0.205791 -0.223688 -0.241622 -0.239033 -0.266270 -0.231294 -0.250572 -0.279425 -0.270822 -0.256837 -0.301508 -0.273094 -0.300274 -0.304665 -0.290863 -0.274894 -0.318697 -0.325560 -0.300524 -0.301128 -0.326953 -0.342118 -0.308678 -0.341530 -0.339104 -0.355209 -0.354787 -0.348472 -0.350394 -0.355867 -0.380192 -0.394405 -0.377337 -0.385935 -0.417607 -0.370260 -0.389417 -0.384981 -0.405520 -0.430853 -0.397470 -0.406702 -0.417057 -0.424586 -0.454346 -0.417519 -0.473581 -0.488729 -0.458853 -0.462987 -0.468497 -0.471718 -0.465030 -0.465874 -0.469806 -0.466604 -0.509626 -0.494447 -0.518678 -0.525091 -0.522179 -0.501270 -0.498634 -0.520760 -0.526927 -0.533492 -0.521889 -0.538573 -0.547960 -0.569134 -0.545031 -0.575752 -0.575817 -0.566661 -0.621837
2  10000.0  0.010 -0.003199  0.534089  0.533111  0.514610  0.494345  0.473079  0.458936  0.455175  0.428072  0.419460  0.412944  0.392864  0.382849  0.361885  0.355174  0.347878  0.325097  0.310719  0.301622  0.269110  0.285274  0.260807  0.253547  0.239414  0.234545  0.229405  0.208568  0.200408  0.191888  0.189482  0.179881  0.165809  0.163819  0.146217  0.137188  0.130909  0.115202  0.106103  0.095003  0.099293  0.102272  0.087044  0.076740  0.049584  0.067830  0.051939  0.049667  0.040435  0.035416  0.020471  0.032019  0.004739  0.002530  0.002799 -0.011222 -0.013816 -0.011479 -0.025995 -0.024943 -0.029812 -0.033448 -0.048120 -0.044138 -0.043055 -0.060346 -0.059000 -0.050871 -0.052847 -0.066623 -0.062745 -0.075810 -0.075441 -0.076256 -0.083492 -0.072922 -0.087063 -0.087650 -0.082737 -0.098411 -0.094997 -0.095371 -0.111501 -0.104940 -0.090114 -0.105275 -0.114641 -0.109726 -0.120755 -0.121844 -0.110143 -0.112922 -0.122394 -0.117374 -0.130539 -0.114237 -0.119191 -0.135010 -0.124429 -0.129838 -0.117089 -0.134634 -0.124479 -0.113993 -0.120940 -0.123720 -0.120468 -0.128143 -0.123274 -0.132754 -0.125226 -0.137624 -0.126102 -0.124595 -0.118636 -0.128070 -0.121476 -0.121060 -0.127890 -0.118322 -0.115876 -0.124593 -0.123548 -0.111353 -0.127661 -0.120600 -0.115666 -0.106453 -0.121955 -0.112814 -0.126090 -0.111085 -0.115977 -0.114176 -0.111362 -0.109903 -0.109569 -0.113951 -0.106195 -0.098619 -0.113200 -0.106025 -0.116232 -0.106984 -0.103646 -0.097575 -0.101506 -0.101543 -0.101908 -0.087027 -0.097286 -0.098110 -0.096928 -0.084375 -0.080791 -0.086124 -0.088155 -0.082308 -0.085477 -0.090002 -0.078964 -0.084264 -0.075818 -0.078919 -0.067144 -0.082094 -0.081316 -0.061981 -0.072206 -0.076119 -0.075473 -0.066801 -0.071765 -0.054329 -0.067078 -0.056055 -0.057733 -0.053429 -0.046459 -0.061970 -0.050691 -0.056414 -0.050744 -0.052954 -0.053316 -0.039875 -0.047068 -0.051718 -0.041293 -0.035191 -0.049503 -0.037719 -0.036922 -0.040047 -0.029886 -0.051691 -0.039173 -0.020267 -0.037751 -0.031368 -0.036155 -0.032851
3  10000.0  0.100 -0.000927  0.598631  0.567488  0.535791  0.509587  0.479061  0.451987  0.423437  0.400413  0.373015  0.348100  0.329300  0.301663  0.284356  0.261085  0.242247  0.223509  0.203639  0.179464  0.164160  0.146846  0.132309  0.114656  0.107816  0.084619  0.075723  0.063562  0.042001  0.032522  0.023454  0.012584  0.001213 -0.014030 -0.019113 -0.026307 -0.033882 -0.040034 -0.048743 -0.055546 -0.064067 -0.068220 -0.079869 -0.082032 -0.086482 -0.095853 -0.093647 -0.099203 -0.106648 -0.101787 -0.106507 -0.119770 -0.106524 -0.118600 -0.117075 -0.118980 -0.128435 -0.119403 -0.121674 -0.120643 -0.127253 -0.122418 -0.124066 -0.126153 -0.122322 -0.120272 -0.124544 -0.124610 -0.123629 -0.123135 -0.118625 -0.116996 -0.113475 -0.122456 -0.117717 -0.115829 -0.111689 -0.112730 -0.113365 -0.111762 -0.110545 -0.105410 -0.101265 -0.096496 -0.101269 -0.095383 -0.098105 -0.095572 -0.088800 -0.089848 -0.087500 -0.085307 -0.084815 -0.086010 -0.075711 -0.079069 -0.078441 -0.072597 -0.074307 -0.078391 -0.067980 -0.068830 -0.074860 -0.062814 -0.065018 -0.060725 -0.060440 -0.056985 -0.054871 -0.053948 -0.054602 -0.052483 -0.049072 -0.043641 -0.039818 -0.049057 -0.043403 -0.036702 -0.039910 -0.041503 -0.038584 -0.032830 -0.030772 -0.030908 -0.031854 -0.025139 -0.018811 -0.020267 -0.023172 -0.027582 -0.021387 -0.020295 -0.022772 -0.021914 -0.015992 -0.014939 -0.014018 -0.016169 -0.003960 -0.015211 -0.013578 -0.013760 -0.013786 -0.007619 -0.006859 -0.004167 -0.007153 -0.001198 -0.008802 -0.005032 -0.006102 -0.003403 -0.001536 -0.009018  0.002446 -0.000475 -0.004473 -0.002667  0.002968 -0.000022 -0.001567  0.001918 -0.001876  0.004207  0.003863  0.007989  0.003939  0.004955  0.000292  0.001342  0.003240  0.005137  0.002129  0.006176  0.006171  0.004582  0.002965  0.006741  0.006576  0.004087  0.006810  0.005077  0.007034  0.010573  0.008071  0.005513  0.007400  0.006650  0.005097  0.002930  0.005339  0.002080  0.000804  0.009025  0.004715  0.005257  0.000822  0.007166  0.009877  0.006079  0.004604  0.005060
4  10000.0  0.200 -0.000807  0.623113  0.589123  0.555783  0.515427  0.483070  0.448070  0.415544  0.388136  0.354527  0.328206  0.302488  0.280068  0.252430  0.225251  0.201449  0.180940  0.162371  0.137642  0.122958  0.099841  0.086539  0.070855  0.052251  0.041155  0.023357  0.010203 -0.001489 -0.008662 -0.021965 -0.036246 -0.041753 -0.045458 -0.058982 -0.064972 -0.074404 -0.078476 -0.087381 -0.091706 -0.094863 -0.100417 -0.104361 -0.108514 -0.119564 -0.115171 -0.120135 -0.127841 -0.122487 -0.121479 -0.126527 -0.129172 -0.127256 -0.130951 -0.135443 -0.129285 -0.130083 -0.127753 -0.133217 -0.127926 -0.125433 -0.128573 -0.129155 -0.121883 -0.120031 -0.122407 -0.115620 -0.119091 -0.114192 -0.110530 -0.108345 -0.109619 -0.104305 -0.107844 -0.101964 -0.099982 -0.094026 -0.092355 -0.089671 -0.091137 -0.088487 -0.085131 -0.081606 -0.085353 -0.075329 -0.075844 -0.074218 -0.069879 -0.070521 -0.068687 -0.062560 -0.061031 -0.061378 -0.064494 -0.054475 -0.054139 -0.051926 -0.048918 -0.046636 -0.051270 -0.047015 -0.041493 -0.039292 -0.039154 -0.037850 -0.038248 -0.037970 -0.033372 -0.032944 -0.029295 -0.026539 -0.023636 -0.025817 -0.022896 -0.023912 -0.021736 -0.020770 -0.020684 -0.015571 -0.013435 -0.011755 -0.010523 -0.012237 -0.012369 -0.007665 -0.010749 -0.002364 -0.005245 -0.004412 -0.004293 -0.005707 -0.005813 -0.004538 -0.001351 -0.002270 -0.004191  0.000374 -0.001094  0.001807 -0.001085  0.001663  0.002710  0.004799  0.004705  0.004185  0.004234  0.007615  0.007491  0.004459  0.009638  0.001236  0.006371  0.003192  0.007151  0.007662  0.001768  0.004527  0.008951  0.006110  0.010366  0.005115  0.010459  0.007564  0.006487  0.006645  0.009930  0.005050  0.003694  0.005601  0.005498  0.008941  0.006815  0.008818 -0.000026  0.003213 -0.000172  0.002940  0.000182  0.001402  0.006271  0.002610  0.000341  0.004327  0.001542  0.000602 -0.000737  0.003377 -0.001864 -0.002285  0.003583  0.000873 -0.002281 -0.002351 -0.000929 -0.001294 -0.005548 -0.007621 -0.005702 -0.010989 -0.007677 -0.008434 -0.005813
5  10000.0  1.000 -0.000561  0.731378  0.671626  0.616910  0.558288  0.509416  0.457478  0.411348  0.366906  0.322379  0.280508  0.244981  0.205988  0.174910  0.142702  0.115411  0.087017  0.058612  0.031863  0.014074 -0.004603 -0.024539 -0.041829 -0.056692 -0.071586 -0.082511 -0.095734 -0.107095 -0.113691 -0.124725 -0.129509 -0.139142 -0.141238 -0.143246 -0.151155 -0.149431 -0.153706 -0.152435 -0.156152 -0.153710 -0.154408 -0.156833 -0.151377 -0.148389 -0.147293 -0.146526 -0.141267 -0.144241 -0.139155 -0.137075 -0.133602 -0.128153 -0.123031 -0.120104 -0.116708 -0.113750 -0.107265 -0.107720 -0.098495 -0.098236 -0.091339 -0.086985 -0.084663 -0.082893 -0.081974 -0.077515 -0.069251 -0.070644 -0.063456 -0.057062 -0.056825 -0.054181 -0.049274 -0.046899 -0.042681 -0.040097 -0.036124 -0.036611 -0.035467 -0.028560 -0.027191 -0.021892 -0.025573 -0.021343 -0.017521 -0.016344 -0.016070 -0.013022 -0.013658 -0.011870 -0.011476 -0.008812 -0.009267 -0.008145 -0.007777 -0.004899 -0.005455 -0.005203  0.002555 -0.000410 -0.002327  0.002651  0.001834 -0.000614 -0.000740  0.003112  0.002470  0.004622  0.003178  0.002010  0.003144  0.005116  0.003818  0.002988  0.003108  0.001709  0.006662  0.003938  0.004207  0.002952  0.004899  0.002850  0.004156  0.003233  0.004455  0.005149  0.004816  0.003574  0.005043  0.003208  0.003645  0.001545  0.000416  0.000802  0.003869  0.007206  0.001788  0.006067  0.004181  0.001261  0.002608  0.000812  0.001628  0.003385  0.003137  0.004438  0.001382  0.002841  0.002677  0.000550  0.004656  0.002682  0.000216  0.001928 -0.000006  0.002453  0.001434  0.001364  0.000617  0.000817  0.001106  0.002765 -0.001149 -0.002252  0.000305 -0.002111 -0.001823 -0.000622  0.002703 -0.000918 -0.001032  0.000046 -0.000238 -0.002474 -0.000763 -0.000453  0.001138 -0.001014 -0.000691 -0.003164 -0.001466 -0.003295 -0.001059 -0.000894 -0.000234  0.001958 -0.002626 -0.001870  0.000252 -0.001375 -0.003561 -0.002291 -0.005294 -0.003103 -0.002168  0.000469  0.000165 -0.000049 -0.001278  0.000916  0.000151
6  10000.0  2.000 -0.000348  0.778594  0.702981  0.635532  0.569812  0.507544  0.449648  0.389961  0.338520  0.286226  0.242327  0.200590  0.156565  0.123084  0.086289  0.055569  0.028356  0.001164 -0.019350 -0.041848 -0.062479 -0.082032 -0.097001 -0.109467 -0.121091 -0.131148 -0.144093 -0.145232 -0.148797 -0.156720 -0.157253 -0.161207 -0.163608 -0.162863 -0.162356 -0.162820 -0.161760 -0.163862 -0.157048 -0.155412 -0.156375 -0.148660 -0.143925 -0.143638 -0.138700 -0.131142 -0.125183 -0.123663 -0.116193 -0.115749 -0.107163 -0.101861 -0.096046 -0.093962 -0.087445 -0.088250 -0.080219 -0.075451 -0.070047 -0.067823 -0.062165 -0.059767 -0.053826 -0.047952 -0.045989 -0.044592 -0.044565 -0.034823 -0.033755 -0.030503 -0.027487 -0.025214 -0.023076 -0.017989 -0.018277 -0.018086 -0.012109 -0.011632 -0.010804 -0.007739 -0.008928 -0.006101 -0.002892 -0.003850 -0.001603 -0.003241 -0.004001 -0.000477  0.000334  0.000355  0.001241  0.002338  0.002393  0.002246  0.004735  0.002311  0.003985  0.003587  0.003308  0.006758  0.005121  0.003125  0.005636  0.002138  0.004740  0.003275  0.003794  0.001732  0.003934  0.001998  0.006737  0.002249  0.003742  0.000721  0.001509  0.003640  0.003747  0.003665  0.005647  0.001911  0.003841  0.001544  0.002062  0.004263  0.001490  0.001056  0.000216  0.002694  0.003367  0.001029  0.004437  0.000207  0.001593  0.000561  0.003127  0.002346  0.003401 -0.002432  0.000676 -0.000615  0.002613 -0.003256  0.000622 -0.000662  0.002307 -0.000074  0.005079 -0.003190  0.001280  0.001967 -0.000283  0.003076 -0.000738 -0.001389 -0.002331  0.001655  0.000931 -0.001703 -0.000414  0.000598  0.003185  0.002154  0.000284 -0.002326  0.000234  0.002300 -0.000128  0.003687 -0.001809 -0.000937  0.000121 -0.004352 -0.001812 -0.001442 -0.002458 -0.001023 -0.002893 -0.003268 -0.003978 -0.004074 -0.003135 -0.004834 -0.004562 -0.000885 -0.002240  0.000906 -0.001977 -0.003085  0.000519 -0.000286 -0.000999 -0.000422 -0.000741 -0.000845  0.001729 -0.000883  0.000508  0.003055  0.002418  0.002998  0.005744