       Lambda  D_rot  T_eff      bias   w0        w1        w2        w3        w4        w5        w6        w7        w8        w9       w10       w11       w12       w13       w14       w15       w16       w17       w18       w19       w20       w21       w22       w23       w24       w25       w26       w27       w28       w29       w30       w31       w32       w33       w34       w35       w36       w37       w38       w39       w40       w41       w42       w43       w44       w45       w46       w47       w48       w49       w50       w51       w52       w53       w54       w55       w56       w57       w58       w59       w60       w61       w62       w63       w64       w65       w66       w67       w68       w69       w70       w71       w72       w73       w74       w75       w76       w77       w78       w79       w80       w81       w82       w83       w84       w85       w86       w87       w88       w89       w90       w91       w92       w93       w94       w95       w96       w97       w98       w99      w100      w101      w102      w103      w104      w105      w106      w107      w108      w109      w110      w111      w112      w113      w114      w115      w116      w117      w118      w119      w120      w121      w122      w123      w124      w125      w126      w127      w128      w129      w130      w131      w132      w133      w134      w135      w136      w137      w138      w139      w140      w141      w142      w143      w144      w145      w146      w147      w148      w149      w150      w151      w152      w153      w154      w155      w156      w157      w158      w159      w160      w161      w162      w163      w164      w165      w166      w167      w168      w169      w170      w171      w172      w173      w174      w175      w176      w177      w178      w179      w180      w181      w182      w183      w184      w185      w186      w187      w188      w189      w190      w191      w192      w193      w194      w195      w196      w197      w198      w199
0  lambda_inf  0.000   2.00 -0.020909  1.0  0.989562  0.979115  0.968657  0.958190  0.947714  0.937228  0.926734  0.916232  0.905721  0.895202  0.884676  0.874142  0.863601  0.853053  0.842499  0.831938  0.821371  0.810798  0.800220  0.789636  0.779047  0.768454  0.757856  0.747254  0.736648  0.726038  0.715425  0.704808  0.694189  0.683567  0.672943  0.662317  0.651689  0.641059  0.630428  0.619796  0.609163  0.598530  0.587897  0.577264  0.566631  0.555998  0.545367  0.534736  0.524107  0.513480  0.502854  0.492231  0.481610  0.470992  0.460377  0.449765  0.439156  0.428552  0.417951  0.407355  0.396763  0.386176  0.375594  0.365017  0.354446  0.343881  0.333322  0.322770  0.312224  0.301684  0.291152  0.280628  0.270111  0.259602  0.249101  0.238608  0.228124  0.217649  0.207184  0.196727  0.186281  0.175844  0.165417  0.155001  0.144596  0.134201  0.123818  0.113446  0.103085  0.092737  0.082401  0.072077  0.061765  0.051467  0.041182  0.030910  0.020651  0.010407  0.000176 -0.010040 -0.020242 -0.030429 -0.040601 -0.050758 -0.060899 -0.071025 -0.081134 -0.091228 -0.101305 -0.111366 -0.121410 -0.131437 -0.141446 -0.151438 -0.161412 -0.171369 -0.181307 -0.191227 -0.201129 -0.211011 -0.220875 -0.230719 -0.240544 -0.250349 -0.260135 -0.269900 -0.279645 -0.289370 -0.299074 -0.308757 -0.318419 -0.328060 -0.337679 -0.347277 -0.356853 -0.366406 -0.375938 -0.385447 -0.394933 -0.404396 -0.413837 -0.423254 -0.432648 -0.442018 -0.451364 -0.460687 -0.469985 -0.479259 -0.488509 -0.497734 -0.506934 -0.516108 -0.525258 -0.534383 -0.543481 -0.552554 -0.561602 -0.570623 -0.579618 -0.588586 -0.597528 -0.606444 -0.615332 -0.624193 -0.633028 -0.641834 -0.650614 -0.659366 -0.668090 -0.676786 -0.685453 -0.694093 -0.702704 -0.711287 -0.719841 -0.728366 -0.736863 -0.745330 -0.753768 -0.762176 -0.770556 -0.778905 -0.787225 -0.795514 -0.803774 -0.812004 -0.820203 -0.828372 -0.836511 -0.844618 -0.852696 -0.860742 -0.868757 -0.876741 -0.884694 -0.892615 -0.900505 -0.908364 -0.916191 -0.923986 -0.931749 -0.939480 -0.947180
1  lambda_inf  0.001   1.46 -0.000836  1.0  0.952034  0.905405  0.859956  0.815378  0.771871  0.729601  0.688048  0.647662  0.608070  0.569479  0.532175  0.496081  0.461268  0.427399  0.394515  0.362859  0.332223  0.302780  0.274339  0.246788  0.220172  0.194847  0.170808  0.147506  0.125285  0.104064  0.083890  0.064475  0.045813  0.027818  0.010630 -0.005927 -0.021763 -0.036773 -0.050933 -0.064236 -0.076975 -0.088949 -0.100428 -0.111357 -0.121593 -0.131338 -0.140444 -0.149164 -0.157432 -0.165227 -0.172747 -0.180037 -0.187047 -0.193327 -0.199402 -0.204836 -0.209437 -0.213825 -0.217659 -0.221306 -0.224488 -0.226993 -0.229285 -0.230732 -0.231618 -0.231812 -0.232045 -0.231979 -0.231456 -0.230678 -0.229774 -0.228971 -0.228248 -0.226976 -0.225793 -0.224497 -0.223149 -0.221455 -0.219444 -0.217417 -0.215330 -0.213094 -0.210643 -0.208321 -0.205739 -0.203131 -0.200387 -0.197526 -0.194458 -0.191393 -0.188250 -0.185090 -0.182022 -0.178703 -0.175029 -0.171199 -0.167460 -0.163505 -0.159483 -0.155511 -0.151406 -0.147100 -0.143049 -0.138996 -0.134750 -0.130434 -0.126530 -0.122750 -0.119298 -0.116066 -0.112622 -0.108705 -0.104912 -0.101022 -0.097177 -0.093423 -0.090166 -0.087026 -0.083830 -0.080402 -0.077097 -0.073750 -0.070477 -0.067300 -0.064374 -0.061212 -0.058198 -0.055136 -0.052436 -0.050017 -0.047756 -0.045655 -0.043841 -0.041932 -0.040167 -0.038423 -0.036673 -0.034823 -0.033030 -0.031021 -0.029097 -0.027130 -0.025180 -0.022973 -0.020694 -0.018254 -0.015941 -0.013546 -0.011363 -0.009054 -0.006621 -0.004080 -0.001686  0.000497  0.002491  0.004154  0.005645  0.007053  0.008640  0.010346  0.012021  0.013567  0.014669  0.015913  0.017366  0.019069  0.020741  0.022621  0.024207  0.025677  0.027011  0.028484  0.029652  0.030621  0.031565  0.032431  0.033525  0.034493  0.035293  0.036142  0.037196  0.038196  0.039179  0.039970  0.040482  0.040909  0.041329  0.041714  0.041969  0.042100  0.042477  0.042756  0.042971  0.043066  0.043150  0.043353  0.043721  0.043788  0.043884  0.043923  0.043984  0.044439  0.045043
2  lambda_inf  0.010   0.59 -0.000090  1.0  0.883909  0.775124  0.672513  0.576573  0.486749  0.402959  0.325819  0.254723  0.190626  0.132549  0.080273  0.032283 -0.010578 -0.048621 -0.081970 -0.111443 -0.137283 -0.159617 -0.179319 -0.195580 -0.208913 -0.219451 -0.227568 -0.233149 -0.235731 -0.236948 -0.235732 -0.232419 -0.227916 -0.222148 -0.215335 -0.207982 -0.199916 -0.191325 -0.182775 -0.174333 -0.165937 -0.157030 -0.149229 -0.140957 -0.131966 -0.122599 -0.112742 -0.102564 -0.092756 -0.083029 -0.073982 -0.066101 -0.058314 -0.051254 -0.044637 -0.038576 -0.032084 -0.026425 -0.020965 -0.016352 -0.012352 -0.009897 -0.007402 -0.004707 -0.001834  0.000801  0.002677  0.004147  0.006435  0.008885  0.010949  0.013969  0.016053  0.018558  0.019771  0.019995  0.020251  0.020910  0.021408  0.021869  0.021242  0.021068  0.019829  0.018235  0.016872  0.015016  0.013185  0.011986  0.011029  0.009860  0.008996  0.008108  0.007334  0.005890  0.004120  0.003064  0.002368  0.001433  0.000312 -0.001081 -0.002104 -0.003723 -0.004962 -0.006323 -0.006754 -0.006867 -0.007701 -0.008118 -0.008627 -0.009054 -0.009308 -0.009404 -0.008843 -0.007905 -0.007457 -0.006844 -0.006675 -0.007040 -0.007230 -0.007216 -0.006892 -0.006858 -0.007187 -0.007004 -0.007232 -0.007604 -0.007456 -0.006487 -0.005841 -0.005509 -0.005480 -0.005577 -0.005609 -0.005779 -0.006071 -0.006508 -0.007236 -0.007457 -0.007915 -0.008373 -0.008280 -0.007763 -0.007320 -0.006818 -0.006089 -0.004613 -0.003697 -0.002626 -0.000610  0.001383  0.003958  0.006501  0.008750  0.010475  0.012108  0.013182  0.013230  0.012872  0.012364  0.011410  0.010421  0.009352  0.008346  0.007637  0.007256  0.006963  0.006822  0.006192  0.005814  0.006329  0.007125  0.007927  0.009052  0.009828  0.010803  0.011655  0.012146  0.012144  0.011652  0.010784  0.009914  0.009003  0.008425  0.006933  0.005525  0.003861  0.002111  0.000494 -0.000447 -0.001038 -0.001667 -0.002493 -0.004184 -0.005879 -0.007672 -0.009474 -0.010979 -0.012416 -0.014302 -0.015910 -0.017867 -0.019405 -0.020931
3  lambda_inf  0.100   0.28 -0.000012  1.0  0.747971  0.530716  0.346444  0.190962  0.062460 -0.039851 -0.117664 -0.176777 -0.216684 -0.241326 -0.252598 -0.253987 -0.248394 -0.237660 -0.221020 -0.200476 -0.177827 -0.153804 -0.131042 -0.109934 -0.090078 -0.071900 -0.054773 -0.038819 -0.025476 -0.013359 -0.003692  0.005236  0.011215  0.015691  0.018977  0.021599  0.021431  0.020063  0.017853  0.016445  0.014885  0.013687  0.011510  0.010413  0.009808  0.008543  0.005235  0.001590 -0.001029 -0.002783 -0.005753 -0.008337 -0.008909 -0.006916 -0.006271 -0.007045 -0.005714 -0.004585 -0.002844 -0.000147  0.002340  0.003500  0.003726  0.003236  0.001975  0.002441  0.003973  0.006055  0.007975  0.008100  0.005628  0.004750  0.004064  0.002605  0.000350  0.000110  0.000501  0.000331  0.000487  0.000614  0.000997  0.002337  0.003491  0.002049  0.002027  0.001820  0.001011  0.000367  0.000300  0.000197 -0.001806 -0.002407 -0.001868 -0.004618 -0.004879 -0.005078 -0.004091 -0.002814 -0.001664 -0.001558 -0.002374 -0.004183 -0.005443 -0.006783 -0.008930 -0.010774 -0.011544 -0.012060 -0.010841 -0.009190 -0.006914 -0.003035  0.001619  0.005091  0.006577  0.007827  0.008754  0.008939  0.009098  0.009186  0.007464  0.007557  0.007308  0.007143  0.006175  0.004230  0.002835  0.002350  0.001740  0.001184  0.001507  0.002139  0.003069  0.003321  0.003785  0.003841  0.002657  0.000667 -0.001150 -0.003009 -0.004095 -0.005684 -0.006359 -0.006909 -0.007390 -0.007806 -0.006258 -0.005004 -0.003640 -0.002174 -0.002104  0.000172  0.000767  0.001359  0.003157  0.003940  0.004546  0.003887  0.003084  0.002862  0.001818  0.001240  0.000293 -0.000519 -0.001301 -0.001284 -0.002308 -0.003445 -0.003765 -0.003411 -0.002738 -0.002486 -0.003582 -0.002592 -0.002601 -0.002036 -0.000720  0.002198  0.004552  0.006417  0.006407  0.006385  0.006097  0.005419  0.004440  0.002962  0.001230 -0.000343 -0.002544 -0.003480 -0.004600 -0.004744 -0.004689 -0.004461 -0.004336 -0.004295 -0.003451 -0.002594 -0.001469  0.000366  0.002407  0.004562  0.006535
4  lambda_inf  0.200   0.22 -0.000007  1.0  0.678142  0.413336  0.202608  0.040542 -0.080316 -0.162953 -0.216290 -0.246277 -0.255253 -0.250796 -0.235812 -0.213226 -0.186599 -0.161063 -0.133798 -0.105943 -0.080949 -0.056783 -0.036704 -0.020559 -0.008907 -0.002102  0.003728  0.005906  0.007848  0.009479  0.010385  0.011415  0.011606  0.010858  0.009534  0.006838  0.006066  0.007364  0.005521  0.005055  0.003026  0.002940  0.002957  0.002945  0.004992  0.006215  0.004968  0.004049  0.004438  0.003625  0.000791 -0.001519 -0.004376 -0.003685 -0.004222 -0.005639 -0.006017 -0.006819 -0.007492 -0.005723 -0.004413 -0.003485 -0.002431 -0.000815  0.000260  0.001455  0.001458  0.002707  0.002864  0.003236  0.003863  0.004290  0.005233  0.005557  0.003186  0.004089  0.004233  0.002822  0.002615  0.001093 -0.000261 -0.000757 -0.001726  0.000328  0.001450  0.001055  0.001273 -0.001180 -0.003404 -0.005233 -0.005192 -0.003910 -0.002261 -0.002855 -0.002600 -0.003594 -0.002511 -0.000902  0.000915  0.001159  0.001256  0.000961  0.001781  0.002860  0.001938 -0.000547 -0.001805 -0.000864 -0.000118 -0.000185 -0.000739 -0.000044 -0.000451 -0.000093 -0.000855 -0.002442 -0.003807 -0.003876 -0.002988 -0.001599 -0.002633 -0.002701 -0.001103  0.001370  0.001163  0.001902  0.002402  0.002110  0.001713  0.001515  0.002837  0.005166  0.005062  0.003837  0.001761 -0.000277 -0.002981 -0.005077 -0.005625 -0.006708 -0.005850 -0.003161 -0.000133  0.001219  0.003081  0.003842  0.003604  0.003244  0.002921  0.002063  0.001602  0.001657  0.001896  0.001662  0.000678 -0.001116 -0.001825 -0.000675 -0.000550  0.001065  0.001158 -0.000090 -0.001550 -0.001313 -0.001225 -0.000994 -0.001633 -0.002097 -0.003008 -0.001597 -0.000977 -0.000473  0.000519  0.001495  0.001664  0.002330  0.004685  0.005413  0.003592  0.002006  0.000279 -0.001793 -0.003255 -0.002704 -0.001241 -0.000416 -0.000402  0.000720  0.001863  0.003284  0.003841  0.003830  0.003450  0.003274  0.001904 -0.000517 -0.001637 -0.001534 -0.001850 -0.003643 -0.004812 -0.004972 -0.005374
5  lambda_inf  1.000   0.14 -0.000004  1.0  0.459531  0.094281 -0.128546 -0.241645 -0.277929 -0.264299 -0.225096 -0.177595 -0.129228 -0.085913 -0.048980 -0.024651 -0.009233  0.000075  0.004723  0.005829  0.008651  0.012483  0.011951  0.008058  0.006255  0.003578  0.001466 -0.000207 -0.000211  0.001501  0.000448 -0.000042 -0.001633 -0.002385 -0.002909 -0.003737 -0.000431  0.001935  0.003802  0.002454  0.001922  0.001390 -0.000402 -0.003300 -0.005135 -0.004954 -0.005495 -0.003494  0.000891  0.003163  0.004555  0.005725  0.004202  0.003192  0.002929  0.001671  0.000292 -0.000888 -0.000294  0.000406 -0.000164 -0.000576  0.000372 -0.001082 -0.001410 -0.002669 -0.003506 -0.002529  0.000560  0.003446  0.003346  0.001461  0.000322  0.001071 -0.000025 -0.002202 -0.003845 -0.005881 -0.005572 -0.006157 -0.007198 -0.003342  0.000433  0.004843  0.007644  0.009408  0.008312  0.003737  0.002450  0.000224 -0.003126 -0.002896 -0.001069  0.001914  0.003546  0.002972  0.002577  0.000604 -0.000903 -0.003099 -0.003661 -0.003499 -0.002579 -0.000979 -0.001969 -0.003709 -0.000979  0.000530  0.002680  0.003128  0.002404  0.001725  0.001015  0.000960 -0.000624 -0.002472 -0.001373 -0.000521 -0.000388  0.001400  0.000834 -0.000436 -0.000454  0.000193  0.000506 -0.000777 -0.002316 -0.002329 -0.003903 -0.002370 -0.001307 -0.000288  0.002298  0.002767  0.005303  0.005403  0.003189  0.002127  0.000219 -0.001748 -0.002335 -0.000912 -0.000603 -0.003665 -0.003641 -0.002079 -0.001921 -0.002168  0.000505  0.000881  0.000207 -0.000762 -0.001869 -0.002241 -0.001356 -0.000006  0.002650  0.003913  0.003114  0.003532  0.002852  0.001498  0.001734  0.001777  0.002890  0.002807 -0.000323 -0.002611 -0.003326 -0.001987 -0.003340 -0.002729 -0.003859 -0.003882 -0.001652  0.000400  0.001327  0.002548  0.003730  0.005079  0.005886  0.003680 -0.001474 -0.002904 -0.001878 -0.002209 -0.003850 -0.003882 -0.002767  0.000586  0.001751  0.002241 -0.000085 -0.002527 -0.003182 -0.002394 -0.001505  0.001877  0.005614  0.005254  0.004405 -0.000577 -0.005813
6  lambda_inf  2.000   0.12 -0.000003  1.0  0.335515 -0.053166 -0.234589 -0.290095 -0.271244 -0.214730 -0.151860 -0.096849 -0.049526 -0.019017  0.001020  0.010238  0.010952  0.006041  0.000754 -0.001524 -0.002117  0.002733  0.002405  0.005512  0.006895  0.004958  0.002796 -0.000416 -0.000252 -0.000431  0.000279  0.001748 -0.001104 -0.001909 -0.002511 -0.001458 -0.000743 -0.001962 -0.001694  0.000617  0.002020  0.000975  0.000439  0.002189  0.001948  0.001127 -0.000072 -0.002924 -0.005378 -0.003542  0.000728  0.002778  0.002234  0.002936  0.002176  0.000023  0.000325  0.001508  0.001958  0.001419 -0.000465  0.000655  0.000232 -0.000746 -0.002747 -0.005168 -0.002405 -0.000482  0.000918  0.003965  0.002425 -0.003409 -0.003154 -0.002249 -0.003033 -0.002901 -0.001181  0.001377  0.003548  0.004203  0.003342  0.001818  0.000456  0.001356  0.001639 -0.001076 -0.000818 -0.001677 -0.000911  0.000480 -0.002199 -0.000291  0.001431 -0.000030  0.001416  0.003719  0.001567 -0.002319 -0.003750 -0.003480 -0.002488 -0.000918  0.001661  0.001964  0.000829  0.001083  0.000508  0.000957  0.000702  0.000969  0.000304 -0.000718 -0.001098 -0.000518 -0.000288  0.001073  0.002143  0.000639 -0.002282 -0.002119 -0.001812 -0.001690 -0.002259 -0.001294 -0.000981 -0.001256  0.000120  0.001262  0.003286  0.004177  0.003556  0.000519  0.000801  0.001124  0.002004  0.000399 -0.000355 -0.002230  0.000815  0.000324 -0.001533 -0.004161 -0.004097 -0.004599 -0.001363  0.003047  0.004111  0.003362  0.002947 -0.000341 -0.003381 -0.001417 -0.002714 -0.004892 -0.004358 -0.003999 -0.000035  0.004213  0.004507  0.004460  0.005065  0.006454  0.004911  0.000449 -0.003720 -0.005917 -0.004415 -0.002129  0.000024  0.002368  0.004182  0.001393 -0.000203  0.000579 -0.000810 -0.001711  0.000307 -0.000665 -0.002070 -0.001339  0.001185  0.000279 -0.000130 -0.000044 -0.000238 -0.000466 -0.002629 -0.004391 -0.002453  0.001017  0.005281  0.004104  0.002458 -0.000527 -0.002274 -0.005947 -0.006442  0.000147  0.005631  0.003865  0.002690  0.001091 -0.002333