     Lambda  D_rot      bias        w0        w1        w2        w3        w4        w5        w6        w7        w8        w9       w10       w11       w12       w13       w14       w15       w16       w17       w18       w19       w20       w21       w22       w23       w24       w25       w26       w27       w28       w29       w30       w31       w32       w33       w34       w35       w36       w37       w38       w39       w40       w41       w42       w43       w44       w45       w46       w47       w48       w49       w50       w51       w52       w53       w54       w55       w56       w57       w58       w59       w60       w61       w62       w63       w64       w65       w66       w67       w68       w69       w70       w71       w72       w73       w74       w75       w76       w77       w78       w79       w80       w81       w82       w83       w84       w85       w86       w87       w88       w89       w90       w91       w92       w93       w94       w95       w96       w97       w98       w99      w100      w101      w102      w103      w104      w105      w106      w107      w108      w109      w110      w111      w112      w113      w114      w115      w116      w117      w118      w119      w120      w121      w122      w123      w124      w125      w126      w127      w128      w129      w130      w131      w132      w133      w134      w135      w136      w137      w138      w139      w140      w141      w142      w143      w144      w145      w146      w147      w148      w149      w150      w151      w152      w153      w154      w155      w156      w157      w158      w159      w160      w161      w162      w163      w164      w165      w166      w167      w168      w169      w170      w171      w172      w173      w174      w175      w176      w177      w178      w179      w180      w181      w182      w183      w184      w185      w186      w187      w188      w189      w190      w191      w192      w193      w194      w195      w196      w197      w198      w199
0  100000.0  0.000 -0.030646  1.412833  1.373237  1.456879  1.372756  1.397260  1.327259  1.324276  1.379647  1.254837  1.291609  1.278442  1.273475  1.236588  1.259586  1.217005  1.226011  1.173296  1.192889  1.218819  1.184899  1.151166  1.125659  1.195917  1.079780  1.116670  1.082649  1.092204  1.040169  0.986889  0.962145  0.995737  0.986876  0.998419  0.971624  0.938101  0.907906  0.872926  0.858855  0.848980  0.866904  0.792640  0.801991  0.836148  0.783059  0.778316  0.740647  0.740192  0.750016  0.750683  0.701145  0.685844  0.672619  0.636086  0.652577  0.658828  0.626991  0.586350  0.527470  0.615277  0.536071  0.522884  0.561295  0.517828  0.496142  0.484845  0.433162  0.461152  0.477559  0.408324  0.478398  0.318011  0.363608  0.334275  0.299758  0.308669  0.357731  0.298570  0.290101  0.271794  0.276891  0.310555  0.222896  0.213044  0.134374  0.175270  0.129480  0.210586  0.218165  0.095368  0.135405  0.068271  0.069144  0.080495 -0.044498  0.101051 -0.022738  0.036198 -0.030897 -0.064585 -0.004513 -0.077386 -0.014175 -0.061439 -0.112504 -0.165487 -0.110614 -0.214525 -0.125510 -0.233554 -0.229878 -0.196734 -0.158813 -0.253132 -0.224069 -0.251765 -0.323433 -0.273447 -0.337985 -0.350337 -0.321347 -0.341674 -0.390301 -0.394669 -0.389478 -0.394650 -0.449147 -0.447708 -0.463715 -0.481250 -0.487971 -0.516327 -0.483819 -0.571286 -0.545250 -0.511716 -0.589946 -0.569437 -0.596217 -0.573360 -0.675598 -0.635629 -0.650061 -0.669695 -0.702215 -0.680607 -0.642024 -0.702065 -0.722484 -0.747509 -0.725047 -0.787619 -0.762740 -0.840903 -0.810995 -0.806753 -0.818587 -0.873556 -0.856065 -0.876641 -0.860993 -0.875400 -0.928517 -0.977043 -0.956734 -0.971933 -0.915840 -1.030753 -0.999093 -1.053520 -1.069491 -1.046583 -1.083467 -1.046623 -1.129579 -1.114781 -1.157578 -1.137456 -1.131465 -1.176257 -1.141821 -1.111889 -1.240235 -1.207406 -1.263590 -1.231297 -1.268595 -1.227361 -1.281359 -1.285243 -1.236727 -1.331771 -1.313293 -1.273906 -1.383805 -1.364749 -1.328728 -1.368197 -1.334521 -1.441290 -1.407640
1  100000.0  0.001 -0.014589  2.229802  2.078243  2.142636  2.060015  2.064700  2.004886  1.908466  1.835082  1.733076  1.629102  1.651785  1.603706  1.546647  1.503197  1.362599  1.379795  1.322171  1.265571  1.277369  1.198942  1.121472  1.107134  1.116601  1.095486  0.953606  0.903855  0.889717  0.908480  0.782326  0.651116  0.767182  0.710224  0.645886  0.639162  0.586418  0.505119  0.443277  0.452584  0.446046  0.476292  0.377635  0.391529  0.365819  0.332797  0.223325  0.333945  0.196920  0.111239  0.078254 -0.009760  0.200128  0.015260  0.031738  0.008591  0.000833 -0.043269  0.000900 -0.117025 -0.025731 -0.102189 -0.133630 -0.161046 -0.127154 -0.145855 -0.192846 -0.276003 -0.189397 -0.286222 -0.156437 -0.265878 -0.296437 -0.261810 -0.231938 -0.337071 -0.269058 -0.382321 -0.282971 -0.293144 -0.350383 -0.341261 -0.344201 -0.472007 -0.409816 -0.346540 -0.320814 -0.434424 -0.502024 -0.458043 -0.352907 -0.468319 -0.388762 -0.461985 -0.468550 -0.529209 -0.542803 -0.465963 -0.474983 -0.391542 -0.520425 -0.523764 -0.514205 -0.490009 -0.518706 -0.475070 -0.465406 -0.453544 -0.588224 -0.475271 -0.503889 -0.538315 -0.494759 -0.496478 -0.486158 -0.437694 -0.541761 -0.511679 -0.513396 -0.505925 -0.566448 -0.489916 -0.465377 -0.619173 -0.499988 -0.540157 -0.523656 -0.550913 -0.507378 -0.492351 -0.667579 -0.501482 -0.504138 -0.572124 -0.535624 -0.376045 -0.506710 -0.478385 -0.479508 -0.456568 -0.340873 -0.543351 -0.451957 -0.473127 -0.481156 -0.399648 -0.356910 -0.412527 -0.453647 -0.459403 -0.361115 -0.385642 -0.500365 -0.427699 -0.406068 -0.359574 -0.457244 -0.412453 -0.428976 -0.431899 -0.341821 -0.451416 -0.453249 -0.404419 -0.404381 -0.421268 -0.412716 -0.375829 -0.292010 -0.416828 -0.286479 -0.348373 -0.320480 -0.303016 -0.274800 -0.340101 -0.380798 -0.296835 -0.321055 -0.242261 -0.309116 -0.280795 -0.306474 -0.260362 -0.232159 -0.240896 -0.185219 -0.225823 -0.242712 -0.360079 -0.227304 -0.258571 -0.161859 -0.210671 -0.301306 -0.333879 -0.298011 -0.244507 -0.227258 -0.175434 -0.240630 -0.131647
2  100000.0  0.010 -0.002467  2.368377  2.191861  2.120498  1.967144  1.867592  1.730906  1.637826  1.538770  1.453802  1.369995  1.277062  1.150684  1.099359  1.000721  0.905916  0.840449  0.769422  0.681230  0.632679  0.545641  0.481912  0.459589  0.379133  0.362981  0.236012  0.248608  0.182653  0.091345  0.122525 -0.001006  0.008703 -0.031114 -0.103037 -0.142923 -0.175082 -0.163997 -0.206524 -0.223731 -0.286670 -0.276832 -0.303768 -0.352967 -0.312596 -0.405655 -0.381969 -0.397384 -0.372474 -0.417354 -0.448338 -0.443736 -0.457159 -0.515276 -0.459895 -0.482054 -0.459603 -0.525078 -0.527108 -0.495268 -0.504047 -0.506773 -0.491737 -0.517094 -0.474235 -0.508838 -0.482902 -0.461521 -0.518632 -0.483981 -0.482252 -0.474993 -0.475906 -0.493980 -0.419278 -0.444236 -0.477776 -0.442340 -0.440661 -0.411145 -0.397997 -0.436161 -0.444880 -0.452910 -0.405580 -0.404032 -0.368425 -0.359422 -0.374834 -0.294332 -0.374077 -0.327616 -0.353598 -0.324472 -0.312307 -0.298903 -0.286416 -0.286127 -0.296832 -0.262202 -0.327399 -0.233624 -0.233922 -0.254949 -0.233905 -0.172458 -0.228430 -0.226306 -0.229138 -0.195248 -0.202376 -0.162486 -0.169434 -0.175055 -0.142221 -0.173359 -0.185627 -0.168404 -0.158815 -0.131984 -0.124685 -0.152973 -0.122791 -0.130574 -0.064003 -0.118978 -0.104110 -0.061946 -0.112640 -0.080195 -0.089601 -0.115861 -0.093017 -0.086178 -0.054449 -0.059516 -0.016251 -0.040628  0.013489 -0.057798 -0.006594 -0.059138 -0.063236 -0.048281 -0.028983 -0.024376 -0.014486 -0.038953  0.031622  0.005473  0.014695 -0.025166 -0.005624  0.001179  0.010626  0.042329  0.017269  0.043954 -0.006927  0.036042  0.030529  0.036534  0.053386  0.022548  0.036851  0.039771  0.018132  0.021253  0.045463  0.038807  0.063538  0.028861  0.081908  0.049022  0.033460  0.081674  0.037258  0.053927  0.073832  0.066948  0.009856  0.057051  0.035892  0.034457  0.049050 -0.013805 -0.007892  0.019734  0.061361  0.033559  0.053257  0.040280  0.035940  0.023451  0.028636  0.033614  0.027981  0.013573  0.006959  0.037746  0.044516 -0.017262
3  100000.0  0.100 -0.000766  2.595405  2.333078  2.114369  1.901419  1.706893  1.515232  1.335944  1.137185  0.987066  0.829057  0.698838  0.560545  0.441603  0.307703  0.227313  0.134024  0.026789 -0.044335 -0.102292 -0.196772 -0.249013 -0.296511 -0.339194 -0.380412 -0.420624 -0.453979 -0.487791 -0.489468 -0.524385 -0.533339 -0.559503 -0.552629 -0.547209 -0.541112 -0.544933 -0.585093 -0.550714 -0.543423 -0.511149 -0.508655 -0.509475 -0.507460 -0.523321 -0.464792 -0.445658 -0.461434 -0.429473 -0.432330 -0.413232 -0.380612 -0.366791 -0.343221 -0.330861 -0.316472 -0.295549 -0.280521 -0.264734 -0.257408 -0.254430 -0.248400 -0.223192 -0.188750 -0.183021 -0.156068 -0.144712 -0.148867 -0.121896 -0.104748 -0.117411 -0.117414 -0.074725 -0.062757 -0.078053 -0.076718 -0.055698 -0.047309 -0.040130 -0.032211 -0.036947 -0.020192 -0.028564 -0.019819 -0.010774 -0.000298 -0.004205  0.026048  0.034954  0.002428  0.010203  0.022772 -0.002912  0.012560  0.017789  0.016178  0.017357 -0.000010 -0.010133  0.010793  0.004910  0.001124  0.025368  0.021855  0.018375  0.026896  0.010080  0.025207  0.020360  0.030625  0.005045  0.012758  0.007122  0.022976  0.006104  0.015936  0.020798  0.021721  0.024691  0.029538  0.014405  0.012510  0.029574 -0.004616  0.007134  0.033597  0.015713  0.002291  0.030136  0.040429  0.017466  0.016430  0.009866  0.005889  0.025648  0.005975  0.017136 -0.003994 -0.007558  0.018729 -0.001401  0.001404 -0.004896 -0.008924 -0.010634 -0.002022  0.012003 -0.004366 -0.005721 -0.005548  0.001289 -0.000280  0.017391  0.022279  0.006485 -0.010481  0.016714  0.005250 -0.000348  0.002184 -0.009187 -0.004654  0.006159  0.009005 -0.007817  0.001095 -0.013862  0.007186  0.007590  0.004724  0.004277  0.009682  0.008131 -0.011142 -0.009279 -0.007267 -0.005986  0.005165 -0.001420  0.003327 -0.017570  0.017597 -0.019563 -0.008912 -0.009798 -0.003350  0.007024  0.003689 -0.012534 -0.017511 -0.013405 -0.015213 -0.025751 -0.014829 -0.005821 -0.026626 -0.011669 -0.024062 -0.019258  0.003744 -0.021963 -0.009114
4  100000.0  0.200 -0.000664  2.690460  2.396887  2.124589  1.864306  1.625619  1.394316  1.192296  0.984852  0.809957  0.633935  0.491070  0.345180  0.222469  0.128512  0.000336 -0.093652 -0.174060 -0.232962 -0.314842 -0.370022 -0.419726 -0.450376 -0.495815 -0.531467 -0.535395 -0.559605 -0.545004 -0.575250 -0.566143 -0.575009 -0.571932 -0.553675 -0.546592 -0.529100 -0.540003 -0.498364 -0.519516 -0.488225 -0.475331 -0.444709 -0.448082 -0.400092 -0.397900 -0.388319 -0.374671 -0.332813 -0.325272 -0.320858 -0.296035 -0.275013 -0.260554 -0.229271 -0.207886 -0.206419 -0.203087 -0.166968 -0.168510 -0.152349 -0.151086 -0.118881 -0.104617 -0.086474 -0.075948 -0.070695 -0.055902 -0.044725 -0.037239 -0.017715 -0.020768 -0.010554 -0.000689 -0.005850  0.012482  0.007784 -0.002926  0.007289  0.006964 -0.005399  0.029093  0.032778  0.018918  0.024652  0.038909  0.026229  0.020433  0.008886  0.033850  0.036449  0.018069  0.015936  0.020702  0.010272  0.031914  0.014277  0.028309  0.035121  0.008731  0.016089  0.009085  0.011448 -0.004068  0.014224  0.001526 -0.003046  0.013347 -0.013444 -0.007463  0.015191  0.001791 -0.003172 -0.005747  0.000112 -0.000190  0.001329 -0.004128 -0.012178 -0.000668  0.004435  0.001919  0.006886 -0.003034 -0.008713  0.015061 -0.006397 -0.009748  0.004302 -0.004582  0.003197  0.000774  0.001142 -0.003456 -0.000109 -0.001427 -0.006183 -0.014876 -0.010163 -0.002996  0.002315  0.020050  0.005023  0.005729  0.000110  0.008001  0.007607 -0.006233 -0.008945  0.016518  0.015250  0.008287 -0.006673  0.000909  0.032904  0.013935  0.011437  0.007886  0.010828  0.007516  0.010310  0.013629  0.003362  0.017846  0.005769  0.009191  0.019479  0.010350  0.008997  0.005529  0.001035  0.005899  0.024391  0.016667  0.002745  0.008719  0.022421  0.011665  0.003661  0.005474  0.006721  0.015505 -0.006366  0.012688  0.008777 -0.005586 -0.003098 -0.009148 -0.005146 -0.011949 -0.018668 -0.004724 -0.008040 -0.010199 -0.006843 -0.020634 -0.029553 -0.032294 -0.028096 -0.035514 -0.045220 -0.025151 -0.048347
5  100000.0  1.000 -0.000545  3.098636  2.633530  2.211392  1.802062  1.467860  1.131247  0.842420  0.600379  0.370061  0.181994  0.003405 -0.138965 -0.259979 -0.375804 -0.469483 -0.542072 -0.585715 -0.621524 -0.663116 -0.677441 -0.682711 -0.679537 -0.664116 -0.660073 -0.650938 -0.622881 -0.591133 -0.563974 -0.557047 -0.512581 -0.470874 -0.452352 -0.415294 -0.388193 -0.355764 -0.325003 -0.289887 -0.263866 -0.238073 -0.210354 -0.196911 -0.172610 -0.145014 -0.121922 -0.103804 -0.082985 -0.073545 -0.059527 -0.051378 -0.031532 -0.017659 -0.012790 -0.006944 -0.001943  0.004970  0.011706  0.011843  0.025755  0.011268  0.025680  0.024063  0.019399  0.030090  0.016447  0.027252  0.028642  0.038787  0.020569  0.031280  0.028538  0.031072  0.018901  0.022846  0.015610  0.015920  0.026399  0.011180  0.020325  0.024998  0.027802  0.039884  0.019977  0.021975  0.014693  0.018764  0.019400  0.011703  0.015971  0.007512  0.010105  0.011970  0.000985  0.012615  0.009507  0.002484 -0.001646 -0.002034  0.000148 -0.002726 -0.008980 -0.001077 -0.008406 -0.001443 -0.016181 -0.008953 -0.010292  0.001414  0.002990 -0.008449  0.010987 -0.005878 -0.010576 -0.011510 -0.007563 -0.005200 -0.003472 -0.010477 -0.001469 -0.008397 -0.006746 -0.001625 -0.016003 -0.005171 -0.008260 -0.005745 -0.008223 -0.009177 -0.010412 -0.009003 -0.006582 -0.013262 -0.004365 -0.021002 -0.000937 -0.009393 -0.003548 -0.004647 -0.012533  0.000580 -0.002724 -0.002250  0.008728  0.007816  0.006404  0.010704  0.008214  0.006193  0.005697  0.016810  0.000455  0.015793  0.021073  0.009766  0.010568  0.008317  0.004733  0.009432  0.012479  0.009169  0.001813  0.001706  0.000443  0.010395 -0.002336 -0.003952  0.004256  0.003534 -0.001263  0.001376 -0.007228 -0.008782 -0.008890 -0.015500 -0.000158 -0.010644 -0.009489 -0.004601 -0.007732 -0.018829 -0.008762 -0.014863 -0.012770 -0.015192 -0.013887  0.003100 -0.010213  0.001535 -0.010592 -0.009070 -0.008894  0.002373 -0.005118 -0.000250  0.014061  0.002924  0.005953 -0.006715  0.003139  0.015767  0.017624
6  100000.0  2.000 -0.000378  3.350563  2.767832  2.251766  1.772562  1.350154  0.976008  0.656054  0.374824  0.134315 -0.067920 -0.248399 -0.389759 -0.493485 -0.585625 -0.649641 -0.702595 -0.727410 -0.741542 -0.756740 -0.738590 -0.726825 -0.699539 -0.669916 -0.639715 -0.598164 -0.573100 -0.529050 -0.479919 -0.428086 -0.401772 -0.356183 -0.328791 -0.279984 -0.257176 -0.217256 -0.178120 -0.157195 -0.140396 -0.121765 -0.094226 -0.071124 -0.055653 -0.037308 -0.017397 -0.018452 -0.017857  0.010149  0.008221  0.015940  0.030325  0.033695  0.027768  0.032461  0.029395  0.027192  0.043050  0.034470  0.027432  0.023396  0.020852  0.017277  0.020338  0.014492  0.012278  0.000347  0.013893  0.019264 -0.000958  0.011525  0.015312  0.004028  0.001408  0.003412  0.007749  0.014483  0.014401  0.009067  0.018348  0.020338  0.013189  0.005083  0.007871 -0.001919  0.005592  0.002696  0.004967  0.008251  0.009145 -0.001444 -0.000647  0.008945 -0.004894  0.001758 -0.010588  0.000497 -0.002261 -0.003317 -0.005504 -0.007689 -0.003393 -0.004504 -0.007175 -0.004247 -0.009324 -0.001413  0.001557 -0.016044 -0.013500 -0.019283 -0.009976 -0.003765 -0.007941  0.000092 -0.009979 -0.002875 -0.010151 -0.015306 -0.006250  0.000798  0.004436 -0.001651 -0.001939  0.003822  0.010255  0.004104  0.015979  0.010213  0.004958  0.013111  0.006633  0.000032  0.004255  0.009832  0.001047 -0.013917 -0.007109 -0.006970 -0.020247 -0.004224 -0.003611 -0.012464 -0.006845  0.000800  0.007905 -0.003631  0.011014 -0.001045  0.002661 -0.002053  0.002885 -0.002535  0.008732  0.001394  0.016174  0.013103  0.018592  0.000255  0.005253  0.011677  0.010810  0.006160  0.003050  0.001261  0.000544  0.005248 -0.002166  0.003495 -0.002232 -0.000519 -0.013551  0.002821 -0.000886 -0.007660 -0.006854 -0.017031 -0.017414  0.005678 -0.015820 -0.013675 -0.018376 -0.014839 -0.014441 -0.017517 -0.011198 -0.007710 -0.010120 -0.011146  0.007311  0.000654  0.001548 -0.007226 -0.001200  0.003155  0.002077  0.008513  0.010502  0.013888  0.009922  0.018145  0.014442