       Lambda  D_rot  T_eff      bias   w0        w1        w2        w3        w4        w5        w6        w7        w8        w9       w10       w11       w12       w13       w14       w15       w16       w17       w18       w19       w20       w21       w22       w23       w24       w25       w26       w27       w28       w29       w30       w31       w32       w33       w34       w35       w36       w37       w38       w39       w40       w41       w42       w43       w44       w45       w46       w47       w48       w49       w50       w51       w52       w53       w54       w55       w56       w57       w58       w59       w60       w61       w62       w63       w64       w65       w66       w67       w68       w69       w70       w71       w72       w73       w74       w75       w76       w77       w78       w79       w80       w81       w82       w83       w84       w85       w86       w87       w88       w89       w90       w91       w92       w93       w94       w95       w96       w97       w98       w99      w100      w101      w102      w103      w104      w105      w106      w107      w108      w109      w110      w111      w112      w113      w114      w115      w116      w117      w118      w119      w120      w121      w122      w123      w124      w125      w126      w127      w128      w129      w130      w131      w132      w133      w134      w135      w136      w137      w138      w139      w140      w141      w142      w143      w144      w145      w146      w147      w148      w149      w150      w151      w152      w153      w154      w155      w156      w157      w158      w159      w160      w161      w162      w163      w164      w165      w166      w167      w168      w169      w170      w171      w172      w173      w174      w175      w176      w177      w178      w179      w180      w181      w182      w183      w184      w185      w186      w187      w188      w189      w190      w191      w192      w193      w194      w195      w196      w197      w198      w199
0  10000000.0  0.000   2.00 -0.020819  1.0  0.985630  0.975770  0.959731  0.950747  0.941926  0.931802  0.922819  0.910871  0.908865  0.894087  0.882858  0.866739  0.860633  0.844648  0.844934  0.823501  0.820336  0.808415  0.793833  0.786310  0.768243  0.764573  0.758836  0.742127  0.736758  0.725452  0.708644  0.704624  0.689209  0.676948  0.670191  0.659695  0.651123  0.642020  0.629047  0.618883  0.610139  0.591704  0.586110  0.570902  0.568298  0.547357  0.540887  0.536655  0.523927  0.507156  0.494135  0.487868  0.477122  0.467876  0.458176  0.447616  0.436630  0.428284  0.422594  0.396567  0.400305  0.392810  0.379583  0.368779  0.352158  0.333009  0.329511  0.319886  0.306739  0.292522  0.288286  0.284377  0.264934  0.267535  0.247754  0.238557  0.224397  0.215149  0.206858  0.191816  0.195380  0.168490  0.165979  0.153639  0.144697  0.131605  0.120276  0.111465  0.107210  0.096045  0.078949  0.071810  0.058386  0.048642  0.041367  0.033795  0.015379  0.007109  0.002950 -0.009316 -0.012916 -0.032017 -0.043939 -0.051331 -0.063278 -0.071525 -0.079165 -0.091020 -0.104571 -0.115704 -0.121238 -0.127046 -0.142930 -0.155147 -0.162472 -0.176581 -0.177033 -0.189776 -0.202848 -0.209892 -0.219247 -0.234404 -0.240944 -0.246784 -0.254880 -0.269336 -0.274151 -0.285557 -0.292003 -0.298373 -0.312278 -0.326647 -0.337892 -0.343593 -0.354782 -0.366126 -0.373388 -0.381294 -0.392047 -0.402725 -0.405800 -0.420873 -0.427427 -0.437254 -0.449423 -0.457293 -0.465172 -0.475310 -0.485173 -0.493027 -0.504366 -0.521057 -0.529475 -0.532402 -0.545788 -0.546069 -0.557169 -0.565226 -0.574030 -0.587058 -0.600034 -0.606437 -0.614961 -0.616728 -0.626362 -0.638748 -0.645895 -0.654635 -0.664078 -0.675243 -0.682401 -0.693099 -0.702921 -0.709608 -0.717765 -0.727095 -0.729203 -0.749262 -0.747695 -0.759501 -0.766294 -0.768063 -0.785417 -0.787231 -0.794999 -0.806958 -0.811020 -0.828497 -0.836952 -0.840170 -0.848134 -0.862623 -0.872009 -0.870881 -0.878388 -0.887380 -0.893961 -0.907714 -0.911515 -0.922254 -0.932984 -0.935736 -0.946429
1  10000000.0  0.001   1.36 -0.000864  1.0  0.950552  0.902715  0.841416  0.809256  0.753825  0.709400  0.671247  0.633251  0.589190  0.542810  0.511294  0.471417  0.426578  0.401758  0.370406  0.331502  0.299518  0.271028  0.241156  0.216282  0.182851  0.157971  0.132284  0.114452  0.088698  0.070633  0.055313  0.031103  0.019365  0.000136 -0.010700 -0.033998 -0.050369 -0.061356 -0.085481 -0.087347 -0.098618 -0.118748 -0.126211 -0.128556 -0.147544 -0.145201 -0.162931 -0.167257 -0.175305 -0.181255 -0.188166 -0.187678 -0.206687 -0.206403 -0.217892 -0.206717 -0.216762 -0.221552 -0.221735 -0.217350 -0.225354 -0.220112 -0.224126 -0.223036 -0.225721 -0.222396 -0.225589 -0.220400 -0.213008 -0.215726 -0.219306 -0.213126 -0.204956 -0.213382 -0.206158 -0.203567 -0.201097 -0.201332 -0.199240 -0.197930 -0.188282 -0.183709 -0.184293 -0.172400 -0.179470 -0.177252 -0.166976 -0.166847 -0.163866 -0.160024 -0.157048 -0.160778 -0.158294 -0.149190 -0.146144 -0.143351 -0.134552 -0.137786 -0.131026 -0.126352 -0.135769 -0.118202 -0.112868 -0.111703 -0.108710 -0.103307 -0.097854 -0.087586 -0.095731 -0.084997 -0.086640 -0.082121 -0.074700 -0.084593 -0.073313 -0.067940 -0.069581 -0.055541 -0.058342 -0.056888 -0.051962 -0.058762 -0.054548 -0.046343 -0.040264 -0.032449 -0.034463 -0.046363 -0.030844 -0.034741 -0.029334 -0.032611 -0.025551 -0.027252 -0.030616 -0.028674 -0.031024 -0.015237 -0.011153 -0.014290 -0.017087 -0.017630 -0.015044 -0.011276 -0.005673 -0.010535 -0.010926 -0.008197 -0.008600 -0.004388 -0.004295  0.000832  0.001182  0.004295 -0.004009  0.004498  0.014766  0.013246  0.008373  0.006226  0.012293  0.005681  0.014051  0.017345  0.015656  0.017456  0.014012  0.015278  0.023526  0.021926  0.020771  0.018134  0.029095  0.018736  0.021523  0.019398  0.023405  0.020927  0.017705  0.026752  0.021220  0.027441  0.031547  0.024158  0.024793  0.018098  0.019192  0.020569  0.024413  0.020016  0.025437  0.020442  0.016995  0.022256  0.021410  0.024092  0.024263  0.023922  0.020190  0.017159  0.015820  0.017502  0.017229
2  10000000.0  0.010   0.64 -0.000104  1.0  0.885032  0.774304  0.674647  0.576586  0.491149  0.406601  0.335668  0.260888  0.197858  0.142131  0.093757  0.045434  0.007245 -0.037985 -0.062668 -0.094130 -0.121156 -0.143747 -0.154094 -0.177807 -0.192342 -0.203872 -0.209831 -0.221675 -0.216516 -0.216305 -0.222306 -0.216917 -0.212863 -0.212897 -0.203784 -0.194756 -0.194070 -0.187913 -0.180921 -0.163112 -0.165092 -0.153904 -0.147797 -0.145312 -0.130683 -0.129100 -0.118783 -0.109434 -0.097172 -0.092390 -0.087554 -0.073612 -0.069182 -0.068840 -0.059223 -0.053431 -0.050063 -0.041729 -0.033991 -0.035092 -0.033417 -0.021738 -0.020861 -0.025764 -0.015428 -0.012728 -0.010950 -0.015658 -0.008046 -0.011249 -0.005436 -0.006665 -0.002030  0.006252 -0.001346  0.004340  0.009833  0.008827  0.009371  0.014272  0.013089  0.014968  0.004464  0.009179  0.010303  0.003557  0.008391  0.007426  0.010034  0.008835  0.005690  0.003225  0.005402  0.004174  0.008780  0.010290  0.006267  0.002221  0.005830  0.002824 -0.002812 -0.002637 -0.005162 -0.007139  0.009259  0.000297  0.005580  0.000391  0.003691 -0.002261 -0.001746  0.000523  0.001313 -0.010863 -0.003414  0.002060 -0.003377 -0.001999  0.002160 -0.001997  0.005968  0.005183 -0.000785 -0.006845 -0.001012 -0.001440 -0.005341  0.000289 -0.004136 -0.000956  0.004543 -0.005740 -0.000781  0.006355 -0.003984 -0.007568 -0.005885 -0.009704 -0.009470 -0.008248 -0.006921 -0.005827 -0.005704 -0.006728 -0.004196 -0.013189 -0.009244 -0.005604 -0.000195 -0.002380 -0.002782  0.009870  0.001038  0.008726  0.003532  0.013712  0.010600  0.008162  0.006051  0.004765  0.008295  0.001016  0.005581  0.002371  0.002833  0.007852 -0.002442  0.000623  0.000757  0.000509  0.003776  0.002956  0.008759  0.004297  0.014269  0.005810  0.012780  0.010946  0.007909  0.011192  0.008839  0.006827  0.007521  0.003241  0.004985  0.003899 -0.004588 -0.002344 -0.004691 -0.000820  0.000193 -0.004121  0.001190 -0.004499 -0.010705 -0.004604 -0.004631 -0.007342 -0.008324 -0.010157 -0.012395 -0.007075 -0.010984
3  10000000.0  0.100   0.31 -0.000018  1.0  0.770630  0.567962  0.395361  0.251267  0.121970  0.020939 -0.062023 -0.124617 -0.173467 -0.209848 -0.228808 -0.240738 -0.241141 -0.243668 -0.232465 -0.221281 -0.202943 -0.182402 -0.164839 -0.148687 -0.128674 -0.108613 -0.095187 -0.080718 -0.063931 -0.046460 -0.039006 -0.024992 -0.013304 -0.006909 -0.004741  0.002932  0.008471  0.010817  0.008019  0.012307  0.011828  0.014732  0.009668  0.015813  0.011889  0.014015  0.013751  0.006325  0.006284  0.002621  0.000542  0.002114 -0.003598  0.000463 -0.001696 -0.004841  0.000986 -0.000529 -0.003127 -0.003024  0.003027  0.005626 -0.000806  0.005803 -0.002146  0.003278  0.002849  0.006625  0.002514  0.008592  0.004559  0.002292 -0.000283  0.001464  0.003572  0.004446  0.002099 -0.001283 -0.002966  0.002627  0.000595  0.002339  0.003127  0.000990 -0.000186 -0.001242  0.000018  0.001698  0.002152  0.002070  0.000325  0.000200 -0.002425 -0.006061 -0.004660 -0.003030 -0.000170 -0.001285 -0.000598 -0.002506 -0.003225 -0.003614 -0.007842 -0.007074 -0.007494 -0.010268 -0.013732 -0.008780 -0.011390 -0.009171 -0.007320 -0.002936  0.004561  0.000424  0.006130  0.004642  0.012807  0.009663  0.008928  0.008285  0.006871  0.006188  0.004987  0.002222  0.005843  0.005248  0.003499  0.001973  0.003393  0.002454  0.001742  0.000412  0.002495  0.002626  0.002909  0.005565  0.002086  0.000921 -0.000987 -0.003686 -0.004326 -0.005897 -0.008613 -0.002813 -0.011325 -0.007414 -0.003991 -0.004041 -0.004149 -0.002189 -0.003254  0.001861  0.002260  0.002123  0.002998  0.002624  0.002839  0.006164  0.002274 -0.000126  0.006715  0.001756  0.001307  0.003542  0.002205  0.001247 -0.000633 -0.006707 -0.004675 -0.000720 -0.000350 -0.004664 -0.005061 -0.005611 -0.002176 -0.002851 -0.001980  0.001560  0.006460  0.003353  0.003233  0.007115  0.005056  0.003819  0.002474  0.004172  0.000640 -0.003061 -0.000766 -0.005863 -0.007935 -0.003032 -0.004500 -0.000493 -0.005111 -0.003777 -0.001483 -0.006387 -0.000472  0.000478  0.004965  0.007203  0.004384
4  10000000.0  0.200   0.27 -0.000013  1.0  0.718781  0.483773  0.287609  0.129623  0.000808 -0.084884 -0.156577 -0.201329 -0.226295 -0.244026 -0.247402 -0.237269 -0.222712 -0.205020 -0.189456 -0.157341 -0.141511 -0.112662 -0.094217 -0.069825 -0.056581 -0.040895 -0.033515 -0.018303 -0.013476 -0.006080 -0.000531  0.004132  0.006526  0.007546  0.010699  0.009933  0.013027  0.015500  0.017721  0.013671  0.008975  0.009839  0.009384  0.008003  0.009032  0.010475  0.005529  0.007599  0.002881  0.004332  0.001003 -0.001780 -0.004101 -0.002238 -0.005619 -0.007653 -0.002908 -0.008437 -0.005481 -0.009502 -0.004017 -0.003303  0.000502 -0.003269  0.001177 -0.001459  0.000167  0.000743  0.001749  0.002762  0.005153  0.005001  0.003889  0.004466  0.006110  0.000910  0.005467  0.004860  0.004569  0.002730  0.002924 -0.002155 -0.004669 -0.002535  0.003236  0.001848  0.002494 -0.002188  0.000173 -0.004743 -0.004903 -0.001840 -0.000509 -0.001545 -0.003432 -0.001918 -0.000632 -0.000276  0.000727  0.002150 -0.002029 -0.001729 -0.000102  0.003165 -0.002412 -0.003358 -0.001484  0.002210  0.001477 -0.003410 -0.001761  0.002383 -0.002533 -0.002846 -0.003244 -0.005004 -0.006652 -0.001187 -0.006003 -0.002085 -0.002403 -0.002510 -0.005459  0.002370  0.003442  0.000851 -0.000305  0.002108  0.005484  0.001291  0.005619  0.002821  0.006615  0.007057  0.004128  0.001545 -0.000165 -0.001899 -0.002200 -0.003386 -0.004353 -0.004667 -0.002556  0.002659  0.001019  0.001632  0.004109  0.003074  0.003969 -0.001732  0.001923  0.001893  0.000591  0.001894 -0.001481 -0.001054 -0.003361  0.001276  0.000218 -0.001000 -0.000571 -0.004561 -0.001815 -0.000950 -0.004119 -0.000602 -0.003161 -0.000726 -0.003093  0.000461  0.002153 -0.001502  0.000352  0.001841  0.003088  0.000076  0.003617  0.003344  0.005559  0.000759  0.000905  0.001394 -0.000514  0.005293  0.004439  0.000790  0.000304  0.000838  0.004832  0.000348  0.000907  0.002849  0.004597  0.002695 -0.000138 -0.002308 -0.004017 -0.003822 -0.000993 -0.003984 -0.006245 -0.007066 -0.005402
5  10000000.0  1.000   0.18 -0.000008  1.0  0.564373  0.241887  0.011841 -0.132713 -0.216309 -0.252615 -0.254067 -0.234676 -0.205727 -0.173812 -0.135210 -0.104922 -0.077854 -0.052811 -0.033537 -0.019971 -0.007810  0.006571  0.010841  0.010783  0.011477  0.009557  0.006915  0.004754  0.007913  0.005337  0.007737  0.002046  0.002596 -0.001535 -0.001006 -0.004555 -0.000968 -0.000302  0.006234  0.001949 -0.000961  0.002257 -0.000836 -0.003254 -0.004909 -0.004777 -0.004964 -0.002019  0.000766  0.000796  0.005602  0.004616  0.003287  0.002728  0.005642  0.001344  0.001313  0.000113  0.002891  0.002630  0.001151 -0.000530 -0.000509 -0.002302 -0.001561 -0.004394 -0.004011 -0.001868 -0.000380  0.002733  0.002645  0.001902 -0.001778 -0.001140 -0.002384 -0.001272 -0.006557 -0.004907 -0.002009 -0.006691 -0.005949 -0.000211 -0.000222  0.001964  0.008156  0.007729  0.005805  0.005604  0.004521  0.004076 -0.000534 -0.000204 -0.000663  0.001576 -0.000213  0.001422  0.001617  0.000281 -0.002434 -0.002616 -0.002662 -0.001936 -0.004012 -0.001139 -0.000229 -0.003029 -0.002242  0.000473  0.001308 -0.000503  0.001867  0.002398  0.000172  0.001267  0.003207 -0.002802  0.001870 -0.000807  0.001191  0.000746  0.001100 -0.000225 -0.003094 -0.002348  0.000064 -0.001737 -0.001170 -0.000421 -0.002905 -0.002055 -0.001797  0.001453  0.003051  0.000030  0.003390  0.005359  0.002090 -0.000119  0.002028 -0.001183 -0.004556  0.000212 -0.002238 -0.004493 -0.000784 -0.001115 -0.003726 -0.000668 -0.000700 -0.001283  0.000177  0.000041 -0.001513 -0.000488  0.000826 -0.000473  0.002833  0.004481  0.002248  0.005636  0.004068  0.002073  0.003299  0.001884  0.001948  0.001537 -0.000960 -0.004156 -0.003441 -0.000452 -0.004051 -0.003217  0.000042 -0.003637 -0.002598 -0.001843  0.002174 -0.001081  0.004209  0.005105  0.004985  0.002269 -0.000908 -0.002495 -0.003592 -0.001206 -0.001913 -0.003609 -0.004089 -0.001143  0.000342  0.001722 -0.000746 -0.001717  0.001573 -0.002370 -0.000353  0.003707  0.003533  0.004083  0.002637 -0.000496 -0.004381
6  10000000.0  2.000   0.16 -0.000006  1.0  0.482210  0.130312 -0.090386 -0.211848 -0.262379 -0.262378 -0.236414 -0.194559 -0.149291 -0.108322 -0.073108 -0.045849 -0.026022 -0.014165 -0.004160 -0.000829  0.003180  0.009320  0.011389  0.012624  0.012038  0.007090  0.005666  0.003773  0.003399  0.001900  0.000659  0.001555  0.000564 -0.001676 -0.002618 -0.000362 -0.001004 -0.001480 -0.003093  0.002173  0.000686  0.000340 -0.000053  0.001172  0.000225  0.001090  0.000292 -0.000347 -0.005473 -0.003097  0.001157  0.000949  0.003449  0.001851  0.001093  0.001423  0.004084  0.001921  0.002627  0.000880 -0.000636  0.000443 -0.002396  0.000066 -0.004499 -0.002784 -0.000818 -0.002001 -0.002875  0.001330  0.000052 -0.002032 -0.002042 -0.002447  0.000426 -0.000624 -0.000973 -0.000062  0.004707  0.001311  0.003964  0.003029  0.000460 -0.000429  0.000619 -0.000317 -0.001498  0.000100  0.000093  0.001170 -0.001728  0.001470  0.003026 -0.000818  0.000008  0.001231  0.000023 -0.001546 -0.003599 -0.001622 -0.002516 -0.000502  0.001537  0.002675  0.001737 -0.000381  0.000185  0.000648 -0.000351 -0.000066 -0.000189  0.002732 -0.000271 -0.002506 -0.000940  0.000884  0.000380 -0.001823 -0.000922 -0.001101 -0.002591 -0.002672 -0.002083 -0.000699 -0.000897 -0.002281  0.001224  0.004427  0.002957  0.002683  0.004863 -0.000153  0.003110  0.003232  0.002741 -0.000983  0.000791 -0.001242  0.000407 -0.003000 -0.005332 -0.005022 -0.002424 -0.002817 -0.001400  0.002039  0.002929  0.002169  0.001267  0.001010 -0.002423  0.000369 -0.002522 -0.005292 -0.004634 -0.003504  0.000411  0.003600  0.003193  0.003962  0.006211  0.005735  0.002290  0.002442 -0.002781 -0.003162 -0.001645 -0.001030  0.003614  0.000430  0.002359 -0.001108 -0.000471  0.000234 -0.000525 -0.001016 -0.000213  0.000307 -0.002114 -0.002664 -0.001133 -0.001007 -0.001903 -0.001198 -0.001094  0.001001 -0.001343 -0.003466 -0.002280  0.000734  0.004136  0.002480  0.000515 -0.000094  0.001164 -0.003126 -0.003073  0.001117  0.005552  0.000734  0.000578 -0.000133 -0.000752