      Lambda  D_rot  T_eff      bias        w0        w1        w2        w3        w4        w5        w6        w7        w8        w9       w10       w11       w12       w13       w14       w15       w16       w17       w18       w19       w20       w21       w22       w23       w24       w25       w26       w27       w28       w29       w30       w31       w32       w33       w34       w35       w36       w37       w38       w39       w40       w41       w42       w43       w44       w45       w46       w47       w48       w49       w50       w51       w52       w53       w54       w55       w56       w57       w58       w59       w60       w61       w62       w63       w64       w65       w66       w67       w68       w69       w70       w71       w72       w73       w74       w75       w76       w77       w78       w79       w80       w81       w82       w83       w84       w85       w86       w87       w88       w89       w90       w91       w92       w93       w94       w95       w96       w97       w98       w99      w100      w101      w102      w103      w104      w105      w106      w107      w108      w109      w110      w111      w112      w113      w114      w115      w116      w117      w118      w119      w120      w121      w122      w123      w124      w125      w126      w127      w128      w129      w130      w131      w132      w133      w134      w135      w136      w137      w138      w139      w140      w141      w142      w143      w144      w145      w146      w147      w148      w149      w150      w151      w152      w153      w154      w155      w156      w157      w158      w159      w160      w161      w162      w163      w164      w165      w166      w167      w168      w169      w170      w171      w172      w173      w174      w175      w176      w177      w178      w179      w180      w181      w182      w183      w184      w185      w186      w187      w188      w189      w190      w191      w192      w193      w194      w195      w196      w197      w198      w199
0  1000000.0  0.000   2.00 -0.021191  0.983037  1.000000  0.993688  0.956168  0.961972  0.959185  0.940503  0.927333  0.950319  0.930586  0.901985  0.888587  0.891090  0.873880  0.847417  0.847904  0.845673  0.835500  0.818006  0.819272  0.812247  0.785221  0.767726  0.762123  0.775215  0.731299  0.738078  0.720165  0.713179  0.683207  0.695531  0.680327  0.659163  0.663988  0.664298  0.626590  0.640365  0.624326  0.596669  0.598813  0.593588  0.571603  0.577441  0.542229  0.525481  0.531096  0.524453  0.510107  0.498018  0.481272  0.471029  0.463035  0.461118  0.443005  0.447062  0.427149  0.402470  0.414325  0.396030  0.390269  0.362918  0.356671  0.346901  0.316552  0.343804  0.330117  0.312926  0.299761  0.272290  0.276379  0.249229  0.237300  0.244218  0.214269  0.214197  0.193750  0.212659  0.194967  0.178706  0.185480  0.171716  0.149558  0.143352  0.118262  0.127443  0.110288  0.095248  0.080973  0.088235  0.078661  0.048239  0.034853  0.041648  0.016907  0.007861  0.010046 -0.012862 -0.019928 -0.036314 -0.025731 -0.036025 -0.054945 -0.082535 -0.067710 -0.107148 -0.098343 -0.111514 -0.131745 -0.135722 -0.129072 -0.136840 -0.162141 -0.188946 -0.180877 -0.183647 -0.181194 -0.205082 -0.199887 -0.223602 -0.262232 -0.268611 -0.264936 -0.276848 -0.292804 -0.284550 -0.305498 -0.325570 -0.324852 -0.329453 -0.343724 -0.364614 -0.367701 -0.366537 -0.384463 -0.366710 -0.399257 -0.422469 -0.424960 -0.436395 -0.434320 -0.448347 -0.463786 -0.457238 -0.451525 -0.483299 -0.479847 -0.499680 -0.518553 -0.525418 -0.556643 -0.543965 -0.542491 -0.556984 -0.561533 -0.546396 -0.586861 -0.617785 -0.610190 -0.601607 -0.609762 -0.622280 -0.661099 -0.652485 -0.646872 -0.675245 -0.676029 -0.689997 -0.706698 -0.704116 -0.731517 -0.690979 -0.726726 -0.743355 -0.760524 -0.770029 -0.769819 -0.770486 -0.775547 -0.803958 -0.790236 -0.780705 -0.809000 -0.820941 -0.828460 -0.842869 -0.842447 -0.830184 -0.880935 -0.865967 -0.877521 -0.898508 -0.915930 -0.899029 -0.913602 -0.939670 -0.935673 -0.931388 -0.950302 -0.967493 -0.967102
1  1000000.0  0.001   1.50 -0.001619  1.000000  0.954337  0.918458  0.861610  0.846300  0.811227  0.765125  0.706803  0.685775  0.640758  0.622043  0.576886  0.535667  0.513024  0.473725  0.452958  0.427460  0.375683  0.346947  0.314150  0.324621  0.265235  0.239383  0.245081  0.211645  0.176074  0.156711  0.123285  0.132076  0.106073  0.077158  0.082028  0.070038  0.022544  0.014612  0.000690 -0.014354 -0.018913 -0.055096 -0.032686 -0.078763 -0.085097 -0.077462 -0.086013 -0.091930 -0.119449 -0.135512 -0.146334 -0.135197 -0.133748 -0.143538 -0.173938 -0.165191 -0.187518 -0.193188 -0.200463 -0.190164 -0.199836 -0.189494 -0.209291 -0.199257 -0.218888 -0.193315 -0.215631 -0.218255 -0.225210 -0.227316 -0.200990 -0.228634 -0.203814 -0.213022 -0.214677 -0.225607 -0.210443 -0.214996 -0.216137 -0.220566 -0.194673 -0.212628 -0.224624 -0.215606 -0.207780 -0.203594 -0.207529 -0.234411 -0.210868 -0.185072 -0.195710 -0.197980 -0.212098 -0.179686 -0.210456 -0.182683 -0.197125 -0.197950 -0.187472 -0.179968 -0.196483 -0.182638 -0.159684 -0.177956 -0.158807 -0.166778 -0.183727 -0.179663 -0.159303 -0.146476 -0.141476 -0.142345 -0.115962 -0.146011 -0.130912 -0.127097 -0.126711 -0.125715 -0.135135 -0.106453 -0.099000 -0.098871 -0.095991 -0.088223 -0.104537 -0.089649 -0.090806 -0.091138 -0.091666 -0.083081 -0.090927 -0.080914 -0.087594 -0.068038 -0.068668 -0.074649 -0.070689 -0.087640 -0.038472 -0.054340 -0.053351 -0.071463 -0.060457 -0.065175 -0.057391 -0.039742 -0.065017 -0.053340 -0.029134 -0.032103 -0.033058 -0.038010 -0.007842 -0.020786 -0.030436 -0.009123 -0.018779 -0.051353 -0.009591 -0.023542 -0.015943 -0.012871 -0.000097 -0.036746 -0.008672  0.009727 -0.022650 -0.004242 -0.020265 -0.004194 -0.013030  0.006466 -0.003504 -0.000453 -0.004545  0.017376  0.016255  0.016963  0.038136  0.027629  0.001065  0.012328  0.039752  0.028057  0.012258  0.022898  0.048650  0.027659  0.035721  0.038199  0.034560  0.034844  0.045070  0.044207  0.041669  0.027456  0.041830  0.038951  0.035554  0.053479  0.057840  0.026363  0.048026
2  1000000.0  0.010   0.83 -0.000246  1.000000  0.909143  0.822279  0.754198  0.674597  0.599385  0.525958  0.473339  0.402000  0.340022  0.294040  0.255184  0.206637  0.169136  0.121515  0.091228  0.053645  0.026117 -0.011539 -0.032309 -0.037583 -0.083795 -0.099380 -0.108224 -0.139111 -0.156420 -0.159190 -0.158699 -0.186409 -0.191274 -0.189088 -0.188834 -0.201617 -0.200722 -0.202746 -0.206548 -0.207087 -0.202021 -0.203459 -0.214457 -0.193591 -0.211229 -0.201531 -0.191507 -0.191822 -0.180526 -0.187795 -0.177345 -0.172752 -0.174454 -0.174463 -0.172575 -0.149361 -0.143433 -0.140723 -0.133045 -0.126130 -0.133147 -0.114842 -0.117482 -0.112538 -0.101241 -0.106416 -0.104723 -0.092219 -0.075389 -0.080567 -0.066817 -0.079386 -0.051141 -0.051617 -0.048753 -0.046566 -0.043754 -0.033460 -0.041783 -0.033544 -0.011286 -0.022514 -0.014373 -0.021765 -0.010878 -0.006283 -0.015798 -0.006687 -0.007265 -0.004384  0.004407  0.004512 -0.008390  0.004882  0.013205 -0.003953  0.003660 -0.000140 -0.001398  0.007818 -0.002946  0.006700  0.006410 -0.006808  0.000793  0.005300  0.005763  0.007350 -0.002218 -0.004849 -0.010561  0.002954  0.002936  0.009693  0.009683  0.007206 -0.002168  0.004302  0.007678 -0.010923 -0.000452  0.004504 -0.001367  0.002470  0.013071  0.003109 -0.002642 -0.006636 -0.003976 -0.002657 -0.006129 -0.003742  0.000879  0.009643  0.005334 -0.002694 -0.010036  0.000943  0.003353 -0.005037 -0.009929 -0.007135 -0.002207  0.014364 -0.001203 -0.011347  0.005371 -0.007108  0.014450 -0.001543  0.001971  0.006713 -0.008046  0.013204  0.012068  0.006460  0.004431  0.002313  0.002532  0.008319  0.003525  0.013864  0.018941  0.001877  0.010615  0.010220  0.014584  0.001732  0.011482  0.009551  0.019114  0.009229  0.000093  0.016249  0.000893  0.002898  0.013731  0.001778  0.003135  0.014320  0.020618  0.021777  0.003292  0.011527  0.010700  0.011054  0.006574 -0.021396 -0.005223 -0.004072 -0.009715 -0.001849 -0.000450 -0.011226 -0.009169 -0.008287 -0.014348 -0.013758 -0.008707 -0.026606 -0.002962 -0.015281 -0.021139
3  1000000.0  0.100   0.47 -0.000058  1.000000  0.843021  0.699425  0.559046  0.444246  0.336898  0.240984  0.149454  0.081778  0.017669 -0.039253 -0.091968 -0.127767 -0.157160 -0.181583 -0.196191 -0.212567 -0.220604 -0.220902 -0.227801 -0.223282 -0.218702 -0.221679 -0.209963 -0.197729 -0.195426 -0.186033 -0.173231 -0.158593 -0.142521 -0.133360 -0.117352 -0.103292 -0.093241 -0.083408 -0.071353 -0.069785 -0.057307 -0.052324 -0.042388 -0.039439 -0.025071 -0.024849 -0.016052 -0.013872 -0.013645  0.000954 -0.006094 -0.005959 -0.002754  0.009524 -0.001337  0.003827  0.009053  0.004200  0.007528  0.010895  0.014001  0.003028  0.011811  0.012504  0.004674  0.015967  0.009609  0.015578  0.020182  0.005832  0.009137  0.013690  0.007501  0.012216  0.000658  0.007134  0.006565  0.007984  0.003095  0.009620 -0.000267  0.005225  0.004603  0.009664  0.005496  0.000721  0.002238  0.005447 -0.008467  0.004518 -0.000479  0.003673 -0.004376 -0.012298 -0.000506  0.002961 -0.004998 -0.004335  0.000961 -0.000126 -0.007064 -0.012490 -0.008734 -0.007380 -0.014416 -0.010813 -0.004874 -0.008281 -0.010628 -0.006972 -0.009436  0.002713  0.000673  0.000875  0.001507 -0.000989  0.006064  0.000669  0.001997  0.009367  0.010563  0.002728  0.002484  0.004384  0.006226  0.010874  0.012253 -0.002860  0.004322  0.005852  0.005362  0.005704 -0.001663  0.007325  0.001196 -0.000061 -0.002203  0.001546  0.000846  0.001142 -0.006323 -0.002238 -0.001702 -0.003899 -0.010283 -0.003115 -0.006425 -0.003789 -0.004852  0.001412  0.001033  0.001630  0.001728 -0.010852 -0.005660 -0.001389  0.007208  0.001548 -0.001408  0.004448  0.000903  0.001127  0.002461 -0.000180 -0.007578  0.004692 -0.001420 -0.002704  0.001100 -0.004463  0.001274  0.000428 -0.000814  0.003740 -0.001529  0.001305  0.002646  0.007020  0.003230  0.008473 -0.000213  0.001931  0.000736  0.003515  0.003399 -0.001415 -0.005459 -0.001472 -0.004164 -0.003337 -0.003889 -0.003668 -0.000809 -0.002637 -0.001021 -0.001869  0.002360 -0.004327 -0.006233 -0.001216  0.001902 -0.003502  0.002028
4  1000000.0  0.200   0.39 -0.000046  1.000000  0.809496  0.641660  0.485753  0.355454  0.241305  0.143240  0.060294 -0.013604 -0.073578 -0.114276 -0.162295 -0.189594 -0.205856 -0.215601 -0.230598 -0.232123 -0.233506 -0.226185 -0.218678 -0.208124 -0.194179 -0.178445 -0.163272 -0.159453 -0.137837 -0.126607 -0.108182 -0.098402 -0.083076 -0.071430 -0.059858 -0.046710 -0.043856 -0.031202 -0.027116 -0.014205 -0.019166 -0.007440  0.001822  0.001773  0.001518  0.009490  0.006157  0.005857  0.009505  0.009787  0.009459  0.006875  0.007088  0.009046  0.009712  0.001964  0.003312  0.004408  0.003988  0.002187  0.002149  0.002166  0.001787  0.000219  0.006014  0.003737  0.005682  0.007389  0.002484  0.006070  0.004561  0.005730  0.004084  0.007562  0.000002  0.006944  0.007352  0.008755 -0.000717  0.003620  0.008230  0.001517  0.004987 -0.000654  0.002889  0.000615 -0.004230  0.002318 -0.001834  0.002080 -0.001105 -0.010624  0.001385  0.002454 -0.001703 -0.004544 -0.005983 -0.003673 -0.002020 -0.000173  0.003377 -0.005111 -0.004242 -0.000534  0.006038  0.000749 -0.002740 -0.004609 -0.001828 -0.003880 -0.003297 -0.003726 -0.006551 -0.004463 -0.005550 -0.003831 -0.009427 -0.006130 -0.006325 -0.000027 -0.001176 -0.001828 -0.000360  0.003096 -0.001476  0.001464 -0.001616 -0.003113  0.002435 -0.002338  0.001890  0.008612  0.003565  0.002405 -0.003567  0.003778  0.001188 -0.001605  0.000148  0.001032  0.000018  0.003094  0.001175  0.000392  0.003285  0.001776 -0.000076 -0.002366  0.006908 -0.000072  0.001549 -0.003452  0.005625 -0.005369 -0.002539  0.000641  0.002460  0.003565 -0.003555  0.006812 -0.002117 -0.000849 -0.003019  0.001538 -0.001075  0.000366 -0.003032 -0.001312  0.001959  0.001518  0.003740 -0.000936  0.005835  0.006928  0.001280  0.007555  0.001942  0.003495  0.002853  0.008588  0.004368  0.003488 -0.000140 -0.001252  0.003386  0.003491  0.003102  0.001439 -0.001902 -0.000583 -0.001416 -0.001723 -0.000416  0.002690 -0.005042 -0.002992  0.000290 -0.002299 -0.007916 -0.008568 -0.005874 -0.009314 -0.009693
5  1000000.0  1.000   0.29 -0.000035  1.000000  0.730137  0.497243  0.308598  0.150815  0.029598 -0.062730 -0.133598 -0.177638 -0.211692 -0.228328 -0.229007 -0.231085 -0.221944 -0.203225 -0.189932 -0.169734 -0.149714 -0.128521 -0.109702 -0.092887 -0.077875 -0.062016 -0.053254 -0.037026 -0.030667 -0.021957 -0.011977 -0.008861 -0.003744 -0.000308  0.001774  0.006918  0.008076  0.011923  0.012093  0.011561  0.011376  0.012300  0.006970  0.008864  0.002805  0.006332  0.001220  0.002434  0.005432  0.000367  0.007553  0.005557  0.004429  0.004829  0.005171  0.005508  0.000963  0.003619  0.000492  0.004618  0.000652 -0.001511  0.000655 -0.003210 -0.002450 -0.004604 -0.005067 -0.000025 -0.002656 -0.000949  0.000448 -0.001289 -0.001843 -0.003183 -0.001968 -0.003814 -0.000085 -0.002786 -0.001631 -0.003070 -0.002548 -0.002298  0.001304  0.002838  0.005868  0.003535  0.006016  0.002043  0.004809  0.004331  0.002895  0.002549  0.000872  0.000302 -0.000789  0.001367 -0.000395 -0.000253 -0.000371 -0.000768  0.000459 -0.002481  0.000154 -0.001243 -0.001315 -0.003888 -0.002404 -0.001486 -0.000494 -0.001121  0.001296  0.002223  0.000580 -0.000034  0.001454 -0.002714  0.003647 -0.000723 -0.001170  0.000454 -0.000162  0.001704  0.000558 -0.003394 -0.001348  0.000232 -0.004253 -0.003370 -0.002448 -0.002150 -0.001071  0.000265  0.002732  0.000232  0.001132  0.000400 -0.001644  0.000216  0.002119  0.000344 -0.001647 -0.007725  0.000997 -0.002191 -0.003115 -0.000838  0.000019 -0.002373  0.003135  0.001080 -0.000317  0.002033  0.000477  0.001143 -0.002725  0.000506  0.004630  0.004043  0.002926  0.003532  0.005451  0.005781  0.003959  0.001892  0.001061  0.000289  0.001766 -0.003455  0.001336 -0.001895 -0.000409 -0.001821 -0.000554 -0.005567 -0.001083 -0.004428 -0.001562  0.001574 -0.003244  0.002386 -0.001215 -0.000298 -0.000466 -0.001383 -0.004182 -0.000424 -0.001549 -0.002140 -0.001689 -0.000412 -0.002872  0.001199 -0.002769 -0.001754 -0.001645 -0.000190 -0.000282  0.004444  0.003755  0.003818  0.001692  0.001985 -0.001963
6  1000000.0  2.000   0.25 -0.000024  1.000000  0.687371  0.429924  0.221275  0.065338 -0.054516 -0.137834 -0.190993 -0.223348 -0.234802 -0.238308 -0.228321 -0.210507 -0.190661 -0.170975 -0.144606 -0.123933 -0.103215 -0.081503 -0.062757 -0.046119 -0.033373 -0.023400 -0.013837 -0.006423  0.001204  0.005031  0.005950  0.010125  0.010365  0.011541  0.006407  0.008143  0.010657  0.009000  0.006793  0.006857  0.008483  0.006448  0.002645  0.002333  0.003268  0.003031 -0.001216  0.000001  0.000584 -0.000735  0.004126 -0.001003  0.003874  0.002649  0.000879  0.002167  0.001979  0.002436  0.001880  0.002215 -0.001993 -0.001441 -0.000988 -0.001852 -0.002536 -0.005710 -0.006519 -0.002420 -0.002889 -0.002500 -0.001896 -0.001616 -0.003727  0.000566 -0.001126  0.000441 -0.000050  0.002057  0.007133  0.001766 -0.000681  0.000258  0.001584  0.003580  0.001116 -0.000125 -0.001851  0.001989  0.001059  0.000823  0.000255  0.002201  0.002275 -0.001005  0.002052  0.000955  0.001060 -0.001508 -0.000158 -0.001194  0.000276 -0.002796 -0.002330  0.003499 -0.001273  0.000543 -0.001838 -0.000524 -0.000325 -0.000305 -0.001957 -0.003501 -0.000091 -0.002146 -0.000618 -0.003082 -0.001792 -0.000227  0.001475 -0.001224 -0.001025 -0.001943  0.001736  0.000120 -0.002058 -0.002383  0.002307  0.002190  0.001662  0.004468  0.005704  0.001819  0.004939  0.003483  0.003348 -0.000388 -0.000036 -0.002346  0.000480 -0.002103 -0.006457 -0.002874 -0.003301 -0.002909 -0.003484 -0.004357 -0.002570  0.000643  0.002478 -0.001520  0.000887 -0.000854  0.000356  0.000757 -0.000318 -0.000726 -0.000660  0.002266  0.004829  0.002450  0.003841  0.003005  0.004425  0.001999  0.002939  0.000493  0.001354  0.000909 -0.000690 -0.001155  0.001801 -0.000138 -0.001627  0.000961 -0.000679 -0.001500 -0.002765 -0.000203 -0.002367 -0.003156 -0.001804 -0.004607 -0.002213 -0.005579 -0.004279 -0.001413 -0.002832  0.001534 -0.002064 -0.002011  0.003066  0.001679 -0.001433  0.001252  0.001132  0.001369  0.002442  0.000145  0.003047  0.004121  0.001074 -0.000769 -0.000476