       Lambda  D_rot      bias         w0         w1         w2         w3         w4         w5         w6         w7         w8        w9       w10       w11       w12       w13       w14       w15       w16       w17       w18       w19       w20       w21       w22       w23       w24       w25       w26       w27       w28       w29       w30       w31       w32       w33       w34       w35       w36       w37       w38       w39       w40       w41       w42       w43       w44       w45       w46       w47       w48       w49       w50       w51       w52       w53       w54       w55       w56       w57       w58       w59       w60       w61       w62       w63       w64       w65       w66       w67       w68       w69       w70       w71       w72       w73       w74       w75       w76       w77       w78       w79       w80       w81       w82       w83       w84       w85       w86       w87       w88       w89       w90       w91       w92       w93       w94       w95       w96       w97       w98       w99      w100      w101      w102      w103      w104      w105      w106      w107      w108      w109      w110      w111      w112      w113      w114      w115      w116      w117      w118      w119      w120      w121      w122      w123      w124      w125      w126      w127      w128      w129      w130      w131      w132      w133      w134      w135      w136      w137      w138      w139      w140      w141      w142      w143      w144      w145      w146      w147      w148      w149      w150      w151      w152      w153      w154      w155      w156      w157      w158      w159      w160      w161      w162      w163      w164      w165      w166      w167      w168      w169      w170      w171      w172      w173      w174      w175      w176      w177      w178      w179      w180      w181      w182      w183      w184      w185      w186      w187      w188      w189      w190      w191      w192      w193      w194      w195      w196      w197      w198      w199
0  lambda_inf  0.000 -0.039088   1.869411   1.849899   1.830368   1.810818   1.791251   1.771667   1.752065   1.732447   1.712814  1.693165  1.673501  1.653823  1.634131  1.614425  1.594707  1.574976  1.555233  1.535479  1.515714  1.495939  1.476154  1.456359  1.436556  1.416744  1.396924  1.377097  1.357263  1.337423  1.317576  1.297725  1.277868  1.258007  1.238142  1.218274  1.198403  1.178529  1.158654  1.138777  1.118899  1.099021  1.079143  1.059265  1.039389  1.019514  0.999642  0.979772  0.959905  0.940041  0.920182  0.900327  0.880478  0.860633  0.840795  0.820964  0.801139  0.781322  0.761514  0.741713  0.721922  0.702140  0.682368  0.662606  0.642856  0.623116  0.603389  0.583674  0.563972  0.544283  0.524609  0.504948  0.485302  0.465672  0.446057  0.426458  0.406876  0.387311  0.367764  0.348235  0.328725  0.309233  0.289761  0.270309  0.250877  0.231466  0.212077  0.192709  0.173364  0.154041  0.134741  0.115465  0.096213  0.076986  0.057783  0.038606  0.019454  0.000329 -0.018769 -0.037840 -0.056884 -0.075900 -0.094887 -0.113845 -0.132774 -0.151674 -0.170543 -0.189381 -0.208189 -0.226965 -0.245709 -0.264421 -0.283100 -0.301746 -0.320359 -0.338938 -0.357482 -0.375992 -0.394466 -0.412906 -0.431309 -0.449676 -0.468006 -0.486299 -0.504554 -0.522772 -0.540951 -0.559092 -0.577194 -0.595256 -0.613279 -0.631261 -0.649203 -0.667104 -0.684964 -0.702782 -0.720558 -0.738292 -0.755983 -0.773631 -0.791236 -0.808796 -0.826313 -0.843786 -0.861213 -0.878596 -0.895932 -0.913224 -0.930469 -0.947667 -0.964819 -0.981923 -0.998981 -1.015990 -1.032951 -1.049864 -1.066729 -1.083544 -1.100310 -1.117026 -1.133692 -1.150308 -1.166874 -1.183389 -1.199852 -1.216265 -1.232625 -1.248934 -1.265190 -1.281394 -1.297545 -1.313643 -1.329688 -1.345679 -1.361616 -1.377499 -1.393328 -1.409102 -1.424821 -1.440485 -1.456094 -1.471646 -1.487144 -1.502584 -1.517969 -1.533297 -1.548568 -1.563782 -1.578939 -1.594038 -1.609080 -1.624064 -1.638989 -1.653856 -1.668665 -1.683415 -1.698105 -1.712737 -1.727309 -1.741822 -1.756275 -1.770668
1  lambda_inf  0.001 -0.004323   5.173803   4.925635   4.684390   4.449244   4.218604   3.993506   3.774811   3.559827   3.350874  3.146036  2.946372  2.753366  2.566625  2.386508  2.211277  2.041142  1.877359  1.718854  1.566524  1.419374  1.276831  1.139125  1.008100  0.883729  0.763166  0.648200  0.538406  0.434032  0.333580  0.237028  0.143922  0.054998 -0.030664 -0.112599 -0.190255 -0.263519 -0.332343 -0.398251 -0.460206 -0.519596 -0.576139 -0.629100 -0.679516 -0.726632 -0.771745 -0.814525 -0.854850 -0.893757 -0.931477 -0.967743 -1.000235 -1.031669 -1.059780 -1.083588 -1.106288 -1.126123 -1.144993 -1.161459 -1.174415 -1.186277 -1.193760 -1.198347 -1.199348 -1.200553 -1.200212 -1.197509 -1.193483 -1.188805 -1.184653 -1.180912 -1.174329 -1.168211 -1.161504 -1.154531 -1.145764 -1.135363 -1.124872 -1.114076 -1.102507 -1.089825 -1.077812 -1.064455 -1.050962 -1.036764 -1.021959 -1.006089 -0.990230 -0.973967 -0.957620 -0.941744 -0.924573 -0.905565 -0.885749 -0.866403 -0.845941 -0.825135 -0.804584 -0.783346 -0.761064 -0.740106 -0.719136 -0.697168 -0.674839 -0.654641 -0.635086 -0.617225 -0.600505 -0.582682 -0.562417 -0.542792 -0.522666 -0.502773 -0.483351 -0.466499 -0.450256 -0.433721 -0.415982 -0.398885 -0.381566 -0.364633 -0.348197 -0.333056 -0.316698 -0.301103 -0.285261 -0.271295 -0.258777 -0.247078 -0.236209 -0.226825 -0.216947 -0.207814 -0.198794 -0.189738 -0.180169 -0.170889 -0.160494 -0.150545 -0.140366 -0.130275 -0.118860 -0.107066 -0.094444 -0.082477 -0.070085 -0.058792 -0.046844 -0.034254 -0.021109 -0.008721  0.002573  0.012888  0.021492  0.029204  0.036490  0.044700  0.053531  0.062195  0.070191  0.075893  0.082332  0.089848  0.098657  0.107308  0.117038  0.125242  0.132849  0.139752  0.147368  0.153414  0.158427  0.163311  0.167793  0.173454  0.178458  0.182597  0.186989  0.192444  0.197617  0.202705  0.206795  0.209446  0.211656  0.213830  0.215818  0.217142  0.217819  0.219768  0.221211  0.222324  0.222816  0.223248  0.224302  0.226205  0.226548  0.227049  0.227248  0.227564  0.229920  0.233043
2  lambda_inf  0.010 -0.001170  12.953189  11.449442  10.040322   8.711183   7.468454   6.304954   5.219605   4.220395   3.299478  2.469211  1.716938  1.039792  0.418167 -0.137019 -0.629797 -1.061768 -1.443545 -1.778257 -2.067548 -2.322748 -2.533389 -2.706085 -2.842595 -2.947731 -3.020025 -3.053469 -3.069229 -3.053478 -3.010572 -2.952233 -2.877531 -2.789274 -2.694032 -2.589547 -2.478263 -2.367521 -2.258164 -2.149416 -2.034038 -1.932997 -1.825841 -1.709383 -1.588051 -1.460365 -1.328525 -1.201489 -1.075496 -0.958306 -0.856214 -0.755355 -0.663903 -0.578186 -0.499685 -0.415590 -0.342293 -0.271561 -0.211810 -0.160003 -0.128195 -0.095874 -0.060965 -0.023750  0.010376  0.034678  0.053723  0.083350  0.115087  0.141831  0.180947  0.207934  0.240384  0.256094  0.259002  0.262309  0.270857  0.277302  0.283270  0.275158  0.272892  0.256848  0.236201  0.218552  0.194510  0.170782  0.155256  0.142858  0.127721  0.116526  0.105020  0.095003  0.076288  0.053365  0.039684  0.030674  0.018567  0.004046 -0.014009 -0.027253 -0.048231 -0.064268 -0.081901 -0.087489 -0.088954 -0.099747 -0.105152 -0.111748 -0.117282 -0.120573 -0.121809 -0.114548 -0.102399 -0.096595 -0.088652 -0.086457 -0.091197 -0.093657 -0.093466 -0.089276 -0.088833 -0.093090 -0.090727 -0.093680 -0.098495 -0.096585 -0.084034 -0.075666 -0.071356 -0.070990 -0.072240 -0.072660 -0.074859 -0.078645 -0.084303 -0.093730 -0.096594 -0.102523 -0.108458 -0.107251 -0.100550 -0.094820 -0.088320 -0.078874 -0.059758 -0.047889 -0.034021 -0.007904  0.017913  0.051265  0.084205  0.113345  0.135685  0.156842  0.170751  0.171375  0.166731  0.160154  0.147797  0.134981  0.121141  0.108107  0.098926  0.093992  0.090192  0.088364  0.080209  0.075316  0.081979  0.092289  0.102679  0.117257  0.127309  0.139940  0.150964  0.157331  0.157307  0.150933  0.139684  0.128418  0.116620  0.109135  0.089800  0.071563  0.050010  0.027339  0.006400 -0.005790 -0.013446 -0.021588 -0.032293 -0.054198 -0.076157 -0.099375 -0.122713 -0.142210 -0.160825 -0.185252 -0.206079 -0.231440 -0.251362 -0.271117
3  lambda_inf  0.100 -0.000348  28.433819  21.267659  15.090285   9.850716   5.429792   1.775982  -1.133124  -3.345635  -5.026433 -6.161155 -6.861817 -7.182314 -7.221831 -7.062795 -6.757593 -6.284450 -5.700304 -5.056303 -4.373235 -3.726032 -3.125840 -2.561268 -2.044385 -1.557413 -1.103759 -0.724381 -0.379852 -0.104990  0.148891  0.318888  0.446150  0.539598  0.614145  0.609371  0.570465  0.507638  0.467588  0.423228  0.389176  0.327280  0.296076  0.278882  0.242903  0.148849  0.045210 -0.029254 -0.079124 -0.163584 -0.237059 -0.253309 -0.196660 -0.178316 -0.200319 -0.162473 -0.130368 -0.080876 -0.004185  0.066531  0.099523  0.105934  0.092006  0.056171  0.069399  0.112975  0.172176  0.226762  0.230307  0.160023  0.135064  0.115542  0.074076  0.009941  0.003138  0.014235  0.009418  0.013852  0.017463  0.028337  0.066437  0.099256  0.058271  0.057622  0.051762  0.028746  0.010421  0.008518  0.005602 -0.051343 -0.068447 -0.053119 -0.131310 -0.138719 -0.144381 -0.116313 -0.080008 -0.047313 -0.044288 -0.067507 -0.118942 -0.154754 -0.192864 -0.253912 -0.306356 -0.328238 -0.342901 -0.308244 -0.261305 -0.196598 -0.086285  0.046033  0.144747  0.186995  0.222562  0.248916  0.254181  0.258681  0.261204  0.212217  0.214884  0.207788  0.203103  0.175570  0.120273  0.080617  0.066807  0.049481  0.033672  0.042843  0.060818  0.087270  0.094435  0.107610  0.109204  0.075539  0.018961 -0.032713 -0.085568 -0.116428 -0.161628 -0.180805 -0.196438 -0.210122 -0.221957 -0.177927 -0.142294 -0.103491 -0.061814 -0.059831  0.004902  0.021799  0.038645  0.089768  0.112027  0.129260  0.110527  0.087694  0.081391  0.051696  0.035252  0.008335 -0.014744 -0.036993 -0.036517 -0.065637 -0.097965 -0.107064 -0.096988 -0.077843 -0.070682 -0.101849 -0.073700 -0.073952 -0.057889 -0.020461  0.062505  0.129437  0.182468  0.182186  0.181551  0.173361  0.154096  0.126257  0.084233  0.034965 -0.009763 -0.072329 -0.098940 -0.130787 -0.134880 -0.133321 -0.126856 -0.123291 -0.122124 -0.098127 -0.073756 -0.041781  0.010414  0.068450  0.129704  0.185809
4  lambda_inf  0.200 -0.000265  35.727467  24.228296  14.767463   7.238666   1.448451  -2.869475  -5.821885  -7.727478  -8.798842 -9.119546 -8.960297 -8.424964 -7.618037 -6.666711 -5.754381 -4.780260 -3.785063 -2.892113 -2.028706 -1.311328 -0.734528 -0.318239 -0.075099  0.133204  0.211015  0.280403  0.338663  0.371023  0.407832  0.414655  0.387937  0.340626  0.244302  0.216737  0.263114  0.197249  0.180600  0.108116  0.105024  0.105644  0.105218  0.178355  0.222045  0.177487  0.144672  0.158549  0.129499  0.028260 -0.054272 -0.156342 -0.131643 -0.150857 -0.201480 -0.214989 -0.243614 -0.267669 -0.204461 -0.157667 -0.124518 -0.086851 -0.029111  0.009294  0.051988  0.052092  0.096711  0.102311  0.115597  0.137998  0.153283  0.186966  0.198551  0.113845  0.146080  0.151239  0.100834  0.093423  0.039052 -0.009321 -0.027033 -0.061678  0.011703  0.051804  0.037675  0.045495 -0.042174 -0.121602 -0.186959 -0.185485 -0.139689 -0.080795 -0.101995 -0.092895 -0.128402 -0.089727 -0.032229  0.032696  0.041415  0.044891  0.034347  0.063639  0.102171  0.069250 -0.019545 -0.064472 -0.030881 -0.004222 -0.006604 -0.026394 -0.001560 -0.016115 -0.003306 -0.030543 -0.087239 -0.136027 -0.138464 -0.106739 -0.057146 -0.094053 -0.096499 -0.039390  0.048956  0.041537  0.067956  0.085832  0.075392  0.061211  0.054140  0.101352  0.184584  0.180866  0.137081  0.062901 -0.009907 -0.106516 -0.181376 -0.200956 -0.239667 -0.209008 -0.112942 -0.004768  0.043555  0.110083  0.137271  0.128756  0.115908  0.104372  0.073710  0.057223  0.059194  0.067750  0.059364  0.024236 -0.039875 -0.065208 -0.024113 -0.019654  0.038063  0.041379 -0.003203 -0.055389 -0.046897 -0.043778 -0.035530 -0.058351 -0.074911 -0.107459 -0.057041 -0.034916 -0.016885  0.018525  0.053411  0.059465  0.083257  0.167393  0.193400  0.128334  0.071683  0.009960 -0.064044 -0.116309 -0.096597 -0.044328 -0.014858 -0.014357  0.025710  0.066547  0.117335  0.137234  0.136843  0.123267  0.116958  0.068012 -0.018459 -0.058469 -0.054808 -0.066101 -0.130173 -0.171937 -0.177624 -0.192003
5  lambda_inf  1.000 -0.000242  56.484639  25.956425   5.325400  -7.260877 -13.649250 -15.698710 -14.928835 -12.714480 -10.031399 -7.299395 -4.852740 -2.766645 -1.392431 -0.521506  0.004222  0.266795  0.329243  0.488652  0.705124  0.675046  0.455134  0.353312  0.202084  0.082825 -0.011718 -0.011894  0.084756  0.025332 -0.002368 -0.092253 -0.134706 -0.164300 -0.211071 -0.024356  0.109279  0.214731  0.138614  0.108558  0.078530 -0.022700 -0.186373 -0.290050 -0.279848 -0.310356 -0.197334  0.050308  0.178667  0.257266  0.323392  0.237357  0.180291  0.165426  0.094380  0.016491 -0.050180 -0.016630  0.022913 -0.009288 -0.032523  0.020990 -0.061089 -0.079625 -0.150744 -0.198050 -0.142868  0.031651  0.194666  0.188983  0.082512  0.018168  0.060513 -0.001409 -0.124400 -0.217156 -0.332202 -0.314713 -0.347788 -0.406565 -0.188790  0.024484  0.273576  0.431750  0.531381  0.469505  0.211101  0.138376  0.012652 -0.176564 -0.163566 -0.060378  0.108130  0.200292  0.167876  0.145574  0.034137 -0.050991 -0.175045 -0.206806 -0.197656 -0.145677 -0.055293 -0.111197 -0.209523 -0.055278  0.029963  0.151390  0.176661  0.135787  0.097450  0.057357  0.054217 -0.035245 -0.139613 -0.077581 -0.029441 -0.021943  0.079094  0.047134 -0.024612 -0.025633  0.010895  0.028584 -0.043895 -0.130808 -0.131527 -0.220481 -0.133861 -0.073807 -0.016289  0.129827  0.156308  0.299549  0.305165  0.180104  0.120150  0.012395 -0.098747 -0.131885 -0.051506 -0.034042 -0.207016 -0.205645 -0.117458 -0.108523 -0.122433  0.028506  0.049763  0.011711 -0.043060 -0.105583 -0.126609 -0.076572 -0.000362  0.149712  0.221049  0.175892  0.199516  0.161068  0.084599  0.097948  0.100347  0.163254  0.158566 -0.018259 -0.147475 -0.187891 -0.112222 -0.188683 -0.154137 -0.217967 -0.219302 -0.093312  0.022615  0.074932  0.143920  0.210706  0.286867  0.332459  0.207844 -0.083267 -0.164036 -0.106070 -0.124777 -0.217442 -0.219280 -0.156280  0.033108  0.098880  0.126569 -0.004779 -0.142755 -0.179718 -0.135220 -0.085002  0.106049  0.317112  0.296766  0.248796 -0.032597 -0.328318
6  lambda_inf  2.000 -0.000170  66.824058  22.420503  -3.552740 -15.676208 -19.385304 -18.125622 -14.349144 -10.147899  -6.471858 -3.309513 -1.270802  0.068171  0.684143  0.731832  0.403651  0.050364 -0.101873 -0.141457  0.182614  0.160712  0.368318  0.460741  0.331336  0.186815 -0.027769 -0.016835 -0.028809  0.018639  0.116793 -0.073794 -0.127594 -0.167772 -0.097417 -0.049668 -0.131098 -0.113190  0.041256  0.134985  0.065156  0.029338  0.146294  0.130196  0.075331 -0.004801 -0.195398 -0.359395 -0.236712  0.048645  0.185660  0.149318  0.196225  0.145400  0.001559  0.021722  0.100799  0.130848  0.094838 -0.031041  0.043798  0.015501 -0.049825 -0.183538 -0.345324 -0.160681 -0.032187  0.061340  0.264987  0.162017 -0.227831 -0.210754 -0.150294 -0.202675 -0.193845 -0.078932  0.091999  0.237087  0.280832  0.223333  0.121461  0.030491  0.090588  0.109514 -0.071923 -0.054659 -0.112071 -0.060881  0.032078 -0.146952 -0.019414  0.095655 -0.002023  0.094599  0.248490  0.104712 -0.154966 -0.250562 -0.232564 -0.166291 -0.061366  0.111028  0.131225  0.055388  0.072355  0.033965  0.063933  0.046897  0.064737  0.020319 -0.048010 -0.073354 -0.034641 -0.019228  0.071721  0.143175  0.042699 -0.152472 -0.141612 -0.121069 -0.112919 -0.150974 -0.086452 -0.065563 -0.083931  0.008018  0.084354  0.219555  0.279110  0.237642  0.034681  0.053555  0.075106  0.133924  0.026679 -0.023729 -0.148995  0.054481  0.021683 -0.102439 -0.278084 -0.273808 -0.307300 -0.091083  0.203581  0.274713  0.224686  0.196933 -0.022776 -0.225904 -0.094713 -0.181332 -0.326910 -0.291196 -0.267260 -0.002316  0.281547  0.301208  0.298042  0.338471  0.431312  0.328186  0.030000 -0.248586 -0.395390 -0.295045 -0.142261  0.001637  0.158230  0.279469  0.093087 -0.013594  0.038712 -0.054144 -0.114314  0.020504 -0.044470 -0.138308 -0.089478  0.079158  0.018650 -0.008712 -0.002968 -0.015927 -0.031115 -0.175649 -0.293432 -0.163933  0.067939  0.352920  0.274255  0.164285 -0.035223 -0.151958 -0.397372 -0.430498  0.009845  0.376257  0.258290  0.179755  0.072885 -0.155906